tree
version=v3
num_class=1
num_tree_per_iteration=1
label_index=0
max_feature_idx=35
objective=binary sigmoid:1
feature_names=Column_0 Column_1 Column_2 Column_3 Column_4 Column_5 Column_6 Column_7 Column_8 Column_9 Column_10 Column_11 Column_12 Column_13 Column_14 Column_15 Column_16 Column_17 Column_18 Column_19 Column_20 Column_21 Column_22 Column_23 Column_24 Column_25 Column_26 Column_27 Column_28 Column_29 Column_30 Column_31 Column_32 Column_33 Column_34 Column_35
feature_infos=[0:1] [0:1] [0:1] [0:1] [0.31468082597720609:0.73453185810970079] [0.26546814189029921:0.68531917402279385] [0.28422189819044102:0.74218194127511905] [0.25781805872488101:0.71577810180955903] [0:1] [0:1] [0:1] [0:1] [0.35299999999999998:1.016] [0.34499999999999997:1.179] [0:1] [0:1] [0.080000000000000002:0.5] [0.048000000000000001:0.52600000000000002] [0:0.99422680437320121] [0:0.99999999999999911] [0:1] [0:1.0000000000000002] [0:1] [0:1] [0:1] [0:1] [0.184:0.52100000000000002] [0.193:0.45050000000000001] [0:1] [0:1.0000000000000009] [0:1] [0:1] [0:1] [0:1] [0:0.99999999999999989] [0:1]
tree_sizes=3302 3376 3386 3370 3369 3382 3386 3374 3386 3366 3385 3390 3398 3396 3376 3383 3393 3396 3390 3389 3391 3373 3377 3383 3393 3389 3388 3407 3372 3388 3390 3385 3394 3381 3385 3396 3390 3394 3394 3393 3368 3401 3393 3404 3396 3416 3403 3398 3401 3406 3404 3378 3395 3412 3392 3400 3395 3409 3397 3411 3394 3386 3400 3415 3406 3392 3411 3389 3403 3401 3403 3392 3403 3408 3402 3398 3406 3401 3399 3410 3400 3383 3398 3405 3405 3396 3416 3390 3400 3377 3405 3397 3415 3407 3393 3407 3402 3410 3404 3396 3421 3412 3428 3406 3405 3406 3414 3413 3392 3414 3413 3413 3412 3422 3414 3419 3421 3413 3412 3421 3410 3421 3409 3405 3403 3420 3415 3404 3422 3426 3418 3408 3429 3436 3416 3428 3430 3425 3418 3436 3421 3441 3431 3427 3443 3441 3422 3433 3426 3441 3428 3429 3434 3424 3451 3439 3415 3427 3428 3433 3434 3428 3424 3440 3444 3442 3433 3431 3430 3432 3433 3439 3442 3439 3437 3442 3438 3444 3436 3432 3436 3432 3443 3447 3442 3443 3435 3447 3445 3445 3456 3450 3450 3443 3427 3445 3443 3436 3441 3440 3437 3434 3445 3450 3454 3442 3427 3445 3442 3449 3448 3445 3450 3440 3447 3459 3449 3457 3447 3446 3454 3448 3448 3448 3468 3432 3453 3444 3455 3457 3455 3457 3454 3453 3456 3458 3452 3455 3461 3451 3466 3460 3451 3461 3453 3455 3459 3461 3457 3469 3440 3461 3466 3452 3472 3469 3472 3463 3463 3435 3464 3461 3467 3461 3468 3465 3445 3463 3462 3467 3455 3469 3471 3466 3479 3458 3451 3458 3479 3459 3461 3476 3466 3475 3457 3475 3474 3479 3472 3477 3481 3470 3464 3474 3462 3478 3462 3483 3459 3469 3472 3478 3464 3485 3479 3485 3458 3460 3475 3470 3486 3463 3480 3491 3493 3490 3475 3485 3486 3484 3482 3484 3473 3474 3480 3483 3492 3494 3473 3482 3484 3494 3494 3495 3500 3498 3492 3499 3497 3499 3475 3503 3485 3474 3501 3486 3502 3504 3497 3501 3501 3505 3488 3500 3493 3505 3506 3503 3505 3499 3507 3497 3520 3506 3501 3507 3503 3513 3501 3508 3508 3517 3507 3515 3509 3515 3505 3511 3504 3510 3514 3507 3514 3521 3516 3518 3509 3515 3503 3515 3502 3513 3517 3528 3520 3502 3511 3515 3507 3515 3516 3524 3508 3513 3513 3503 3521 3515 3508 3522 3528 3520 3521 3526 3512 3504 3517 3526 3525 3531 3528 3519 3511 3530 3536 3519 3525 3532 3527 3499 3534 3531 3535 3523 3527 3528 3525 3531 3536 3520 3520 3534 3532 3528 3540 3523 3519 3537 3524 3530 3525 3537 3530 3532 3534 3530 3535 3529 3546 3546 3531 3531 3533 3511 3543 3540 3530 3537 3549 3542 3554 3552 3540 3549 3546 3553 3544 3538 3544 3534 3553 3550 3548 3562 3543 3552 3552 3541 3548 3539 3552 3541 3533 3559 3563 3544 3546 3551 3548 3547 3551 3558 3554 3561 3543 3536 3546 3553 3567 3558 3563 3542 3563 3558 3546 3560 3575 3557 3551 3570 3561 3569 3581 3562 3559 3569 3552 3560 3576 3549 3566 3566 3566 3556 3558 3560 3553 3561 3564 3578 3568 3574 3567 3570 3569 3590 3590 3572 3568 3586 3578 3578 3590 3583 3575 3585 3571 3581 3583 3584 3561 3573 3568 3574 3578 3580 3587 3581 3588 3603 3587 3585 3576 3603 3576 3589 3609 3598 3585 3606 3601 3584 3595 3580 3605 3597 3588 3598 3598 3608 3595 3600 3590 3601 3603 3607 3594 3606 3584 3604 3604 3597 3619 3595 3593 3610 3612 3607 3609 3606 3610 3606 3607 3606 3609 3595 3595 3605 3611 3601 3613 3606 3591 3606 3604 3614 3599 3609 3598 3606 3609 3621 3609 3599 3609 3607 3614 3603 3604 3607 3617 3614 3594 3603 3608 3602 3613 3609 3619 3608 3609 3616 3605 3600 3611 3610 3625 3621 3625 3614 3615 3623 3606 3612 3619 3633 3623 3622 3609 3629 3639 3606 3629 3636 3632 3633 3628 3618 3619 3630 3618 3639 3618 3634 3628 3621 3640 3622 3628 3639 3646 3632 3629 3637 3632 3630 3638 3636 3625 3633 3640 3635 3636 3627 3641 3628 3633 3638 3637 3631 3643 3628 3633 3648 3635 3643 3635 3640 3636 3650 3622 3625 3644 3645 3644 3645 3644 3642 3646 3649 3628 3647 3649 3639 3654 3646 3655 3642 3646 3646 3644 3656 3639 3642 3638 3647 3648 3660 3656 3661 3635 3655 3655 3647 3652 3651 3654 3650 3648 3648 3660 3659 3663 3649 3683 3656 3651 3644 3670 3655 3671 3672 3679 3667 3656 3680 3672 3673 3684 3673 3675 3680 3675 3671 3683 3683 3663 3665 3661 3660 3679 3669 3677 3675 3671 3685 3679 3688 3678 3675 3683 3682 3688 3691 3671 3685 3686 3690 3680 3683 3706 3692 3685 3676 3680 3698 3692 3694 3691 3688 3694 3699 3685 3701 3691 3696 3683 3682 3691 3690 3697 3693 3675 3687 3708 3695 3696 3692 3699 3687 3688 3694 3696 3688 3673 3702 3689 3710 3691 3712 3698 3704 3700 3702 3701 3692 3679 3692 3708 3697 3699 3697 3700 3725 3697 3692 3688 3698 3701 3690 3708 3702 3696 3702 3695 3699 3701 3701 3680 3700 3699 3701 3705 3702 3699 3702 3711 3700 3694 3706 3703 3704 3702 3701 3694 3715 3688 3713 3468 3589 3473 3485 3465 3698 3586 3597 3480 3697 3459 3357 3584 3238 3478 3125 3232 3126 3349 3241 3125 3130 3350 3129 3107 3012 2780 3132 3126 3021 2779 3006 2775 2785 2905 2780 2773 3012 2778 2663 2791 2779 2676 2660 2653 2663 2772 2550 2783 2548 2552 2783 2432 2667 2552 2664 2666 2554 2442 2552 2550 2332 2430 2317 2437 2436 2439 2326 2309 2431 2319 2432 2319 2313 2211 2422 2332 2320 2205 2212 2445 2080 2215 2211 2206 2082 2208 2320 2204 2213 2088 2189 1982 2203 2095 2093 2087 1974 1977 1978 2089 2100

Tree=0
num_leaves=31
num_cat=0
split_feature=8 9 0 1 26 27 0 14 0 12 8 24 0 2 32 13 21 1 21 8 1 3 32 15 12 12 13 27 33 25
split_gain=61.6508 35.4209 32.591 21.3316 17.2132 11.0067 12.9315 11.9487 10.8797 10.993 10.6568 16.5125 9.41077 8.57179 8.23362 16.0599 8.18608 7.98445 7.58146 7.48125 6.97977 6.53273 6.3316 5.81002 5.74953 5.46487 5.49638 5.28005 5.24034 5.65443
threshold=0.59150000000000003 0.5505000000000001 0.42050000000000004 0.49350000000000005 0.29322727272727284 0.32045000000000007 0.27200000000000008 0.47888888888888897 0.65100000000000013 0.77168888888888909 0.24050000000000002 0.3075 0.62150000000000005 0.13069444444444447 0.27128427128427141 0.70705454545454549 0.84778317873716913 0.5355000000000002 0.49518867595377386 0.48100000000000004 0.52050000000000007 0.2391534391534392 0.26825396825396847 0.35746352413019084 0.69485000000000008 0.71595454545454562 0.71794999999999998 0.31775000000000003 0.25353535353535356 0.56666666666666687
decision_type=8 10 2 2 2 2 2 2 2 2 10 2 2 10 2 2 8 2 10 10 2 10 2 2 2 2 2 2 2 2
left_child=1 2 5 28 12 6 -1 -8 9 16 -3 18 19 24 15 -15 21 -13 -12 27 -20 -5 -19 -16 -6 -26 -27 -4 29 -2
right_child=3 10 4 8 13 -7 7 -9 -10 -11 11 17 -14 14 23 -17 -18 22 20 -21 -22 -23 -24 -25 25 26 -28 -29 -30 -31
leaf_value=0.011442456431184328 0.09258725452707936 0.021403966171856817 0.072539716173975893 0.14443433647476078 0.1757632115239981 0.020416116455906796 0.040081796935617836 0.13221610941112114 0.16150066761587262 0.044085145608280585 0.022149957610769794 0.1307730418663241 0.13060844795537907 0.018498525830827367 0.10929353648799893 0.13814984169322364 0.052492177820872378 0.10169977196030822 0.10690692477929614 0.098483589336815683 0.044473162479630984 0.09258725452707936 0.034115267663860846 0.17459991142613909 0.087814031109673771 0.12043105779527864 0.17899905777321509 0.0014620801947907852 0.16923960705365154 0.15941238237075767
leaf_weight=5.237550929188731 5.4869581162929517 17.209095910191536 4.9881437420845085 14.465616852045065 11.722137793898581 12.470359355211256 5.2375509291887274 10.72450904548168 7.9810299873352042 7.731622800230979 18.456131845712662 10.475101858377458 7.2328084260225287 5.7363653033971804 8.9786587357521039 5.4869581162929535 4.9881437420845023 8.2304371744394285 6.9834012389183071 8.4798443615436536 12.470359355211256 10.475101858377455 5.9857724905014029 5.4869581162929526 5.237550929188731 8.9786587357521075 7.2328084260225287 5.4869581162929535 29.679455265402794 7.4822156131267548
leaf_count=21 22 69 20 58 47 50 21 43 32 31 74 42 29 23 36 22 20 33 28 34 50 42 24 22 21 36 29 22 119 30
internal_value=0.0974684 0.0820094 0.0993259 0.132229 0.115809 0.0576897 0.0796153 0.101985 0.108472 0.097234 0.0562511 0.0658306 0.0820862 0.130813 0.109131 0.0769947 0.110964 0.0976498 0.0451062 0.0635711 0.0668853 0.122659 0.0732431 0.134065 0.147605 0.132216 0.146561 0.0353086 0.157654 0.13114
internal_weight=0 198.528 118.718 88.2901 85.0479 33.67 21.1996 15.9621 45.6415 37.6605 79.8103 62.6012 26.1878 58.8601 25.6889 11.2233 29.9289 24.6913 37.9099 18.9549 19.4538 24.9407 14.2162 14.4656 33.1712 21.449 16.2115 10.4751 42.6486 12.9692
internal_count=1150 796 476 354 341 135 85 64 183 151 320 251 105 236 103 45 120 99 152 76 78 100 57 58 133 86 65 42 171 52
is_linear=0
shrinkage=1


Tree=1
num_leaves=31
num_cat=0
split_feature=1 0 8 8 14 0 10 26 0 9 0 12 25 35 9 26 1 21 3 27 6 18 8 10 17 13 20 14 32 8
split_gain=55.9268 30.2403 25.0811 17.7326 14.3831 18.747 15.1019 12.7663 11.2131 11.0446 9.32994 10.5723 8.92102 8.62687 8.41501 7.99457 7.08496 6.59255 6.39463 6.38425 6.35645 6.15563 8.19624 6.11396 5.66731 5.48066 5.38436 5.26341 5.09732 4.83361
threshold=0.49250000000000005 0.46650000000000008 0.59150000000000003 0.62000000000000011 0.43875000000000008 0.27050000000000007 0.30336700336700334 0.29372500000000007 0.57450000000000012 0.44950000000000007 0.65100000000000013 0.77168888888888909 0.4541958041958043 0.35333333333333333 0.48100000000000004 0.32638888888888895 0.44700000000000006 0.84778317873716913 0.2391534391534392 0.32540000000000008 0.53344054193937651 0.76807622233862205 0.44950000000000007 0.26801346801346804 0.24950000000000003 0.67557777777777794 0.3052499408293417 0.56515151515151529 0.30844155844155852 0.44950000000000007
decision_type=2 2 8 8 2 2 2 2 2 10 2 2 2 8 8 2 2 8 10 2 2 2 8 2 10 2 10 2 2 8
left_child=1 12 4 7 21 -6 13 8 -3 26 11 17 -1 23 19 29 24 18 -4 -14 -18 28 -23 -7 -9 -26 -8 -17 -2 -11
right_child=2 3 10 -5 5 6 9 16 -10 15 -12 -13 14 -15 -16 27 20 -19 -20 -21 -22 22 -24 -25 25 -27 -28 -29 -30 -31
leaf_value=0.029947321368909142 -0.04432036762934935 -0.04353140487542851 0.046326805819525231 0.069824105420369265 -0.077723190002716311 -0.0118716464184091 -0.019740580704433616 0.093734509247912823 0.034073534144884586 -0.046815854999525619 0.061089085529879128 -0.050615585732175609 0.030199861447408601 0.084722253317269791 -0.062393995588279044 -0.10200546108771168 -0.034448132005278312 -0.036270475675130608 -0.0046359807403386312 -0.035296698932731713 0.038954427227342131 -0.065042584179755336 0.020595171944450347 0.055654884437360323 0.0076654231469908286 0.062736545055541049 0.050437086392095855 -0.034265885211924078 -0.080671303922296142 0.015430812889785032
leaf_weight=8.4692644923925382 20.473118677735329 10.726665616035463 14.92107698321343 32.789373859763145 10.495590597391127 10.223084822297098 5.2314418703317624 6.9662311971187618 8.2227377295494062 6.2420279085636148 7.9480609893798819 7.7462356835603705 6.9730107337236422 5.2280842810869208 10.980263158679007 6.7455035299062711 4.9863143563270551 5.2447756230831137 10.477529525756834 7.9767757207155228 7.2200035452842712 5.2410459667444202 5.9840726703405389 4.9874121397733679 7.468920603394511 11.433875411748884 5.7235996574163437 4.9881768971681595 18.232079729437828 6.2329519391059884
leaf_count=34 82 43 60 132 42 41 21 28 33 25 32 31 28 21 44 27 20 21 42 32 29 21 24 20 30 46 23 20 73 25
internal_value=0 0.0252574 -0.0193155 0.0405254 -0.0317343 -0.0164339 -0.00486481 0.0236785 -0.0098562 -0.0247312 0.0117809 0.00157234 -0.0146061 0.0293144 -0.0291582 -0.0435815 0.0403682 0.0147647 0.0253034 -0.00474722 0.00896928 -0.0519891 -0.0193894 0.0102698 0.0551838 0.0409767 0.0169246 -0.0732083 -0.0614435 -0.0157152
internal_weight=0 124.213 162.366 89.8141 116.028 66.0979 55.6023 57.0247 18.9494 35.1637 46.3377 38.3896 34.3993 20.4386 25.93 24.2087 38.0753 30.6434 25.3986 14.9498 12.2063 49.9303 11.2251 15.2105 25.869 18.9028 10.955 11.7337 38.7052 12.475
internal_count=1150 499 651 361 465 265 223 229 76 141 186 154 138 82 104 97 153 123 102 60 49 200 45 61 104 76 44 47 155 50
is_linear=0
shrinkage=0.05


Tree=2
num_leaves=31
num_cat=0
split_feature=0 1 9 8 26 8 10 0 24 0 14 10 13 35 1 4 34 24 15 13 18 0 30 26 20 11 35 3 22 23
split_gain=51.4089 39.711 20.7108 16.1547 13.8384 13.6595 19.0931 12.1167 10.4918 9.07875 12.1106 15.6542 8.30459 8.28324 8.99094 8.05175 7.99641 7.5675 7.51554 7.019 6.55464 6.39166 5.94326 5.87661 5.80545 5.34521 4.50236 5.46979 4.45776 4.4081
threshold=0.42150000000000004 0.49350000000000005 0.51650000000000007 0.62000000000000011 0.29372500000000007 0.60750000000000004 0.31043771043771046 0.57450000000000012 0.24083333333333332 0.27050000000000007 0.47888888888888897 0.30336700336700334 0.74652272727272739 0.31647058823529417 0.44700000000000006 0.46277326231693583 0.28022452504317796 0.36148148148148157 0.31043771043771046 0.73465000000000014 0.61342832100568334 0.61850000000000016 0.15319444444444447 0.30495000000000005 0.69786835328866548 0.45505050505050509 0.28588235294117653 0.27222222222222231 0.48301698301698315 0.28240740740740744
decision_type=2 2 8 8 2 8 2 2 2 2 2 2 2 10 2 2 8 2 2 2 2 2 10 2 8 2 10 10 2 2
left_child=9 3 16 4 7 6 8 20 -4 -1 29 17 13 14 -6 -8 26 -12 -18 -13 -2 24 -15 -17 -7 -25 -3 28 -28 -11
right_child=1 2 5 -5 12 21 15 -9 -10 10 11 19 -14 22 -16 23 18 -19 -20 -21 -22 -23 -24 25 -26 -27 27 -29 -30 -31
leaf_value=-0.073364223457586905 -0.006512909637536363 -0.0053130006980367751 -0.050089042087727256 0.061241025291756623 0.041574745244057999 0.013657231601181125 -0.00074735557600573714 0.032440916126489409 0.038315648167096587 -0.038112098674974247 -0.0080385549772360211 -0.0090498726383110122 0.084638034816983843 0.055682692593873429 -0.032955609100514614 -0.087593794649502232 0.02782312198852014 0.065026297074378139 -0.05210118033636886 -0.084991272750314262 -0.079196506016139936 0.051990558289062211 -0.0019451247465930932 -0.075268327167477903 -0.052433193716635865 -0.019044205031296974 0.078442707266382639 0.0066184338513495013 0.028758588625294408 -0.088090922846797426
leaf_weight=15.98822398483753 5.7424275726079959 6.9714334458112708 4.9963406026363364 34.802762195467949 6.9342025667428997 9.9436245709657669 5.4950590282678595 8.205167427659033 10.223494961857794 9.4913210719823855 7.2208685129880923 5.7266979366540891 6.9366223663091651 20.575260281562809 9.7167747914791089 16.234134659171104 5.2253066003322584 6.9593643099069595 6.7291623502969742 6.4920130223035812 6.7453902065753937 6.1926147341728202 5.7172532975673667 7.9873965978622463 4.990324318408967 8.9796868711709958 9.695251673460012 8.4570569247007352 8.4488576948642713 8.2437821030616742
leaf_count=64 23 28 20 141 28 40 22 33 41 38 29 23 28 83 39 65 21 28 27 26 27 25 23 32 20 36 39 34 34 33
internal_value=0 0.0109412 -0.00865513 0.0333631 0.0196152 -0.0247961 -0.0381494 -0.01476 0.00929431 -0.0410828 -0.0293884 -0.00792054 0.0338759 0.0256763 -0.00191788 -0.0568097 0.0179502 0.0278202 -0.0171662 -0.0493989 -0.0457735 0.00928221 0.0431516 -0.0660885 -0.00842753 -0.0455122 0.0304544 0.039828 0.0553072 -0.0613437
internal_weight=0 225.946 120.57 105.376 70.5731 75.0427 53.9161 20.693 15.2198 60.1223 44.134 26.3989 49.8801 42.9435 16.651 38.6963 45.5271 14.1802 11.9545 12.2187 12.4878 21.1266 26.2925 33.2012 14.9339 16.9671 33.5726 26.6012 18.1441 17.7351
internal_count=1150 909 484 425 284 301 216 83 61 241 177 106 201 173 67 155 183 57 48 49 50 85 106 133 60 68 135 107 73 71
is_linear=0
shrinkage=0.05


Tree=3
num_leaves=31
num_cat=0
split_feature=0 1 9 8 8 10 24 0 14 9 10 35 4 34 0 34 34 14 20 15 35 6 23 7 4 8 21 26 21 11
split_gain=46.494 36.022 18.7212 15.2467 12.3405 17.2494 9.48014 8.2335 11.0698 12.4615 11.7498 7.71459 7.28406 7.23584 7.13551 7.77133 6.856 7.4095 6.79537 6.77664 6.24096 10.9977 5.95977 5.56771 8.74266 8.94044 6.2127 5.33863 5.30001 4.83984
threshold=0.42150000000000004 0.49350000000000005 0.51650000000000007 0.36950000000000005 0.60750000000000004 0.31043771043771046 0.24083333333333332 0.27050000000000007 0.46833333333333343 0.6795000000000001 0.28065843621399184 0.30627450980392162 0.46277326231693583 0.28022452504317796 0.6645000000000002 0.18134715025906739 0.21113989637305705 0.42361111111111122 0.44882702805291058 0.31043771043771046 0.3015686274509804 0.51235427894540209 0.32440476190476197 0.33749368934004659 0.56148115309526014 0.59150000000000003 0.40778883855452636 0.30495000000000005 0.34127020625614529 0.45505050505050509
decision_type=2 2 8 8 8 2 2 2 2 8 2 10 2 8 2 10 10 2 8 2 10 2 2 2 2 8 8 2 10 2
left_child=7 3 13 11 5 6 -4 -1 -9 10 22 -2 -7 -3 15 -5 17 -17 -12 -15 21 -6 -10 -18 -25 26 -26 -14 -13 -29
right_child=1 2 4 14 20 12 -8 8 9 -11 18 28 27 19 -16 16 23 -19 -20 -21 -22 -23 -24 24 25 -27 -28 29 -30 -31
leaf_value=-0.069880171619379303 -0.046309751465336405 0.029007921541912035 -0.04761365807170137 0.06846488684704076 0.031828671035203822 -0.00070998290445442114 0.036459747061431243 -0.060786272892265403 0.0081594932355425528 -0.080493886546264062 0.0080755206402898013 -0.0094410802147191705 -0.083390297825788412 0.026479641061967707 0.083119110570084198 -0.040412751479315917 0.081891151364462303 0.031643959630483852 -0.06605015444838104 -0.049430234030341587 0.037714369075897473 -0.067395228783810116 0.083770184709810347 0.053803316401886618 0.013242813756015612 0.041379072382699202 -0.06584273961811242 -0.071599691528515155 0.055859798469118462 -0.018085433849548832
leaf_weight=15.946984827518461 7.7004587948322323 33.488829612731934 4.9933417737483969 14.96433714032173 5.700071185827257 5.4950887113809577 10.207102209329603 16.223865315318108 5.2162520885467583 4.9813166111707678 6.7218205183744404 7.6952553838491422 16.200447529554367 5.2161307930946332 9.0895192027091962 6.6889659464359266 6.1532225906848899 7.6453787684440613 5.7252848893404016 6.7378625422716141 9.9138609766960126 5.4748320728540421 5.20844966173172 20.236324340105057 4.9618596285581598 9.5706937164068204 4.9712703824043283 7.9769980460405376 5.211704358458519 8.9828538298606855
leaf_count=64 31 135 20 61 23 22 41 65 21 20 27 31 65 21 37 27 25 31 23 27 40 22 21 82 20 39 20 32 21 36
internal_value=0 0.0104289 -0.0082336 0.031849 -0.0235872 -0.0362834 0.00884166 -0.0390932 -0.0279546 -0.00883077 0.00677695 -0.00670308 -0.0540279 0.0170876 0.0412753 0.036217 0.0282046 -0.00198052 -0.02602 -0.0163069 0.00883613 -0.0167833 0.0459365 0.0376327 0.0307798 0.00689164 -0.0263374 -0.0628634 0.0169268 -0.0432556
internal_weight=0 225.276 120.387 104.889 74.9446 53.8558 15.2004 60.024 44.077 27.8531 22.8718 20.6074 38.6554 45.4428 84.2816 75.1921 60.2277 14.3343 12.4471 11.954 21.0888 11.1749 10.4247 45.8934 39.7401 19.5038 9.93313 33.1603 12.907 16.9599
internal_count=1150 909 484 425 301 216 61 241 177 112 92 83 155 183 342 305 244 58 50 48 85 45 42 186 161 79 40 133 52 68
is_linear=0
shrinkage=0.05


Tree=4
num_leaves=31
num_cat=0
split_feature=0 1 9 8 8 10 20 1 14 0 12 9 35 30 0 4 27 26 16 1 10 33 4 27 23 34 32 0 28 0
split_gain=42.0987 32.6944 16.9398 13.8919 11.3317 15.947 9.37387 7.72104 7.92853 8.1424 10.3383 10.777 6.95635 6.71736 6.67758 8.56188 7.88332 6.64631 6.25402 9.23658 5.98708 5.92015 7.01748 5.87598 10.7946 5.47275 5.24424 5.13849 4.91359 4.82504
threshold=0.42150000000000004 0.49350000000000005 0.51650000000000007 0.36950000000000005 0.6795000000000001 0.31043771043771046 0.52546473141185868 0.39850000000000008 0.44580419580419589 0.27050000000000007 0.6901010101010101 0.45850000000000007 0.3015686274509804 0.17958333333333334 0.5355000000000002 0.53605469256861882 0.34438333333333343 0.30495000000000005 0.21550000000000002 0.43450000000000005 0.30336700336700334 0.44494949494949498 0.5301631532896679 0.29614646464646471 0.35444444444444451 0.23877374784110539 0.19788359788359791 0.48050000000000004 0.67860551494112376 0.60650000000000015
decision_type=2 2 8 8 10 2 10 2 2 2 2 8 8 8 2 2 2 2 10 2 2 2 2 2 2 10 2 2 2 2
left_child=7 3 13 12 5 6 -4 -1 -9 -10 11 -11 -2 23 15 -5 18 -7 -17 -20 -12 22 -19 25 27 -3 -16 -25 -14 -6
right_child=1 2 4 14 29 17 -8 8 9 10 20 -13 28 -15 26 16 -18 21 19 -21 -22 -23 -24 24 -26 -27 -28 -29 -30 -31
leaf_value=0.016757504647930476 -0.043933578052907374 0.02264958706779989 0.040801447841484727 0.063781738845312366 -0.0053050116863332386 -0.067314067676023381 -0.035661206177317904 -0.07779311666214811 -0.066968424118633796 0.073459097644475169 -0.006234002286481341 -0.021670945130931259 0.043632028513607979 -0.037032916624159334 0.0066424952732550991 0.035780669800921767 0.045987428413513456 -0.017341680637995006 -0.068516984659019106 0.014713933832945267 -0.067777417869302678 0.016785540403456516 -0.082816618146692847 0.032357257319620372 0.066409894264862573 0.082552696583799795 0.059232285245485905 -0.027227888575585443 -0.018518918747532854 0.055131913006216941
leaf_weight=5.9591670483350745 7.7107879072427776 9.4056849479675275 9.9328018575906771 10.28163595497608 8.4486192911863309 21.583037778735161 6.720167100429534 12.680843338370321 12.142644450068472 4.9573778212070474 6.4473383128643063 7.4532259255647668 7.1803157925605756 5.2296977639198294 5.3997084051370612 5.6370868384838166 10.28597980737686 10.460351184010511 6.6886860728263837 6.6448922157287598 10.209477111697195 5.4658060967922202 6.7222280353307715 4.9543214887380662 5.9336576461791983 6.4121364951133719 38.827385544776917 13.417032971978186 5.708291694521904 5.421731323003768
leaf_count=24 31 38 40 42 34 87 27 51 49 20 26 30 29 21 22 23 42 42 27 27 41 22 27 20 24 26 159 54 23 22
internal_value=0 0.00994673 -0.00784088 0.0304174 -0.0224667 -0.0317583 0.00994558 -0.0372483 -0.0432202 -0.0325817 -0.0182169 0.0163285 -0.00636825 0.016267 0.0394637 0.0245329 0.0107397 -0.0474596 -0.00837173 -0.0270382 -0.0439559 -0.0285392 -0.042957 0.0232142 0.007778 0.0469328 0.0528116 -0.0111592 0.0161057 0.018319
internal_weight=0 224.472 120.107 104.365 74.7547 60.8844 16.653 59.8501 53.8909 41.2101 29.0674 12.4106 20.5994 45.3525 83.7654 39.5383 29.2566 44.2314 18.9707 13.3336 16.6568 22.6484 17.1826 40.1228 24.305 15.8178 44.2271 18.3714 12.8886 13.8704
internal_count=1150 909 484 425 301 245 67 241 217 166 117 50 83 183 342 161 119 178 77 54 67 91 69 162 98 64 181 74 52 56
is_linear=0
shrinkage=0.05


Tree=5
num_leaves=31
num_cat=0
split_feature=8 1 0 9 0 4 1 10 14 12 10 8 27 35 0 24 21 18 18 0 6 12 0 27 25 1 33 32 33 35
split_gain=38.5928 25.6278 16.094 16.9027 14.4948 11.258 10.9061 9.96149 10.2247 9.77498 10.1209 8.42004 7.59335 9.66123 7.58201 10.8433 9.10484 7.27095 6.73236 8.34999 8.68397 9.66032 6.38447 6.18307 7.82335 5.69666 5.34314 5.01463 5.006 4.88118
threshold=0.59150000000000003 0.38850000000000007 0.29500000000000004 0.5415000000000002 0.44950000000000007 0.45168591503289951 0.49350000000000005 0.36255144032921821 0.45505050505050509 0.68959090909090925 0.25551814440703341 0.31650000000000006 0.31590000000000007 0.27176470588235296 0.42650000000000005 0.22462121212121214 0.45963812804575027 0.12639762201334828 0.55857319317594378 0.65100000000000013 0.58501042192312858 0.75365000000000015 0.42150000000000004 0.32045000000000007 0.55994005994006013 0.47850000000000004 0.41616161616161618 0.22150072150072156 0.25353535353535356 0.34156862745098043
decision_type=8 2 2 10 2 2 2 2 2 2 2 10 2 10 2 2 8 2 2 2 2 2 2 2 2 2 2 2 2 10
left_child=1 23 17 9 -2 -5 28 8 26 11 -11 -4 13 -12 -14 -16 -17 -3 -8 20 21 -20 -10 -1 -25 -15 -7 -9 -6 -13
right_child=4 2 3 5 6 7 18 27 22 10 12 29 14 25 15 16 -18 -19 19 -21 -22 -23 -24 24 -26 -27 -28 -29 -30 -31
leaf_value=0.070368633853013229 -0.04748819043210617 -0.025202872466222537 -0.021171636873845847 0.028615799449017005 0.025625959395418341 -0.055173087939174886 0.058301724644527111 -0.022420061880342235 -0.027719106168575758 -0.06582137820347099 -0.042992549301667071 0.024775723368726181 -0.075372730992405865 -0.0044807758836965224 -0.069099533243195371 -0.020729872650495931 0.060610449414707439 -0.086600858263606001 0.037169016734527362 0.052878075821358075 -0.065266766440766302 -0.031393125895166005 0.040784535485015261 -0.027322308264218099 0.040347606718896201 0.053605636553938601 -0.0046571427655984947 -0.072095893169594874 0.063932382224448178 0.081547227478302398
leaf_weight=7.8502723276615169 5.947004795074462 8.1362531483173388 5.4524883627891567 7.2026755660772315 12.378407821059225 17.57401150465012 7.4205141067504874 6.6976833343505886 5.7102563083171836 6.6924391090869895 4.9543877094984081 8.1205538809299451 4.9526969492435482 6.1791072934865978 4.9813081473112133 7.4306886643171284 6.4064607024192819 11.837364241480826 11.617589458823209 7.3071725517511359 5.220802664756774 9.2109969258308393 8.4113552272319776 6.4211496561765697 12.755835890769957 13.319601371884344 7.4551087766885749 21.03761588037014 27.424240276217461 7.0935835540294638
leaf_count=32 24 33 22 29 51 71 30 27 23 27 20 33 20 25 20 30 26 48 47 30 21 37 34 26 52 54 30 85 114 29
internal_value=0 -0.0122289 -0.0194331 -0.0138072 0.0278413 -0.0307785 0.0334008 -0.0371744 -0.0209335 0.00282846 -0.0082021 0.0321396 -0.000205838 0.0193561 -0.020329 -0.00584239 0.0169299 -0.0615904 0.0152273 0.00564497 -0.0076045 0.00684888 0.0130842 0.0329904 0.0176893 0.0351982 -0.0401265 -0.0600999 0.0520193 0.0512454
internal_weight=0 196.673 169.646 149.672 86.5267 74.0887 80.5797 66.886 39.1507 75.5833 54.9167 20.6666 48.2243 24.4531 23.7712 18.8185 13.8371 19.9736 40.7771 33.3566 26.0494 20.8286 14.1216 27.0273 19.177 19.4987 25.0291 27.7353 39.8026 15.2141
internal_count=1150 796 686 605 354 299 330 270 158 306 222 84 195 99 96 76 56 81 165 135 105 84 57 110 78 79 101 112 165 62
is_linear=0
shrinkage=0.05


Tree=6
num_leaves=31
num_cat=0
split_feature=8 9 8 1 20 0 14 8 26 24 10 27 18 13 32 1 0 9 9 14 15 26 2 17 15 32 10 29 16 16
split_gain=35.8334 23.6301 20.3891 13.9029 12.0227 14.0929 10.2964 10.2922 9.21528 9.11107 7.58947 9.43465 6.98965 9.92971 6.7803 6.70162 9.54539 6.3327 5.97844 6.24803 5.97071 5.40794 7.08976 5.26162 4.74988 4.69923 4.59363 6.46322 4.36665 7.50401
threshold=0.45850000000000007 0.42300000000000004 0.6795000000000001 0.43950000000000006 0.71001337429308042 0.42150000000000004 0.53818181818181832 0.24050000000000002 0.34090000000000009 0.39363636363636367 0.32959221848110737 0.3200555555555557 0.56822704059316564 0.74427777777777793 0.18231292517006817 0.49350000000000005 0.63550000000000006 0.6795000000000001 0.45850000000000007 0.46515151515151526 0.28065843621399184 0.29372500000000007 0.17805555555555558 0.23650000000000002 0.34166666666666667 0.34242424242424252 0.34915824915824928 0.76358530796115176 0.25350000000000006 0.29550000000000004
decision_type=8 8 10 2 8 2 2 10 2 2 2 2 2 2 2 2 2 8 10 2 2 2 10 8 2 2 2 2 10 10
left_child=3 6 4 21 5 -3 14 24 10 18 12 20 -7 -14 -2 -4 23 -6 19 -9 -12 -1 -23 -17 26 -22 27 -5 -20 -30
right_child=1 2 15 7 17 8 -8 9 -10 -11 11 -13 13 -15 -16 16 -18 -19 28 -21 25 22 -24 -25 -26 -27 -28 -29 29 -31
leaf_value=-0.036455800710939311 0.002991908330520333 -0.058706288241600062 0.055967161030109458 -0.054228996961822609 -0.024427341817978655 0.071975895695687686 -0.023782214628824641 -0.027395726349693134 0.072321294212921008 0.035842209036545225 -0.033320473872480015 -0.067676185275301434 0.041542458952963629 -0.049413167857893431 0.058665906426882963 -0.044010213856091496 0.068001898441068853 -0.081247261554075551 -0.015269817954849716 0.034705670410836185 0.062809587806191211 0.036227859135750128 -0.023844978951365489 0.01663844996262874 -0.086247991506697583 -0.0048653457722673604 -0.082813425882044531 0.013702114214033051 -0.068849282891490143 0.00014841656257190173
leaf_weight=5.4529657065868404 6.3545349091291419 8.6137523502111417 16.91584600508213 9.099634408950811 14.557418525218965 5.8613172918558147 5.1343550831079474 9.8615446388721484 5.3977541625499716 6.6472730785608283 6.67134957015515 6.4142626225948325 7.6519239097833616 4.9364845603704453 39.229830801486969 5.9633145630359659 5.7924891710281363 7.3946806192398062 12.833419159054754 6.8730736225843421 4.9049770534038526 16.877894520759586 6.927411660552024 8.9335379600524902 8.8700876682996732 5.377275675535202 5.176992565393447 5.6915538460016242 16.268350720405582 5.2002562284469596
leaf_count=22 26 35 71 37 59 24 21 40 22 27 27 26 31 20 162 24 24 30 52 28 20 69 28 36 36 22 21 23 66 21
internal_value=0 0.0148992 0.00239611 -0.0213368 -0.0122182 0.000108349 0.0433441 -0.0314123 0.0108382 -0.0192191 0.00290208 -0.0160249 0.0268744 0.00587464 0.0509049 0.0326238 0.0135381 -0.0435674 -0.0263906 -0.00189007 0.00351694 0.00845825 0.0187465 -0.00763964 -0.0558019 0.0274179 -0.0422774 -0.0280895 -0.0383434 -0.0521362
internal_weight=0 166.105 115.386 115.78 77.7812 55.8291 50.7187 86.5222 47.2153 57.6839 41.8176 23.3679 18.4497 12.5884 45.5844 37.6052 20.6893 21.9521 51.0366 16.7346 16.9536 29.2583 23.8053 14.8969 28.8383 10.2823 19.9682 14.7912 34.302 21.4686
internal_count=1150 680 471 470 316 227 209 351 192 234 170 95 75 51 188 155 84 89 207 68 69 119 97 60 117 42 81 60 139 87
is_linear=0
shrinkage=0.05


Tree=7
num_leaves=31
num_cat=0
split_feature=0 1 9 8 26 0 8 14 20 18 32 10 13 14 13 13 27 24 1 15 20 34 15 3 1 18 18 35 33 35
split_gain=32.8953 25.5852 12.8024 11.0816 11.1487 9.88642 9.0574 9.9284 9.02856 8.83493 7.80957 7.33196 7.31299 7.25558 7.12896 8.18128 6.9273 8.9121 7.8995 6.44149 6.01446 5.97139 5.5808 5.23474 5.09202 4.82892 4.75123 4.51539 4.01799 3.8956
threshold=0.42150000000000004 0.49350000000000005 0.51650000000000007 0.62000000000000011 0.29372500000000007 0.57450000000000012 0.45850000000000007 0.32863636363636373 0.71001337429308042 0.74853099065927886 0.24718614718614726 0.33909465020576129 0.74652272727272739 0.47136363636363648 0.72984444444444463 0.79147222222222247 0.32810000000000006 0.36148148148148157 0.46450000000000008 0.33847736625514407 0.60220789820389442 0.28022452504317796 0.31043771043771046 0.198941798941799 0.58350000000000002 0.55643412200328612 0.61342832100568334 0.30352941176470594 0.24669421487603313 0.28588235294117653
decision_type=2 2 8 8 2 2 8 2 8 2 2 2 2 2 2 2 2 2 2 2 8 8 2 10 2 2 2 10 2 10
left_child=16 3 21 4 5 26 11 -8 10 -10 -9 -4 13 27 -12 19 17 18 -1 -16 25 29 -23 -20 -19 -15 -2 -6 -5 -3
right_child=1 2 6 28 12 -7 7 8 9 -11 14 -13 -14 20 15 -17 -18 24 23 -21 -22 22 -24 -25 -26 -27 -28 -29 -30 -31
leaf_value=0.015273430446733287 -0.0097068348184203776 -0.0082919449679606134 -0.0099703573839287317 0.022563163711905157 0.0025641474948387526 0.027834995926746972 -0.061944432913827133 0.068384925795728344 -0.060871487303371934 0.021363946756661721 0.055695824558301646 -0.065600468870472883 0.07727974735366161 0.0077250851850079183 -0.072915100845344694 0.040429430550954909 -0.065782795004518155 0.028574256528078674 -0.081753932561418358 0.0024166584491214353 0.039635237666811783 0.022798177041304074 -0.046429049276664684 -0.034470826555188155 -0.031924556438395327 -0.052749127842593904 -0.071841327830361831 0.053320140871549293 0.061577373746930612 0.033888246439653741
leaf_weight=5.4366358816623714 5.6965589523315447 6.9242401570081702 9.6310664862394351 9.083590090274809 5.9160791337490108 8.077679976820944 7.0847444534301749 6.1287176907062557 8.88066917657852 5.165966883301734 5.174653664231303 15.383848339319227 6.7004377096891394 7.1128920018672961 5.6876043230295199 5.1943875998258582 12.738660737872122 9.8445824235677701 9.0194003283977526 5.6633469760417938 6.1018067300319663 5.1519459486007673 6.693844199180603 16.676976382732391 5.3781219124793997 6.1596980094909668 6.6897344589233398 16.897128015756607 24.130890503525734 26.133625015616417
leaf_count=22 23 28 39 38 24 33 29 25 36 21 21 63 28 29 23 21 52 40 37 23 25 21 27 68 22 25 27 70 103 107
internal_value=0 0.0088615 -0.00692283 0.0271593 0.0157855 -0.0152 -0.0197039 -0.00720243 0.00205476 -0.0306276 0.0185394 -0.0441822 0.0287557 0.0210489 0.00447454 -0.0115452 -0.0331264 -0.0241523 -0.0394824 -0.0353297 -0.00145163 0.0141386 -0.0163209 -0.0510671 0.00720026 -0.0203405 -0.0432652 0.0401577 0.0509077 0.0250533
internal_weight=0 221.465 118.899 102.566 69.352 20.464 73.995 48.9801 41.8953 14.0466 27.8487 25.0149 48.888 42.1876 21.72 16.5453 59.0944 46.3557 31.133 11.351 19.3744 44.9037 11.8458 25.6964 15.2227 13.2726 12.3863 22.8132 33.2145 33.0579
internal_count=1150 909 484 425 284 83 301 199 170 57 113 102 201 173 88 67 241 189 127 46 79 183 48 105 62 54 50 94 141 135
is_linear=0
shrinkage=0.05


Tree=8
num_leaves=31
num_cat=0
split_feature=8 9 8 1 20 0 8 14 26 24 10 27 18 15 32 30 16 16 1 0 9 15 22 27 0 33 21 15 19 32
split_gain=30.2869 20.5001 17.497 11.7694 10.1314 11.8223 9.26388 9.05192 8.18535 7.9331 6.80318 8.35073 6.28547 8.89319 6.19743 5.57745 6.41989 5.6231 5.51327 8.64347 5.49526 5.256 5.17965 5.04583 6.76924 4.81502 4.75695 4.35309 4.19748 4.19492
threshold=0.45850000000000007 0.42300000000000004 0.6795000000000001 0.43950000000000006 0.71001337429308042 0.42150000000000004 0.24050000000000002 0.53818181818181832 0.34090000000000009 0.39363636363636367 0.32959221848110737 0.3200555555555557 0.56822704059316564 0.31043771043771046 0.18231292517006817 0.11055555555555557 0.29550000000000004 0.25350000000000006 0.49350000000000005 0.63550000000000006 0.6795000000000001 0.28065843621399184 0.4899475524475525 0.31933181818181827 0.51650000000000007 0.32525252525252529 0.62955463997879468 0.34166666666666667 0.67529028586405915 0.34242424242424252
decision_type=8 8 10 2 8 2 10 2 2 2 2 2 2 2 2 10 10 10 2 2 8 2 2 2 2 2 8 2 2 2
left_child=3 7 4 23 5 -3 27 14 10 15 12 21 -7 -14 -2 -8 17 26 -4 25 -6 -12 -19 -1 -25 -20 -17 -5 -24 -23
right_child=1 2 18 6 20 8 9 -9 -10 -11 11 -13 13 -15 -16 16 -18 22 19 -21 -22 29 28 24 -26 -27 -28 -29 -30 -31
leaf_value=0.038293560467320811 0.0017985395467416988 -0.054301966525496584 0.051908691733292447 -0.039309391629879016 -0.022533875792267202 0.068315165719693371 0.024063118835080385 -0.022425708971180056 0.068216662311464574 0.034108923258912703 -0.031734623251615766 -0.064136685804893262 0.053842421029266709 -0.031360235667343556 0.055224157162383929 0.0084437219122361663 0.013729951989430032 -0.078687167312149864 -0.043086027706644679 0.065378241653141739 -0.075750951640428069 0.059045690698310331 -0.059096189449462017 -0.031110201974557879 0.02820327782081912 0.015457032951121143 -0.046171586928667026 -0.081706266170227693 0.0028394663832619024 -0.0051314062843808694
leaf_weight=9.2580739706754702 6.3182251751422873 8.5093983858823758 16.474946469068527 19.77782599627972 14.507890909910204 5.766526713967326 5.3682480603456488 5.1282591819763175 5.3099389225244513 6.611252322793006 6.6506578326225343 6.4245112836360923 5.3658357709646207 7.1349539309740067 38.532336965203285 9.0573572963476199 7.1254203915595999 11.000217095017435 5.6997556835413006 5.708716705441474 7.2876986265182486 4.8548350036144239 5.8539654463529569 11.558074921369554 8.2394669651985151 9.1516046524047834 7.1219361275434485 8.725407809019087 5.1353074163198471 5.3546984493732452
leaf_count=38 26 35 71 81 59 24 22 21 22 27 27 26 22 29 162 37 29 45 23 24 30 20 24 47 34 37 29 36 21 22
internal_value=0 0.0137953 0.00210723 -0.0196793 -0.0114511 -8.44625e-05 -0.0289957 0.0405026 0.00976059 -0.0174039 0.00229048 -0.0156293 0.0251322 0.00521213 0.0476979 -0.0241261 -0.0298374 -0.0379707 0.0303576 0.0130886 -0.0403278 0.00285429 -0.0544324 0.00782398 -0.00642474 -0.00701102 -0.0155973 -0.0522879 -0.0301535 0.0253861
internal_weight=0 164.181 114.202 114.833 77.1669 55.3714 85.7769 49.9788 46.862 57.2737 41.552 23.2847 18.2673 12.5008 44.8506 50.6625 45.2942 38.1688 37.035 20.5601 21.7956 16.8602 21.9895 29.0556 19.7975 14.8514 16.1793 28.5032 10.9893 10.2095
internal_count=1150 680 471 470 316 227 351 209 192 234 170 95 75 51 188 207 185 156 155 84 89 69 90 119 81 60 66 117 45 42
is_linear=0
shrinkage=0.05


Tree=9
num_leaves=31
num_cat=0
split_feature=1 8 8 9 10 26 19 0 2 1 2 0 26 20 0 10 4 34 35 9 12 30 4 17 3 22 7 30 25 14
split_gain=27.8874 17.5552 10.7117 9.85096 8.9759 8.0216 10.4193 7.68354 7.35853 7.7782 8.30427 7.34648 7.95477 9.30977 8.97487 7.2106 6.49553 6.19786 6.17506 6.14575 5.99071 5.7367 5.55838 5.46364 7.27623 5.28374 4.41552 4.38535 4.36825 4.32203
threshold=0.51850000000000007 0.45850000000000007 0.59150000000000003 0.31650000000000006 0.2292929292929293 0.30495000000000005 0.59255666290008702 0.27050000000000007 0.19416666666666668 0.43950000000000006 0.11180555555555556 0.43150000000000005 0.33589545454545466 0.27276318286228057 0.57550000000000001 0.3632996632996634 0.57929715224166978 0.20250431778929193 0.35803921568627456 0.63050000000000017 0.75436666666666685 0.12069444444444445 0.59538523191051007 0.23150000000000004 0.24285714285714288 0.58180708180708196 0.49073573343920757 0.10277777777777779 0.468881118881119 0.42792207792207798
decision_type=2 8 10 10 2 2 2 2 8 2 10 2 2 10 2 2 2 8 10 8 2 10 2 10 10 2 2 10 2 2
left_child=1 4 5 -3 -1 18 26 -8 9 10 -6 -5 13 22 16 23 27 -18 -2 21 -21 -4 -13 -9 -25 -17 -7 -15 -26 -11
right_child=2 3 19 11 8 6 7 15 -10 29 -12 12 -14 14 -16 25 17 -19 -20 20 -22 -23 -24 24 28 -27 -28 -29 -30 -31
leaf_value=-0.06765981367920168 -0.059094539359731482 0.054981038933813765 0.043230174708687875 -0.036880184890471041 -0.02924924913305495 -0.0244012412725753 -0.049209042150605481 0.062989648813744095 -0.051407621325582367 -0.040180353970846759 0.043273645350954265 -0.0437938651976588 0.070202627427148362 0.0050953526865708488 0.057622866519368481 -0.052041911863503078 0.018915259151449898 -0.052977395135165833 -0.0025543398958108865 0.016919328937535963 -0.053917344549711366 -0.01520434496563978 0.021323367280010195 -0.028588263902332434 0.068609955638967005 0.01158986184054552 -0.075154350733540307 0.056694858140013404 0.0032709291460110723 0.0033611312114693787
leaf_weight=5.5951509177684775 23.79930663108826 24.137246683239937 13.332840546965604 5.6100500524044028 5.0989309102296856 8.7641267776489276 7.5994254201650611 6.1362816244363811 6.3767206668853751 9.5180738419294375 17.475415512919426 8.692458435893057 7.7809765785932532 8.1586653441190773 15.934909343719481 7.3278028517961484 5.9617895632982227 6.0300742238760003 6.0584154427051535 5.6216532588005048 6.3630454689264297 6.1317820101976386 5.2603658437728873 7.6467394530773189 5.1071936041116697 5.8803055137395859 8.3860194236040098 8.3135236352682096 5.1248818337917328 14.205149799585341
leaf_count=23 98 103 55 23 21 36 32 25 26 39 72 36 33 34 68 30 25 25 25 23 26 25 22 31 21 24 35 35 21 58
internal_value=0 0.0141964 -0.0177067 0.0273504 -0.00744795 -0.0263318 -0.0160745 -0.0033929 -0.00105215 0.00588348 0.0268927 0.0180543 0.0227144 0.0163821 0.0275779 0.00596084 0.010758 -0.0172358 -0.047622 0.0074783 -0.02069 0.024822 -0.019244 0.0222811 0.0083093 -0.0237128 -0.0492183 0.0311377 0.035884 -0.0141083
internal_weight=0 154.15 123.28 95.8801 58.2694 91.8305 61.9728 44.8226 52.6743 46.2976 22.5743 71.7428 66.1328 58.3518 44.399 37.2232 28.4641 11.9919 29.8577 31.4493 11.9847 19.4646 13.9528 24.0151 17.8788 13.2081 17.1501 16.4722 10.2321 23.7232
internal_count=1150 643 507 404 239 378 255 184 216 190 93 301 278 245 187 152 119 50 123 129 49 80 58 98 73 54 71 69 42 97
is_linear=0
shrinkage=0.05


Tree=10
num_leaves=31
num_cat=0
split_feature=0 1 9 8 10 8 20 27 3 14 26 0 20 13 21 21 13 26 23 27 14 34 17 35 12 21 25 24 20 15
split_gain=25.5627 20.1137 9.53222 9.15682 12.0443 8.55859 7.99535 6.20961 8.86137 6.25723 6.26363 5.86755 6.16945 5.8105 5.51966 10.9878 5.46586 7.71369 5.4036 6.27597 6.64868 5.94885 5.53025 4.88367 4.79771 4.77629 4.62543 4.59394 4.58117 4.41024
threshold=0.42150000000000004 0.49250000000000005 0.51650000000000007 0.6795000000000001 0.31043771043771046 0.36950000000000005 0.52546473141185868 0.33024999999999999 0.19523809523809529 0.53818181818181832 0.32900000000000013 0.6645000000000002 0.76465739843929781 0.65746250000000006 0.37865735823783792 0.47769103994196321 0.70035000000000003 0.30495000000000005 0.33969696969696977 0.29663333333333347 0.378888888888889 0.27158894645941284 0.25350000000000006 0.30627450980392162 0.70922500000000011 0.34127020625614529 0.44529914529914533 0.29128787878787882 0.53836079018166705 0.30621693121693128
decision_type=2 2 8 10 2 8 10 2 10 2 2 2 10 2 8 8 2 2 2 2 2 10 10 10 2 10 2 2 8 2
left_child=7 5 18 4 6 23 -4 8 -1 10 -10 12 13 27 24 -16 -6 -18 19 22 -21 -22 -3 -2 -15 -25 -19 -7 -20 -11
right_child=1 2 3 -5 16 11 -8 -9 9 29 -12 -13 -14 14 15 -17 17 26 28 20 21 -23 -24 25 -26 -27 -28 -29 -30 -31
leaf_value=-0.053634670900359574 -0.037065531999935321 0.061026856708007275 0.039624146532709237 0.018865407838714016 -0.079339198540286426 -0.045526725528725082 -0.031591651815864437 -0.064693420892691936 -0.0018369295738350257 -0.011983385753321986 -0.062330449005799052 0.071404360830434166 0.078125743833921624 0.080083228306366563 -0.037024005706852624 0.031795040554635001 -0.055125532296589397 -0.041337303913967505 0.065223194184146419 -0.065859170880803578 0.031368718322888921 -0.040704161844214173 -0.0082089479949133109 -0.010997661471477647 0.030952531412543956 0.051543069695551884 0.010532226732911841 0.022196918110238963 0.011340419207802377 0.041760349635375851
leaf_weight=15.043845042586325 7.3643845766782787 6.00084336102009 9.7589934468269366 14.320099607110022 7.1779379844665518 5.0759066790342313 6.6110338717699042 10.282861337065695 10.000788733363153 7.3133533447980863 7.4792097210884085 8.3973402976989728 5.4857005625963202 7.9189386218786266 7.4197844713926306 26.569703981280327 17.688072308897972 6.8642650544643429 7.167083486914632 5.398083150386813 6.8323885947465879 4.9281563609838486 5.5532376170158386 7.6046162545680982 13.338903129100798 5.1003719121217728 11.49640980362892 4.94211545586586 8.7737555801868439 7.9849936664104462
leaf_count=63 30 25 40 59 30 21 27 43 41 30 31 37 24 34 31 113 74 28 30 22 28 20 23 31 57 21 47 21 36 33
internal_value=0 0.00788276 -0.00601696 -0.0170358 -0.0256622 0.0244936 0.0108637 -0.0294439 -0.0218645 -0.00728334 -0.0277204 0.0318884 0.0271983 0.0229177 0.0292706 0.0167721 -0.0394947 -0.0315609 0.0122229 -0.00073696 -0.0199192 0.00116719 0.0277501 -0.00466925 0.0492546 0.0141091 -0.00885956 -0.0121171 0.0355664 0.0160682
internal_weight=0 217.788 118.57 73.9168 59.5967 99.2178 16.37 58.1051 47.8222 32.7783 17.48 79.1484 70.7511 65.2654 55.2473 33.9895 43.2267 36.0487 44.6535 28.7127 17.1586 11.7605 11.5541 20.0694 21.2578 12.705 18.3607 10.018 15.9408 15.2983
internal_count=1150 909 489 305 246 420 67 241 198 135 72 338 301 277 235 144 179 149 184 118 70 48 48 82 91 52 75 42 66 63
is_linear=0
shrinkage=0.05


Tree=11
num_leaves=31
num_cat=0
split_feature=1 8 8 9 9 10 13 2 1 2 11 21 13 35 2 21 10 35 32 35 30 5 22 9 29 21 24 2 33 26
split_gain=23.5552 14.8314 10.1001 10.157 8.79079 7.96253 7.15038 6.48242 6.75639 7.65097 6.2067 7.44178 6.18415 6.13669 5.65532 6.50123 6.85276 7.67073 5.28505 5.23098 6.2662 6.16309 4.85717 4.84374 4.77404 4.69276 4.63903 4.27569 4.19469 4.11206
threshold=0.51850000000000007 0.45850000000000007 0.24050000000000002 0.63050000000000017 0.31650000000000006 0.2292929292929293 0.79595454545454569 0.19416666666666668 0.43950000000000006 0.11180555555555556 0.3190909090909092 0.68349013471875797 0.77315000000000011 0.24980392156862749 0.095694444444444457 0.54993273234415796 0.30336700336700334 0.35333333333333333 0.30317460317460315 0.29725490196078436 0.10486111111111111 0.43647847456418432 0.43901098901098906 0.5415000000000002 0.75878848953770384 0.38357402703495197 0.35242424242424247 0.11902777777777777 0.24393939393939398 0.28916666666666668
decision_type=2 8 8 8 10 2 2 8 2 10 2 10 2 10 10 10 2 10 2 10 10 2 2 10 2 10 2 10 2 2
left_child=1 5 22 14 28 -1 26 8 9 -7 25 12 19 -8 18 16 17 -16 -4 20 23 29 -2 -12 -17 -6 -5 -18 -3 -21
right_child=2 4 3 6 10 7 13 -9 -10 -11 11 -13 -14 -15 15 24 27 -19 -20 21 -22 -23 -24 -25 -26 -27 -28 -29 -30 -31
leaf_value=-0.063836934425141892 -0.016245418223085673 0.023555581168797052 0.050942499013956859 -0.052201334277102267 0.01150830352166623 -0.028512562028788629 -0.033616375452943083 -0.048154074057418152 -0.012908424653899825 0.041291189894580867 -0.001460520804291922 0.080690455478442114 0.062259522116358039 0.044322161202734855 -0.02270894010835053 -0.013421756321337281 0.0023184080743860708 0.055565719833056096 -0.002779929713871864 -0.028947226175280279 0.020399737473115451 0.058739046595073355 -0.070253697099381604 -0.071014850558132545 0.047137591136988115 -0.055088705019286491 0.0014051302810236296 -0.050803712595969677 0.067574207473499098 0.022707259010144757
leaf_weight=5.5332781672477713 6.4996593743562725 8.4282490313053149 9.5822290033102053 24.019205614924434 5.8580298423767072 5.0776313990354565 5.0094179809093458 6.340722680091857 23.563810735940933 17.301048517227173 4.9817244261503237 5.0818312317132941 6.7565181553363791 5.0937989950180054 7.7287761121988279 5.5769747346639615 5.0472134500741985 5.2601246237754822 8.7661561369895917 5.2419572919607225 9.4226541817188245 9.0999155044555646 11.579512283205984 5.0307881236076355 7.8141793012619019 4.8230708390474319 4.8509069234132758 15.181123316287993 15.123558506369589 14.539383009076117
leaf_count=23 27 36 40 100 25 21 21 26 97 72 21 22 29 21 32 23 21 22 36 22 40 39 49 21 32 20 20 63 67 62
internal_value=0 0.013143 -0.0163452 -0.0103451 0.0253586 -0.00679955 -0.0305247 -0.000763126 0.0057775 0.025453 0.01656 0.0227966 0.0174545 0.00567836 0.00176235 -0.00749429 -0.019351 0.00899001 0.025276 0.011189 -0.00886624 0.0246849 -0.0508371 -0.0364081 0.0219166 -0.0185637 -0.0431941 -0.0375491 0.0518217 0.00901908
internal_weight=0 152.204 122.009 103.93 94.3877 57.8165 38.9733 52.2832 45.9425 22.3787 70.8359 60.1548 55.0729 10.1032 64.9568 46.6084 33.2172 12.9889 18.3484 48.3164 19.4352 28.8813 18.0792 10.0125 13.3912 10.6811 28.8701 20.2283 23.5518 19.7813
internal_count=1150 643 507 431 404 239 162 216 190 93 301 256 234 42 269 193 138 54 76 205 82 123 76 42 55 45 120 84 103 84
is_linear=0
shrinkage=0.05


Tree=12
num_leaves=31
num_cat=0
split_feature=0 1 8 8 26 9 26 0 0 26 27 12 25 20 23 24 32 13 6 24 15 14 15 10 2 1 35 21 9 28
split_gain=22.1754 18.5116 10.2826 9.10685 8.08873 7.92777 7.03191 6.98389 6.97907 9.18089 8.06234 8.03331 6.64156 5.14011 5.31389 7.22686 5.97806 5.10763 6.49515 5.09259 6.14357 4.96809 4.94627 4.92592 5.07534 5.73986 4.90557 5.70511 4.44449 4.14254
threshold=0.46650000000000008 0.49250000000000005 0.70700000000000007 0.62000000000000011 0.33366818181818186 0.12150000000000001 0.29372500000000007 0.57450000000000012 0.27050000000000007 0.33956818181818188 0.32924285714285723 0.71205000000000018 0.36025641025641036 0.23201108696147846 0.32060606060606067 0.30462962962962969 0.29176114890400612 0.74652272727272739 0.52902121807938907 0.17416666666666666 0.25551814440703341 0.44580419580419589 0.31750841750841746 0.31043771043771046 0.12125000000000001 0.55500000000000016 0.33921568627450988 0.68707377318033458 0.62000000000000011 0.088780588834763932
decision_type=2 2 8 10 2 8 2 2 2 2 2 2 2 8 2 2 2 2 2 2 2 2 2 2 10 2 8 8 10 2
left_child=5 3 4 6 12 -1 7 -2 29 13 11 -11 -3 -10 15 16 21 18 -8 -14 -21 -15 -13 -22 25 -25 27 -26 -16 -7
right_child=1 2 -4 -5 -6 8 17 -9 9 10 -12 22 19 14 28 -17 -18 -19 -20 20 23 -23 -24 24 26 -27 -28 -29 -30 -31
leaf_value=0.039232013003878949 -0.035593117474387315 0.037330341304264415 0.028435575566674726 0.050589429970437 0.031879569716671802 -0.016964385708826326 -0.025187152938444077 0.025503421722667254 0.016550883127361436 0.068014856932315335 -0.048054060315713125 -0.031365496548409755 -0.063964270292190428 -0.03552078858283747 0.011129196404968273 -0.076059604792246785 -0.061430452843829024 0.078202796696327639 0.032361328715781436 -0.050440272463930236 0.018668666977821009 0.035679456935314463 0.034205120470882797 -0.025358247840031184 0.009429333836486628 0.032255828366616078 -0.078414287921841477 -0.058984928796268377 -0.048727220350326159 -0.074262738875211121
leaf_weight=5.3023509532213202 10.738932132720949 4.9775836020708075 18.960981130599976 28.113691538572311 9.0608997941017133 4.6805506050586692 6.0476525872945812 8.2867231070995313 5.3303806185722342 6.5914885252714219 4.9453704804182044 6.2386333644390088 6.6754178106784812 5.0265541225671821 8.8977890610694867 12.61879777908325 6.9513786584138861 4.5294911414384833 25.904306977987289 11.588648453354834 11.483591362833975 4.7796748280525208 5.3360219448804855 9.826283201575281 6.9008178263902673 7.7188253849744788 5.2653457671403876 5.4569576829671869 4.7605387717485419 9.6746292263269407
leaf_count=22 44 21 79 127 38 20 25 35 22 27 21 26 28 21 37 52 29 20 110 48 47 20 22 41 29 32 22 23 20 42
internal_value=0 0.0101267 -0.00462836 0.0274041 -0.0125687 -0.0201008 0.0156611 -0.0089822 -0.0237661 -0.0173766 0.00854619 0.0239545 -0.0183309 -0.029764 -0.0355006 -0.0474809 -0.0259606 0.0285129 0.0214689 -0.0225989 -0.0178577 -0.000816926 -0.00113684 -0.00976389 -0.0190481 -1.14116e-05 -0.0380004 -0.0207811 -0.00973344 -0.0555804
internal_weight=0 181.536 97.9154 83.6208 78.9544 91.1342 55.5071 19.0257 85.8318 71.4766 23.1115 18.1661 69.8935 48.3651 43.0347 29.3764 16.7576 36.4815 31.952 64.9159 58.2405 9.80623 11.5747 46.6518 35.1682 17.5451 17.6231 12.3578 13.6583 14.3552
internal_count=1150 769 408 361 329 381 234 79 359 297 96 75 291 201 179 122 70 155 135 270 242 41 48 194 147 73 74 52 57 62
is_linear=0
shrinkage=0.05


Tree=13
num_leaves=31
num_cat=0
split_feature=0 1 26 8 0 26 16 21 26 24 35 10 20 8 13 32 32 21 8 27 3 22 14 26 21 1 17 17 18 23
split_gain=20.5712 15.4751 7.88468 11.1528 7.27334 7.78764 6.74123 6.72325 6.68325 7.73704 6.1874 6.08808 5.73862 10.9218 6.89037 5.74213 5.70079 6.17541 7.29349 5.4535 7.63916 5.36017 5.33073 5.53918 5.18687 9.12799 6.26643 4.75554 4.4933 5.38667
threshold=0.42150000000000004 0.49250000000000005 0.33366818181818186 0.70700000000000007 0.63250000000000017 0.29105454545454557 0.26150000000000007 0.28993819494079559 0.32638888888888895 0.17416666666666666 0.3015686274509804 0.37744107744107741 0.73296121462233643 0.45850000000000007 0.74184444444444442 0.25627705627705633 0.39841269841269839 0.37865735823783792 0.36950000000000005 0.33024999999999999 0.19523809523809529 0.47622377622377626 0.53818181818181832 0.32900000000000013 0.52912323491410851 0.44700000000000006 0.26650000000000007 0.23750000000000002 0.68120410329547465 0.32440476190476197
decision_type=2 2 2 10 2 2 10 10 2 2 10 2 8 8 2 2 2 10 8 2 10 2 2 2 10 2 10 10 2 2
left_child=19 4 3 8 5 6 11 -5 9 -3 -9 21 13 15 -14 -11 17 18 -7 20 -1 -2 23 -22 26 -26 -19 -16 29 -15
right_child=1 2 -4 7 -6 16 -8 10 -10 12 -12 -13 14 28 27 -17 -18 24 -20 -21 22 -23 -24 -25 25 -27 -28 -29 -30 -31
leaf_value=-0.049496217727742819 -0.0070300089314638201 -0.060329879549537661 0.028054180165557691 0.075402574189057006 0.056506216623430618 -0.009270904124684053 -0.059516302539145763 -0.033321097841190958 -0.062495073989332177 0.0097914571022273914 0.038940077788324153 -0.041028509939037221 -0.05630207027165153 0.056559506136122498 0.03684886635748777 -0.04905297725984134 0.070821476316757268 0.009909821418443765 0.047412039324409488 -0.060277550610908309 -0.00071073734120284931 0.057559252515165728 0.01566997263997565 -0.058121175187816371 0.070364352310979469 -0.02461659687416019 -0.0626947696963054 -0.032743344499353386 -0.0049726070666930864 0.0014419449377813683
leaf_weight=14.658996313810347 6.6497337222099357 7.8259435296058646 15.544871360063551 5.0127031654119518 13.131722852587698 7.3386134505271903 5.0310650765895835 5.3852307051420194 7.5540949404239646 6.3396528810262707 6.5843518078327179 4.9615568518638602 11.267005532979967 11.495548829436308 4.7631222754716855 11.979804560542105 6.3089128881692877 6.803600803017618 25.035045176744461 9.9648556709289533 9.9243291467428225 6.2137065529823303 15.127420991659163 7.2860784381628028 5.4948762059211713 4.6873418241739273 5.2768885344266891 5.0654248595237732 10.991913765668867 7.2150209397077552
leaf_count=63 28 33 65 21 60 30 21 22 31 26 28 21 47 48 20 51 28 29 110 43 41 27 63 31 24 20 22 21 46 30
internal_value=0 0.00713209 -0.0051062 -0.0101858 0.021907 0.0164853 -0.00840421 0.0267882 -0.0176168 -0.0132107 0.00642908 0.00602207 -0.0078756 0.00167334 -0.0296128 -0.0286892 0.0258195 0.0206231 0.0345629 -0.0266794 -0.0195555 0.0241699 -0.00598317 -0.0250156 0.000352435 0.0266403 -0.0218047 0.000982516 0.0203999 0.0353055
internal_weight=0 213.958 117.025 101.48 96.9331 83.8013 22.8561 16.9823 84.4975 76.9434 11.9696 17.825 69.1175 48.0219 21.0956 18.3195 60.9453 54.6364 32.3737 56.9617 46.9968 12.8634 32.3378 17.2104 22.2627 10.1822 12.0805 9.82855 29.7025 18.7106
internal_count=1150 909 489 424 420 360 97 71 353 322 50 76 289 201 88 77 263 235 140 241 198 55 135 72 95 44 51 41 124 78
is_linear=0
shrinkage=0.05


Tree=14
num_leaves=31
num_cat=0
split_feature=1 0 8 26 9 10 0 33 14 16 12 4 10 27 32 0 12 16 1 9 24 17 27 9 13 5 9 34 4 16
split_gain=19.1499 15.4486 10.0685 11.6547 8.25491 8.73002 7.41822 6.39506 6.33398 6.11276 6.27107 5.94268 5.93215 5.88301 5.78412 5.47838 5.2724 5.14254 5.12673 5.03433 6.22838 4.76881 5.44012 6.01339 6.8736 4.73877 4.6325 4.07603 3.83565 3.49752
threshold=0.38000000000000006 0.42150000000000004 0.6795000000000001 0.3376333333333334 0.5505000000000001 0.28922558922558927 0.58850000000000013 0.32525252525252529 0.44580419580419589 0.25350000000000006 0.69241414141414148 0.57837014110319462 0.3632996632996634 0.32810000000000006 0.29642857142857149 0.27050000000000007 0.7154166666666667 0.27100000000000007 0.56450000000000011 0.48100000000000004 0.36148148148148157 0.23650000000000002 0.32231818181818189 0.80900000000000005 0.74076262626262634 0.4243683738168052 0.34850000000000009 0.21545768566493961 0.53178839273900735 0.28350000000000003
decision_type=2 2 10 2 8 2 2 2 2 8 2 2 2 2 2 2 2 8 2 10 2 8 2 10 2 2 10 8 2 8
left_child=7 8 3 4 9 28 11 17 -2 10 -3 18 -5 15 29 -10 -12 -1 -4 -17 -21 22 23 24 -7 -16 -18 -28 -6 -11
right_child=1 2 6 12 5 21 -8 -9 13 14 16 -13 -14 -15 25 19 26 -19 -20 20 -22 -23 -24 -25 -26 -27 27 -29 -30 -31
leaf_value=0.030436442194413538 -0.061719941005663637 0.047317963703809481 0.039610397420919416 0.056670802087048083 0.045512806151982776 -0.024558956809404855 0.04847346042118697 0.06165500995418241 -0.043942721198562851 -0.069129183575471639 -0.039215073156914027 -0.032547439693978421 -0.0040387056614787338 -0.059046247612974945 0.041442126132581018 0.03080050532215084 0.039035449219193268 -0.027994436118894097 -0.01905353989880311 -0.051597595709930749 0.015255115626934679 -0.051085965000749578 -0.065237931742540486 -0.057708231264262555 0.04017447036311364 -0.020489240197971499 -0.040224782779867428 0.015135552468115807 -0.014588973376830926 -0.015382132981418044
leaf_weight=17.441833809018139 11.686410382390021 10.450990483164786 12.020566299557691 10.707494884729387 5.5878755301237089 8.5611508190631955 17.13748462498188 13.293818220496176 8.8380802869796735 6.0591285675764093 6.0829376727342632 7.2081981748342505 6.446317344903945 7.7194399386644355 5.4138937443494779 9.3001581132411975 9.9501103609800357 4.8024008572101584 5.3960646688938132 6.6708441376686078 7.2928348928689957 20.768790900707245 5.1243420392274848 4.6962248980998984 7.8709824532270423 7.191938191652298 5.2901490926742527 8.9501807540655136 5.0571196377277374 6.0482903867959985
leaf_count=77 51 45 53 46 23 36 76 60 39 25 25 31 27 34 23 38 43 20 22 28 30 88 22 20 33 30 22 37 21 25
internal_value=0 -0.00517882 0.00166221 -0.00475463 -0.0101349 -0.0239273 0.023213 0.0342185 -0.0293539 0.00201967 0.0139242 0.00563321 0.0338565 -0.0198554 -0.0175975 -0.0104313 0.002396 0.0178216 0.021435 0.00229984 -0.0166823 -0.0331837 -0.019021 -0.00781183 0.00644832 0.00610875 0.0128595 -0.00543029 0.0169602 -0.0422797
internal_weight=0 233.528 182.02 140.258 123.104 57.6665 41.7623 35.5381 51.5078 65.4376 40.7244 24.6248 17.1538 39.8214 24.7133 32.1019 30.2734 22.2442 17.4166 23.2638 13.9637 47.0215 26.2527 21.1284 16.4321 12.6058 24.1904 14.2403 10.645 12.1074
internal_count=1150 993 773 591 518 243 182 157 220 275 172 106 73 169 103 135 127 97 75 96 58 199 111 89 69 53 102 59 44 50
is_linear=0
shrinkage=0.05


Tree=15
num_leaves=31
num_cat=0
split_feature=1 0 9 2 9 8 26 0 13 27 29 20 8 6 35 32 29 9 22 1 16 9 1 17 13 11 20 10 32 1
split_gain=17.9426 12.3749 8.75776 8.49725 8.93801 7.33792 8.24435 8.80546 11.0495 6.39425 7.28885 5.99622 7.40443 5.96102 5.70222 6.45572 5.9086 5.1983 5.27391 6.26699 5.06525 4.78564 4.87989 6.05218 4.7372 5.03127 4.66921 4.33505 4.92169 3.98641
threshold=0.52050000000000007 0.6160000000000001 0.22650000000000003 0.12069444444444445 0.63050000000000017 0.60750000000000004 0.29372500000000007 0.42150000000000004 0.7470500000000001 0.32045000000000007 0.63907493453858166 0.47038666652740441 0.73850000000000005 0.39387979549982882 0.32039215686274514 0.27128427128427141 0.24996328249217473 0.29300000000000004 0.43717948717948724 0.62400000000000011 0.22850000000000004 0.59150000000000003 0.49350000000000005 0.26550000000000007 0.79855050505050518 0.48944444444444452 0.28251648907154975 0.37744107744107741 0.32328042328042339 0.40350000000000008
decision_type=2 2 8 10 8 10 2 2 2 2 2 8 10 2 10 2 2 10 2 2 10 8 2 8 2 2 10 2 2 2
left_child=1 2 29 4 11 6 27 9 14 10 -8 -2 20 -5 15 -9 -16 -15 19 -19 -13 22 23 -7 25 -6 -3 28 -4 -1
right_child=3 26 5 13 24 21 7 8 -10 -11 -12 12 -14 17 16 -17 -18 18 -20 -21 -22 -23 -24 -25 -26 -27 -28 -29 -30 -31
leaf_value=0.05688231030962583 0.048762355341669325 -0.001300433532796529 0.0024637039995366395 0.013685234579088455 -0.0072772904988029317 0.048319149866070013 0.043970812865277535 -0.046785746090512642 0.065999926926531241 -0.05837013801108968 -0.043577439804461555 -0.039419614141719156 0.054775212940388021 0.0069166622214752345 -0.018601838319095062 0.010391264717808966 0.044219266968712971 0.022350652894710679 -0.050333931326165648 -0.053309706038760146 0.012794981073217358 0.05777475663556602 -0.032954367138038558 -0.016445632201519306 0.015727516961898006 -0.061457370892823215 0.054490582607382536 -0.075216715054926941 -0.058987341503676731 0.010222641776708764
leaf_weight=10.591856300830843 9.630016162991522 4.6278921067714718 8.2254893183708209 7.4209411442279807 7.6038734763860765 9.5379751175642049 4.7818257510662097 9.4558903425931948 8.0311957597732526 8.9900141060352308 4.7281119972467422 9.0939350426197105 5.1940168589353553 6.6675215363502494 5.6828594654798534 10.329744204878805 10.964721605181692 6.2833358347415906 33.466490462422371 4.8491269201040268 9.4934209734201414 6.9871861338615409 5.0233490318059912 5.8012388646602639 5.4169872552156439 9.8167305588722211 19.774115428328514 5.2884497493505469 5.3957286924123755 8.0617697387933713
leaf_count=47 41 20 34 32 32 44 20 39 35 39 20 38 22 28 24 43 47 26 144 21 40 31 21 26 23 42 91 22 23 35
internal_value=0 0.0112806 0.00505423 -0.0148888 -0.00100226 -0.000353225 -0.00784356 0.000851438 0.0129123 -0.0281366 0.00044393 0.015476 0.00199703 -0.0281985 0.00120984 -0.0169346 0.0227745 -0.0342612 -0.0404173 -0.0106058 -0.0127512 0.0220698 0.00981804 0.0238253 -0.0251099 -0.0378085 0.0439097 -0.0367957 -0.0218787 0.0367168
internal_weight=0 152.279 127.877 114.936 56.249 109.224 81.874 62.9644 44.4644 18.5 9.50994 33.4114 23.7814 58.6874 36.4332 19.7856 16.6476 51.2665 44.599 11.1325 18.5874 27.3497 20.3626 15.3392 22.8376 17.4206 24.402 18.9097 13.6212 18.6536
internal_count=1150 661 550 489 238 468 346 267 188 79 40 141 100 251 153 82 71 219 191 47 78 122 91 70 97 74 111 79 57 82
is_linear=0
shrinkage=0.05


Tree=16
num_leaves=31
num_cat=0
split_feature=0 1 8 8 25 9 24 32 13 24 23 35 8 31 17 10 24 4 10 25 1 20 27 35 1 13 29 13 15 31
split_gain=16.934 13.6803 7.47178 7.37383 6.91612 6.23551 5.89451 7.08471 6.26644 5.87704 6.33143 5.44714 5.72564 5.27346 8.55857 6.9317 6.36939 5.52211 5.30038 5.56596 4.95416 4.63504 3.70521 5.2836 5.03793 5.03856 4.06262 3.51819 3.51601 3.45863
threshold=0.46650000000000008 0.49250000000000005 0.62000000000000011 0.70700000000000007 0.36025641025641036 0.12150000000000001 0.27370370370370373 0.3634920634920637 0.71165000000000012 0.35795454545454553 0.24757575757575764 0.38156862745098047 0.24050000000000002 0.24947089947089954 0.28600000000000003 0.33164983164983169 0.1816666666666667 0.55987324714736297 0.28922558922558927 0.43473193473193483 0.45750000000000007 0.23201108696147846 0.32060000000000011 0.33686274509803926 0.52550000000000019 0.74968888888888896 0.71989948733113363 0.75555000000000005 0.30336700336700334 0.20793650793650797
decision_type=2 2 10 8 2 8 2 2 2 2 2 10 10 10 8 2 2 2 2 2 2 8 2 8 2 2 2 2 2 10
left_child=5 2 6 4 -3 -1 7 8 -2 21 -11 12 -12 16 15 -15 -6 18 -18 -20 -8 -7 24 -24 25 -23 -26 -17 -5 -21
right_child=1 3 -4 28 13 9 20 -9 -10 10 11 -13 -14 14 -16 27 17 -19 19 29 -22 22 23 -25 26 -27 -28 -29 -30 -31
leaf_value=0.035316127563052684 -0.041199137058497419 0.037475872627556354 0.04589243052700754 0.00092156081256010664 -0.077483617305688729 0.0088466979639708274 0.042906646873471163 0.033509549973246476 0.019586138802678628 -0.04926553808746318 -0.021509304652331678 -0.036120978409685471 0.04154824442085997 0.059850761215727966 -0.043584964777969908 -0.031212066702425812 0.041325349730148939 -0.046918295620095404 -0.052985955447364133 -0.015569464110788002 -0.0077045964181492151 -0.028018340342293693 -0.083083184513766076 -0.022798932382693336 -0.069853741183764376 0.034418723795195824 -0.024419367609692173 0.025082808921476948 0.044604962687898451 0.034639255240802622
leaf_weight=5.2017704248428336 12.232993856072431 6.8307077139616004 26.538320422172546 8.5207350403070468 5.2007369101047507 6.5792119204998007 19.784784406423572 9.1711115241050702 6.4891269207000724 5.7498944699764278 5.1103475987911287 5.0490768998861304 12.17962273955345 7.0905422717332902 7.0731274038553229 5.6241567581891996 4.803509101271632 12.086172893643377 7.1732528060674694 11.05867436528206 6.3990972489118567 8.0598892867565137 8.3261973857879603 6.4504903107881555 8.1204151064157504 5.3933593630790702 12.484403505921362 5.479230672121048 10.026994109153746 4.9720488190650931
leaf_count=22 51 29 127 36 23 28 88 40 28 25 22 22 51 30 30 24 20 51 31 47 27 34 36 28 36 23 54 23 43 21
internal_value=0 0.00897991 0.0241633 -0.00377821 -0.0105642 -0.0177977 0.0134997 -0.00249423 -0.0201308 -0.0211064 -0.00247526 0.00956819 0.0229105 -0.0152147 0.00308644 0.0212306 -0.0254239 -0.018671 -0.00648129 -0.0163778 0.0305377 -0.0305505 -0.0358582 -0.0567672 -0.0267865 -0.00298754 -0.0423252 -0.00343202 0.024537 3.14611e-06
internal_weight=0 176.555 80.6154 95.9399 77.3922 88.7047 54.0771 27.8932 18.7221 83.5029 28.0889 22.339 17.29 70.5615 25.2671 18.1939 45.2944 40.0937 28.0075 23.204 26.1839 55.414 48.8348 14.7767 34.0581 13.4532 20.6048 11.1034 18.5477 16.0307
internal_count=1150 769 361 408 329 381 234 119 79 359 120 95 73 300 107 77 193 170 119 99 115 239 211 64 147 57 90 47 79 68
is_linear=0
shrinkage=0.05


Tree=17
num_leaves=31
num_cat=0
split_feature=0 8 9 26 30 26 14 8 9 0 29 1 23 17 14 34 8 17 26 20 21 17 14 12 12 6 34 8 1 1
split_gain=15.9262 13.9657 12.4318 7.96149 7.46702 6.49079 6.11843 5.83902 5.68571 5.63208 5.17605 7.14255 6.5139 5.0096 4.86411 6.54412 5.60553 4.86149 4.61329 4.56322 4.43526 4.38651 9.12612 4.9784 4.30767 7.38447 4.21063 3.99698 4.57539 3.94344
threshold=0.63550000000000006 0.24050000000000002 0.48100000000000004 0.33458522727272727 0.18152777777777782 0.33059595959595961 0.3190909090909092 0.5505000000000001 0.82550000000000001 0.5355000000000002 0.95146720736135848 0.62400000000000011 0.32440476190476197 0.26650000000000007 0.36833333333333346 0.2348877374784111 0.34850000000000009 0.25900000000000006 0.31105000000000005 0.38517257637617092 0.60162575596783097 0.22550000000000003 0.41055555555555562 0.73961111111111133 0.68382638888888903 0.55403652641394063 0.18696027633851472 0.6795000000000001 0.51650000000000007 0.44300000000000006
decision_type=2 10 8 2 10 2 2 10 8 2 2 2 2 10 2 10 10 8 2 8 8 10 2 2 2 2 10 8 2 2
left_child=1 29 4 5 9 6 -4 17 10 14 11 12 13 21 -3 26 -17 20 -14 -18 -5 22 -8 24 -23 -26 -16 28 -2 -1
right_child=27 2 3 7 -6 -7 8 -9 -10 -11 -12 -13 18 -15 15 16 19 -19 -20 -21 -22 23 -24 -25 25 -27 -28 -29 -30 -31
leaf_value=-0.0022252690268818719 0.042844638221349145 -0.024581495428750572 -0.05482945860977019 -0.044533394019076848 -0.036380742569594567 -0.06257659486364657 0.047580451329402196 0.054887873350544972 -0.048833938180453978 0.040352086617924006 0.042678732688868057 -0.06118005750171604 -0.045892853700637899 -0.025767443301738899 0.0067739138580091805 0.039718530753752673 0.0092205071573335448 0.041881750707969671 0.0029948774686842671 -0.04328661259481692 0.017533584589744557 0.050982036799524802 -0.039945072288147462 0.058950368394979163 -0.050671597845803745 0.03727805109259328 0.059184167882545748 0.05898918311105307 -0.010748137536222373 -0.042379047519957996
leaf_weight=7.8954318612813941 9.4328876584768349 8.0426429957151395 7.6112062633037558 6.490411370992665 6.1930389106273642 6.7927247583866111 4.7538336217403394 7.0790225714445105 7.7363800704479209 24.481969058513641 5.5434720516204825 5.6956706047058097 12.087792471051218 8.8443134278058988 5.7901820242404964 6.6086464226245907 9.0859952569007891 5.0099513530731192 8.0321291238069517 7.5981123298406592 5.1719063818454751 4.5571627318859127 7.9735520482063293 8.7696187198162061 4.9300392568111402 4.6262668520212173 11.333157837390898 11.213461399078367 6.8924411386251441 27.107758268713951
leaf_count=34 43 34 33 28 26 30 21 32 33 111 23 25 52 38 25 28 39 22 34 33 22 20 34 37 21 20 50 54 29 119
internal_value=0 -0.00417706 0.000902421 -0.00912845 0.0163296 -0.0154256 -0.0119122 0.016842 -0.00800259 0.020805 -0.00383598 -0.00750542 -0.00277116 0.00791233 0.0109295 0.0179961 0.000745582 0.000687821 -0.0263762 -0.0146918 -0.0170085 0.0162771 -0.00725322 0.0293645 0.0109809 -0.00809463 0.0414619 0.0360052 0.0202181 -0.0333218
internal_weight=0 235.842 200.839 121.705 79.1337 97.9542 91.1614 23.7513 83.5502 72.9407 75.8139 70.2704 64.5747 44.4548 48.4587 40.4161 23.2928 16.6723 20.1199 16.6841 11.6623 35.6105 12.7274 22.8831 14.1135 9.55631 17.1233 27.5388 16.3253 35.0032
internal_count=1150 1024 871 525 346 421 391 104 358 320 325 302 277 191 209 175 100 72 86 72 50 153 55 98 61 41 75 126 72 153
is_linear=0
shrinkage=0.05


Tree=18
num_leaves=31
num_cat=0
split_feature=1 0 8 14 12 33 0 32 2 10 33 18 18 16 18 0 1 32 33 3 21 9 0 3 27 10 5 6 11 16
split_gain=14.8448 12.0327 7.93319 8.28371 8.43636 7.91009 6.85813 8.73958 7.65859 6.21789 5.92657 5.86456 8.15602 6.09334 5.78503 5.18365 4.70788 5.21651 4.41735 5.04509 4.24151 4.16616 6.37477 8.50633 6.23977 4.78808 4.24953 7.53514 4.08513 4.07424
threshold=0.38000000000000006 0.29500000000000004 0.59150000000000003 0.4316666666666667 0.68959090909090925 0.37436868686868691 0.42650000000000005 0.16103896103896112 0.10500000000000001 0.47067901234567905 0.32525252525252529 0.78248305961446729 0.64168058778294423 0.27550000000000008 0.12639762201334828 0.59350000000000003 0.49350000000000005 0.30844155844155852 0.4044995408631773 0.20343915343915348 0.50336496670513819 0.78200000000000014 0.58850000000000013 0.27486772486772498 0.28869318181818188 0.37744107744107741 0.47648913692725453 0.59068477551346599 0.42111111111111121 0.27450000000000008
decision_type=2 2 10 2 2 2 2 2 10 2 2 2 2 10 2 2 2 2 2 10 8 8 2 8 2 2 2 2 2 10
left_child=10 14 3 11 5 -5 -6 -8 -9 21 29 12 13 16 -2 -13 -3 -18 19 -10 -21 22 23 24 -4 28 27 -24 -26 -1
right_child=1 2 9 4 6 -7 7 8 18 -11 -12 15 -14 -15 -16 -17 17 -19 -20 20 -22 -23 26 -25 25 -27 -28 -29 -30 -31
leaf_value=0.026405191399529016 -0.010758410059049079 -0.0010737577092950303 0.056888479328433231 0.049309727825863153 -0.033835132379453313 -0.018981970326118425 0.068463010331613783 0.035822664024207231 -0.035882964193630885 0.066842108159837266 0.058087730463699472 -0.019566373036945334 -0.059436938008892194 0.021846749252426953 -0.068373647729415121 0.039749402452310796 -0.017615483241559152 -0.073210985874323217 -0.058369776937811646 -0.012250318391957588 0.044374673215531207 -0.028957304517943157 -0.010316825688254844 -0.050224225377859824 -0.021039278397324772 -0.035842731085330648 0.079176899066439835 0.064323245363352585 0.034217541663583644 -0.026079879837484284
leaf_weight=16.839392930269245 7.5519374161958721 10.690294533967974 6.266206935048106 15.223734274506571 16.558374226093292 5.8771209716796866 4.694560468196868 9.1257296204566938 9.2304588258266502 5.0223849713802329 12.554321780800818 8.2775353193283063 15.252499535679815 8.2739557474851591 10.297811493277548 6.6362417787313452 9.0836931467056292 7.879072740674018 5.2284211963415137 7.6945802271366093 5.7997820377349862 6.4736904054880133 7.4678291678428668 6.5850328356027594 5.035245597362521 6.4524195790290824 4.5718093812465659 6.1791646927595139 9.9632384330034238 4.7378946542739859
leaf_count=77 33 46 28 65 71 25 20 39 39 24 60 36 66 36 49 29 39 35 22 33 25 28 33 28 22 28 20 30 44 20
internal_value=0 -0.00458972 -0.00123279 -0.00768539 0.00319616 0.0302888 -0.00660425 0.00418964 -0.003948 0.0134355 0.0307731 -0.0207631 -0.0288031 -0.0157978 -0.0439976 0.0068276 -0.0270613 -0.0434392 -0.0169317 -0.00739781 0.0120867 0.00888885 0.0135537 0.000858665 0.0129949 0.000172825 0.0374559 0.0234791 0.0156669 0.0148806
internal_weight=0 227.393 209.543 145.526 79.4328 21.1009 58.3319 41.7735 37.079 64.017 34.1316 66.0933 51.1795 35.927 17.8497 14.9138 27.6531 16.9628 27.9532 22.7248 13.4944 58.9946 52.5209 34.3021 27.7171 21.4509 18.2188 13.647 14.9985 21.5773
internal_count=1150 993 911 626 339 90 249 178 158 285 157 287 222 156 82 65 120 74 119 97 58 261 233 150 122 94 83 63 66 97
is_linear=0
shrinkage=0.05


Tree=19
num_leaves=31
num_cat=0
split_feature=0 1 8 8 25 0 28 9 26 22 31 13 23 24 16 3 31 17 24 10 4 10 25 13 27 21 33 35 28 24
split_gain=13.8401 11.2434 6.5563 5.77994 5.91613 5.4214 6.52491 6.55306 6.1439 6.46975 5.40236 5.41946 6.44629 6.93072 6.2886 4.60489 4.33771 7.43064 5.84894 5.47846 5.09652 4.64515 4.95499 3.6491 3.50254 3.30828 3.25552 3.22443 3.16738 3.09112
threshold=0.46650000000000008 0.49250000000000005 0.62000000000000011 0.70700000000000007 0.36025641025641036 0.27050000000000007 0.70489717573387278 0.24050000000000002 0.33956818181818188 0.49401709401709409 0.40317460317460324 0.7172777777777779 0.17537878787878791 0.26030303030303037 0.26250000000000007 0.22777777777777783 0.24947089947089954 0.28450000000000003 0.1816666666666667 0.33164983164983169 0.55987324714736297 0.28922558922558927 0.43473193473193483 0.75555000000000005 0.30968333333333337 0.49518867595377386 0.24669421487603313 0.3015686274509804 0.74914931706506593 0.28575757575757582
decision_type=2 2 10 8 2 2 2 8 2 2 8 2 2 2 10 10 10 10 2 2 2 2 2 2 2 8 2 10 2 2
left_child=5 2 10 4 -3 -1 7 -7 29 -10 11 12 -2 24 28 -13 18 19 -6 -18 21 -20 -23 -21 -14 -8 -4 -5 -15 -9
right_child=1 3 26 27 16 6 25 8 9 -11 -12 15 13 14 -16 -17 17 -19 20 23 -22 22 -24 -25 -26 -27 -28 -29 -30 -31
leaf_value=-0.045181348989882464 0.049902721141460271 0.0352855699655324 0.015907975420366132 -0.0037520541829909222 -0.074259882160606569 0.039390731693659829 -0.07864719518245461 -0.0057474106392998679 0.040934642449353617 -0.018773367476846936 0.064276182461861966 0.0032352179626731255 -0.0064749109298669954 0.059787866242854142 -0.037845085319870499 0.055960542511988565 0.056209250887658602 -0.03893948887342448 0.040001673320444422 -0.0296418450937261 -0.044064833635339827 -0.049293609856713043 0.0012370571618175257 0.028888420717769384 -0.060837317759980872 -0.022370789337559649 0.054838965184671906 0.039253387343116522 0.0031582896206800641 -0.034884359367729698
leaf_weight=13.63967043161392 4.6213748753070858 6.7234207093715659 7.7008529454469707 7.2972915172576931 4.9787382781505576 7.4220105260610572 4.664816573262212 16.004561334848404 9.7408487498760241 8.4923630356788617 4.5514437407255164 8.0074050873518008 4.681863576173785 5.0781946033239347 4.7309188991785041 8.5767155885696393 6.7079289704561296 7.4301682114601126 4.7590875923633602 5.5307884216308576 11.916725635528563 7.008094489574435 15.765069857239721 5.1356972754001617 8.0703518241643888 5.9329154640436181 17.741200268268585 10.823081552982329 4.8060401380062103 21.107761487364769
leaf_count=64 21 29 36 31 23 32 20 70 42 37 21 35 20 23 20 39 29 32 20 24 51 31 68 22 34 25 91 48 21 91
internal_value=0 0.00822125 0.0221838 -0.00343942 -0.00949276 -0.0162348 -0.0108532 -0.00472616 -0.0106424 0.0131248 0.0121882 0.00730738 -0.004718 -0.0139415 0.00956208 0.0305029 -0.0138414 0.00290834 -0.0231929 0.0208046 -0.0167479 -0.00492443 -0.014313 -0.00146071 -0.0408786 -0.047142 0.0430553 0.0219346 0.0322527 -0.0223192
internal_weight=0 172.642 78.5664 94.0761 75.9557 87.0049 73.3653 62.7675 55.3455 18.2332 53.1243 48.5729 31.9887 27.3674 14.6152 16.5841 69.2323 24.8046 44.4277 17.3744 39.449 27.5323 22.7732 10.6665 12.7522 10.5977 25.4421 18.1204 9.88423 37.1123
internal_count=1150 769 361 408 329 381 317 272 240 79 234 213 139 118 64 74 300 107 193 75 170 119 99 46 54 45 127 79 44 161
is_linear=0
shrinkage=0.05


Tree=20
num_leaves=31
num_cat=0
split_feature=0 8 9 26 30 26 23 8 14 9 0 29 1 23 2 35 12 1 14 34 27 30 24 26 24 20 32 31 1 8
split_gain=13.3863 11.719 10.0448 7.21673 6.29458 5.81605 5.24916 5.50264 5.2 4.93603 4.86869 4.5381 6.28199 5.55689 4.76607 5.27142 4.48324 6.91827 5.90957 7.83563 6.00193 4.40668 4.53148 4.06258 3.99072 3.95167 3.66653 3.40413 3.3681 3.3496
threshold=0.63550000000000006 0.24050000000000002 0.48100000000000004 0.33458522727272727 0.18152777777777782 0.33059595959595961 0.24757575757575764 0.5505000000000001 0.3190909090909092 0.82550000000000001 0.5355000000000002 0.95146720736135848 0.62400000000000011 0.32440476190476197 0.10791666666666667 0.29725490196078436 0.68595454545454559 0.38950000000000007 0.39545454545454556 0.2348877374784111 0.31185000000000007 0.13625000000000004 0.27303030303030307 0.31105000000000005 0.40303030303030302 0.44414423902626937 0.22804232804232813 0.20582010582010588 0.44300000000000006 0.6795000000000001
decision_type=2 10 8 2 10 2 2 8 2 8 2 2 2 2 10 10 2 2 2 10 2 10 2 2 2 10 2 10 2 8
left_child=1 28 4 5 10 8 -5 24 -4 11 16 12 13 14 15 -10 -3 -18 -19 25 -21 -16 -23 27 -8 -20 -12 -15 -1 -2
right_child=29 2 3 6 -6 -7 7 -9 9 -11 26 -13 -14 23 21 -17 17 18 19 20 -22 22 -24 -25 -26 -27 -28 -29 -30 -31
leaf_value=-0.0020288894447528425 0.019211391340418719 0.031679354991224339 -0.051143879613647025 -0.032576803453448482 -0.033790243713198075 -0.05964686125229314 -0.009980402864031554 0.068922074242858691 -0.0389822842755937 -0.045738246238051838 -0.0023566426771270909 0.040379307723353172 -0.058013424175176666 -0.017154983900875699 0.051917891289140483 0.013012010646304056 0.044488845165625263 -0.064403846145611204 0.065845488025006033 0.013228787207710811 -0.06190000298557076 -0.026411918738372415 0.028387748648818264 0.0032442619128189086 0.047690799305327117 0.0019731296727437306 0.047265429312312465 -0.070749162573743099 -0.039376936315294611 0.055494589654564636
leaf_weight=7.8257987499237052 15.980330899357797 15.742307692766188 7.3836296051740637 4.3814787566661861 6.1176568418741217 6.5822836458683005 8.5241319835186022 5.7584359794855109 8.991947680711748 7.5955507308244696 4.6255007237195995 5.4774775356054297 5.5304254293441764 6.1563145965337771 8.2888946086168307 10.646655380725859 6.6394054591655758 4.5585769265890148 4.4432056099176425 4.5582842379808408 6.3780748695135117 6.2024637609720221 9.6290102750062925 7.9472913891077033 4.6284336894750586 5.3221297413110733 19.070321008563042 5.7117755115032196 26.402846559882164 10.567213639616964
leaf_count=34 72 70 33 20 26 30 37 27 39 33 21 23 25 27 37 47 30 19 20 20 27 27 41 34 20 23 90 25 119 54
internal_value=0 -0.00383475 0.000859623 -0.00823499 0.0148835 -0.0142845 0.0167354 0.0281605 -0.0109506 -0.00733926 0.0190576 -0.00342866 -0.00690103 -0.00245469 0.00749279 -0.0107947 0.00984551 -0.000929363 -0.0128671 -0.00151852 -0.0305863 0.0223823 0.0069183 -0.024422 0.0103143 0.0310349 0.037579 -0.0429483 -0.0308379 0.0336539
internal_weight=0 231.12 196.892 119.436 77.4555 96.1437 23.2925 18.911 89.5614 82.1778 71.3378 74.5823 69.1048 63.5744 43.759 19.6386 47.642 31.8997 25.2603 20.7017 10.9364 24.1204 15.8315 19.8154 13.1526 9.76534 23.6958 11.8681 34.2286 26.5475
internal_count=1150 1024 871 525 346 421 104 84 391 358 320 325 302 277 191 86 209 139 109 90 47 105 68 86 57 43 111 52 153 126
is_linear=0
shrinkage=0.05


Tree=21
num_leaves=31
num_cat=0
split_feature=0 1 34 9 8 14 27 30 15 28 23 21 15 14 9 2 13 25 7 0 20 18 10 7 24 9 1 19 23 8
split_gain=12.2274 11.1655 8.19476 7.48257 6.74778 5.81713 4.80391 5.7719 5.23009 4.71078 4.60685 4.93239 5.53633 4.85142 4.50266 4.29503 4.32594 3.90039 3.82999 3.81341 3.4515 5.67365 4.5707 5.63608 4.30932 3.66672 3.39597 5.4208 4.16537 3.20708
threshold=0.63550000000000006 0.58350000000000002 0.20725388601036274 0.29300000000000004 0.60750000000000004 0.43484848484848487 0.29769696969696974 0.093472222222222234 0.33164983164983169 0.46652798351985419 0.36515151515151523 0.4380198877797486 0.30336700336700334 0.32111111111111118 0.6795000000000001 0.19416666666666668 0.76360606060606073 0.34790209790209797 0.53404367659623664 0.5655 0.28251648907154975 0.34225597569035054 0.3632996632996634 0.46571690378447705 0.31010101010101015 0.5355000000000002 0.64150000000000007 0.63834262384814988 0.31925925925925935 0.6795000000000001
decision_type=2 2 8 8 10 2 2 10 2 2 2 10 2 2 10 8 2 2 2 2 8 2 2 2 2 10 2 2 2 8
left_child=1 3 14 9 5 10 -6 -8 -9 -1 11 12 -5 -13 -3 16 20 -4 -18 -10 -7 -22 23 24 -23 -24 27 -19 -29 -2
right_child=29 2 17 4 6 15 7 8 19 -11 -12 13 -14 -15 -16 -17 18 26 -20 -21 21 22 25 -25 -26 -27 -28 28 -30 -31
leaf_value=-0.011619925532164765 0.01830495210319474 0.033165456498753833 -0.0011245597772596857 -0.07768205288928462 0.049205254699035278 0.031643539030585831 -0.028715936893041773 -0.016453601382668329 0.017882934438009666 0.034099711978825539 -0.066564229145655657 -0.043665831147743688 -0.018390241665087827 0.014217888004603222 -0.026714465611900232 -0.03880184930196999 0.067695499645567161 -0.074864881921819768 0.0067701425769264066 0.076258064715676782 -0.040114095875955887 0.032660542836416846 0.0086265172600295831 0.046839706576279269 -0.030171057702429172 -0.04783577954308775 -0.063772659296806894 -0.040973980508273306 0.012895835294461484 0.054099619598945485
leaf_weight=7.2463569939136496 15.934274017810823 8.0509284138679487 6.6719109117984763 5.3406557291746166 8.5888860374689084 6.9126205146312705 8.1589780449867266 5.8119976222515133 6.8664345890283567 25.323298022150993 5.1900809556245795 4.7077863961458233 14.9805311858654 15.66495096683502 5.1460747420787802 6.1335025429725638 4.7228603363037092 5.0232692062854829 5.6840710788965225 4.7213656455278397 9.6546846181154233 4.4694665074348467 5.3716133534908277 9.1911829411983472 7.0075372159481049 6.1876690089702606 12.27153719961643 7.3068561106920225 7.0513433963060379 10.304422110319136
leaf_count=32 72 35 30 23 41 30 37 26 31 117 23 21 66 68 23 27 21 24 25 22 43 20 23 40 30 27 55 33 31 54
internal_value=0 -0.00366887 -0.024166 0.00226611 -0.00258718 -0.00855628 0.0168542 0.00598281 0.0222535 0.0239276 -0.0222014 -0.0165434 -0.0339729 0.000841964 0.00981572 0.00102651 0.00515286 -0.0358674 0.0344192 0.0416675 -0.00108905 -0.00649155 0.00358108 0.017663 -0.00570267 -0.0215977 -0.0431906 -0.0301589 -0.0145184 0.0323622
internal_weight=0 229.458 51.5219 177.937 145.367 111.219 34.1477 25.5588 17.3998 32.5697 45.884 40.6939 20.3212 20.3727 13.197 65.3352 59.2017 38.3249 10.4069 11.5878 48.7948 41.8822 32.2275 20.6682 11.477 11.5593 31.653 19.3815 14.3582 26.2387
internal_count=1150 1024 231 793 644 487 157 116 79 149 201 178 89 89 58 286 259 173 46 53 213 183 140 90 50 50 143 88 64 126
is_linear=0
shrinkage=0.05


Tree=22
num_leaves=31
num_cat=0
split_feature=1 8 13 0 26 0 26 25 25 33 20 33 32 27 25 21 24 33 3 31 3 8 1 17 26 11 27 8 1 27
split_gain=11.588 9.34096 6.73382 5.60898 5.75634 7.21604 6.7277 6.46145 7.10488 6.38216 5.55894 5.52634 5.4407 5.37997 5.2309 7.39325 5.21091 5.12805 5.28725 4.45487 5.67538 4.24862 4.17874 5.43775 3.81678 3.70233 3.57233 4.12815 3.50121 6.35048
threshold=0.38000000000000006 0.24050000000000002 0.62721666666666676 0.63550000000000006 0.33956818181818188 0.44950000000000007 0.28916666666666668 0.485897435897436 0.37649572649572655 0.44586776859504135 0.37198118525965657 0.32525252525252529 0.21991341991341998 0.31850000000000006 0.44529914529914533 0.59828035100886623 0.34120370370370373 0.36742424242424249 0.27328042328042335 0.27830687830687839 0.22777777777777783 0.5415000000000002 0.58700000000000008 0.23350000000000004 0.30885000000000001 0.51909090909090916 0.34657222222222234 0.51650000000000007 0.56250000000000011 0.30909545454545456
decision_type=2 8 2 2 2 2 2 2 2 2 8 2 2 2 2 8 2 2 10 8 8 8 2 8 2 2 2 8 2 2
left_child=11 28 -3 4 5 17 14 8 -8 16 -6 26 -12 -5 15 -7 22 18 -4 20 21 -16 23 -10 -9 -14 27 -1 29 -2
right_child=1 2 3 13 10 6 7 24 9 -11 12 -13 25 -15 19 -17 -18 -19 -20 -21 -22 -23 -24 -25 -26 -27 -28 -29 -30 -31
leaf_value=-0.038568970648770538 0.01282325315833957 -0.062139590975894457 -0.028724789330164497 0.047871309688143349 0.050041657971047628 0.052577392707533172 0.033115776705612013 0.040336303026417497 -0.034002142837390052 0.031581393723808887 0.043656213407770129 0.055013671475910103 -0.039196411470657506 -0.011260702324827187 -0.077877139782763852 -0.025593334576312646 -0.076722886392512013 -0.056494389944464291 0.026996558778621518 -0.07639492606765852 0.025081003816787181 -0.012570827366387148 -0.058675429676812364 0.027573425874041171 0.0087803458465116353 0.012689715885233838 0.034249732619375632 0.022511133993308733 -0.051318244144716113 -0.044682728398604758
leaf_weight=5.3816744238138208 9.4056898802518898 4.2553962320089331 14.940722793340688 11.719094902276995 9.5937425345182437 5.1308001577854165 8.8259298801422101 17.342234939336777 7.423135519027718 5.2796639651060095 5.930654019117358 11.874240353703497 6.978847071528433 5.7260432988405219 4.5525266528129569 7.3688647300004968 4.6402959972620001 9.9266635328531247 5.9536680132150641 4.864529848098754 4.5643509328365335 5.4982500970363626 4.6775750219821921 6.9352035075426111 21.415500491857529 6.7763581275939941 9.8212539404630643 5.6921426057815561 11.59832017123699 9.806153789162634
leaf_count=23 41 19 66 56 44 23 39 79 32 23 27 60 30 26 21 33 20 45 26 21 20 25 20 32 95 30 47 27 55 45
internal_value=0 -0.00408433 5.03954e-05 0.00147271 -0.00131959 -0.0055544 0.000509506 0.00855666 -0.00615731 -0.018128 0.0188336 0.0277757 0.00362464 0.0284623 -0.0187506 0.0064938 -0.0292129 -0.026905 -0.0128475 -0.0349494 -0.0211546 -0.0421515 -0.0176316 -0.0042606 0.0229001 -0.0136353 0.012297 -0.00717269 -0.0296253 -0.0165291
internal_weight=0 221.13 190.32 186.065 168.62 139.34 108.519 76.5395 37.7818 28.9559 29.2796 32.7693 19.6859 17.4451 31.9793 12.4997 23.6762 30.8211 20.8944 19.4797 14.6151 10.0508 19.0359 14.3583 38.7577 13.7552 20.8951 11.0738 30.8102 19.2118
internal_count=1150 993 852 833 751 620 483 340 166 127 131 157 87 82 143 56 104 137 92 87 66 46 84 64 174 60 97 50 141 86
is_linear=0
shrinkage=0.05


Tree=23
num_leaves=31
num_cat=0
split_feature=0 1 8 32 8 18 8 9 35 0 24 32 10 6 2 29 16 0 23 16 21 9 13 26 31 3 12 12 32 8
split_gain=10.6192 9.129 5.40924 5.22028 6.12449 4.9821 5.54511 5.01811 4.64409 5.12391 5.53593 6.36636 4.57393 7.01391 5.59951 4.49373 4.45731 5.32849 4.41543 4.32862 4.14096 4.11378 4.0983 3.94492 5.26214 3.77112 3.64848 4.03712 3.5084 3.45691
threshold=0.46650000000000008 0.49250000000000005 0.62000000000000011 0.38576238576238581 0.69600000000000006 0.64810598540131015 0.091500000000000012 0.12150000000000001 0.47725490196078435 0.6645000000000002 0.26363636363636367 0.35343915343915344 0.33164983164983169 0.57742853875992617 0.11958333333333333 0.71274430267563738 0.27850000000000008 0.42150000000000004 0.3175925925925927 0.22350000000000003 0.7999006932708087 0.57700000000000007 0.68585000000000018 0.30525000000000008 0.22830687830687835 0.2301587301587302 0.71205000000000018 0.68336666666666679 0.45743145743145719 0.48100000000000004
decision_type=2 2 10 2 8 2 10 8 8 2 2 2 2 2 10 2 10 2 2 10 8 10 2 2 8 10 2 2 2 10
left_child=5 2 8 4 12 6 -1 -8 9 10 11 22 13 20 19 26 17 -17 -6 -14 -3 25 -2 -16 -25 -12 27 -9 -5 -27
right_child=1 3 -4 28 18 -7 7 15 -10 -11 21 -13 14 -15 23 16 -18 -19 -20 -21 -22 -23 -24 24 -26 29 -28 -29 -30 -31
leaf_value=-0.047226703570354793 -0.06841507995630651 0.035518776711649741 0.039792281862514239 -0.040472128832292571 0.0061706790634955717 -0.056639023323653226 0.044796875184908456 -0.024719063256089725 0.060678392871132518 0.059226966321315327 0.055065718973639745 0.020588138062044084 -0.025308124000126539 -0.043737975024337052 -0.058367031935706443 -0.029562591313378947 0.033812385669067156 0.023789483641421898 0.061442572326813938 0.030782643660544215 -0.018438396341075029 -0.023886628301401966 -0.011917322596288841 -0.049580840977371747 0.02490258517292028 -0.022866763677321267 -0.040674786223880065 0.020659813097417646 0.0074856243039692801 0.033875593522989987
leaf_weight=9.2688504010438901 6.1339206993579882 16.343736574053771 23.997704565525055 13.406831309199335 7.7903837859630567 6.4477102458477011 4.5355199873447409 13.448241680860521 4.3239613324403754 4.2068789005279532 7.7564555555582109 6.9320190101861945 5.9861441254615775 4.7147168070077887 9.1165835112333315 11.796700254082685 9.1959717124700529 7.7574846148490897 6.7389097213745117 8.0853911936283094 4.544589787721633 4.7107878029346457 6.7332892268896103 4.7384245991706821 4.7467047572135934 4.7055156379938108 14.598389521241186 7.7117841243743888 5.3295659571886054 6.2486138790845871
leaf_count=44 26 73 127 61 34 29 20 61 21 21 36 31 26 20 42 54 40 34 32 35 20 20 29 21 20 20 65 34 24 30
internal_value=0 0.00733105 0.0201711 -0.00329383 0.00276331 -0.0143923 -0.010914 -0.00603918 0.0110725 0.00654996 0.00142264 -0.01804 -0.0044777 0.0113464 -0.0168776 -0.0096134 0.00510409 -0.0083969 0.0318066 0.00692118 0.0237795 0.0178754 -0.0388503 -0.0348805 -0.0123066 0.0283898 -0.0214464 -0.0081807 -0.0268306 0.00950104
internal_weight=0 167.291 75.7491 91.542 72.8056 84.7607 78.3129 69.0441 51.7514 47.4275 43.2206 19.7992 58.2763 25.603 32.6732 64.5086 28.7502 19.5542 14.5293 14.0715 20.8883 23.4214 12.8672 18.6017 9.48513 18.7106 35.7584 21.16 18.7364 10.9541
internal_count=1150 769 361 408 323 381 352 308 234 213 192 86 257 113 144 288 128 88 66 61 93 106 55 83 41 86 160 95 85 50
is_linear=0
shrinkage=0.05


Tree=24
num_leaves=31
num_cat=0
split_feature=1 0 18 11 12 8 9 13 3 8 14 35 0 3 27 25 31 21 17 21 11 18 29 30 6 1 21 27 0 6
split_gain=10.0972 8.50923 5.65226 5.5073 5.46257 6.3611 6.16218 6.41604 6.48064 5.95144 6.32169 5.3017 5.26736 5.42795 5.19831 6.31628 5.02278 4.75865 4.76017 7.32866 5.0787 4.90448 4.66076 4.31683 3.89181 3.87985 3.99831 3.80649 6.81273 4.8169
threshold=0.38000000000000006 0.29500000000000004 0.12639762201334828 0.24142857142857141 0.68595454545454559 0.6795000000000001 0.29300000000000004 0.67720000000000014 0.33915343915343926 0.36950000000000005 0.43875000000000008 0.311764705882353 0.64850000000000019 0.27486772486772498 0.32045000000000007 0.55994005994006013 0.2817460317460318 0.53201413423472543 0.24650000000000002 0.5692841598878956 0.45505050505050509 0.61761982642473268 0.53150709900335269 0.10736111111111112 0.55316818902257403 0.48850000000000005 0.5339271270380318 0.30968333333333337 0.5525000000000001 0.55754731909843824
decision_type=2 2 2 2 2 8 8 2 8 10 2 10 2 8 2 2 10 10 10 10 2 2 2 10 2 2 8 2 2 2
left_child=14 2 -2 -3 9 6 -6 -8 16 10 -5 23 13 25 -1 -16 17 22 19 -19 -20 -21 -9 -11 -18 -7 -27 28 29 -24
right_child=1 3 -4 4 5 12 7 8 -10 11 -12 -13 -14 -15 15 -17 24 18 20 21 -22 -23 27 -25 -26 26 -28 -29 -30 -31
leaf_value=0.059489229780740983 -0.0051087500103752194 -0.057219837080147697 -0.063979571429907858 -0.052441061940419642 0.021007471375715792 0.039973418185309778 -0.054280156298046195 0.017865636594315271 -0.066167393617083833 -0.030454398414770378 0.019467039482787947 0.051881921999711637 0.058614103949681168 -0.039114575778266859 -0.020687163267515248 0.033480883980489685 0.057546785884121245 0.072196054141710583 0.013591614080696377 0.029155940015999717 -0.058673483018653161 -0.020447971613885965 -0.011691044441826096 0.037008799110837411 -0.0027175740753468316 0.030306034300989139 -0.022008277117300423 -0.044007806326034911 0.024799580913729233 -0.065615549035175177
leaf_weight=8.6038819104433077 7.2403735071420696 4.262293890118598 9.3325378447771055 5.1730259954929334 14.964498981833456 10.195891559123998 8.7454835623502714 6.8257164359092704 4.8274275213479987 4.6979855597019213 7.470136433839798 14.187641143798826 5.7453265339136115 5.3879813849925986 8.3957807719707507 14.9904148876667 5.0200994908809644 4.589822173118594 4.4404508769512159 9.1591920554637927 5.3733634054660797 10.929263323545454 11.494058445096021 4.7877307087182999 5.7446136474609375 6.3031449615955326 8.6848396807909012 18.254870414733887 7.8160448670387259 6.4737654626369467
leaf_count=44 33 19 49 23 67 53 39 30 22 21 32 65 31 24 39 74 22 20 20 41 24 50 52 21 25 28 37 82 34 29
internal_value=0 -0.00382059 -0.0382601 -0.000988785 0.000226027 -0.00372568 -0.00909045 -0.0131964 -0.0096372 0.0177423 -0.00995459 0.0325343 0.0146889 0.00643405 0.0262596 0.0140342 -0.00679813 -0.0108571 0.00347934 0.0151927 -0.0259757 0.00216859 -0.0205789 0.00359634 0.0253866 0.016179 -7.67488e-06 -0.0265375 -0.0141686 -0.0311199
internal_weight=0 218.128 16.5729 201.555 197.292 160.976 124.659 109.694 100.949 36.3165 12.6432 23.6734 36.3172 30.5719 31.9901 23.3862 96.1213 85.3565 34.4921 24.6783 9.81381 20.0885 50.8645 9.48572 10.7647 25.1839 14.988 44.0387 25.7839 17.9678
internal_count=1150 993 82 911 892 730 557 490 451 162 55 107 173 142 157 113 429 382 155 111 44 91 227 42 47 118 65 197 115 81
is_linear=0
shrinkage=0.05


Tree=25
num_leaves=31
num_cat=0
split_feature=1 0 30 34 2 9 10 1 20 8 19 1 29 26 6 35 14 18 13 27 16 23 19 31 16 15 29 21 26 13
split_gain=9.49492 6.97104 5.43662 5.49257 5.37103 5.58463 5.27882 5.36117 4.97267 5.30716 4.68964 4.58996 5.08249 8.32798 8.1594 5.10976 5.63774 5.3428 4.37755 4.73123 4.13677 3.96851 3.8065 3.78761 5.30911 3.99322 3.74582 4.49323 4.98082 3.73391
threshold=0.52050000000000007 0.6645000000000002 0.18152777777777782 0.37867012089810026 0.12069444444444445 0.63050000000000017 0.30336700336700334 0.56250000000000011 0.47038666652740441 0.73850000000000005 0.93018629559667165 0.38000000000000006 0.67146492227332921 0.28916666666666668 0.55978368682226753 0.2949019607843138 0.5408333333333335 0.65370043020180735 0.67785909090909102 0.32683888888888896 0.22850000000000004 0.34259259259259262 0.61490906304419923 0.21296296296296299 0.25750000000000006 0.30336700336700334 0.87512772361274049 0.44210409606842577 0.30625000000000008 0.79855050505050518
decision_type=2 2 8 10 10 8 2 2 8 10 2 2 2 2 2 10 2 2 2 2 10 2 2 10 10 2 2 10 2 2
left_child=1 2 11 22 5 8 7 -6 -2 20 26 18 13 -13 23 -15 17 -17 19 -1 -10 -9 -4 24 25 -14 27 -8 -29 -7
right_child=4 -3 3 -5 6 29 10 21 9 -11 -12 12 14 15 -16 16 -18 -19 -20 -21 -22 -23 -24 -25 -26 -27 -28 28 -30 -31
leaf_value=0.05053697568349428 0.045113901262638451 0.04730985175531776 -0.056638090715237226 0.0187444672715383 0.038280352463760749 -0.03135279719466768 -0.054584219319308042 -0.044718417644682075 -0.036395045168301284 0.047616592641287869 0.0089939289352932994 -0.042714417304808877 -0.068411672396309589 -0.02391322905527607 0.063387552646723619 0.044723732642561187 -0.029899086866810323 -0.0070760652095269204 0.05161705561012081 -0.014379277629380786 0.011873951487316035 0.0085019851276595965 -0.0006921021004091788 0.024553435844361732 0.032118656322997083 -0.004003256273289419 -0.076406953270014524 -0.041862213455411669 0.024275298757518507 0.01765991623659427
leaf_weight=4.3398919403553027 8.9357060492038745 10.722336485981939 8.6895811706781405 6.5789310336112967 5.899794057011607 16.199341475963596 11.560636162757879 7.1200286000967008 8.6295071393251472 4.8141693174839011 5.3521082103252402 11.773654863238333 4.3706078082323092 10.758492052555082 7.9536784142255774 15.044630676507955 5.2640457153320304 7.4395892918109885 11.356412872672079 7.9452769905328751 9.1403697133064252 6.8946691900491714 4.6767058819532386 14.039321079850195 4.6263129562139502 5.3548063784837723 6.2008393853902808 5.9762156307697278 5.436233252286911 5.1121464222669593
leaf_count=22 41 58 38 30 26 74 54 34 38 22 24 52 20 47 39 71 24 36 57 36 40 32 21 65 20 25 29 29 23 23
internal_value=0 0.0085581 0.00536708 -0.0186551 -0.011183 0.00017424 -0.0222045 -0.00170388 0.0135413 0.00104921 -0.0340291 0.00971225 0.00438297 -0.00591396 0.0186281 0.00533799 0.0166792 0.0275842 0.0292393 0.00855321 -0.0115667 -0.0185361 -0.0370633 0.0060888 -0.0119739 -0.0329484 -0.0419219 -0.0326138 -0.0103581 -0.0195958
internal_weight=0 140.934 130.212 19.9452 107.272 52.8312 54.4405 19.9145 31.5198 22.584 34.526 110.267 86.6251 50.2804 36.3447 38.5068 27.7483 22.4842 23.6416 12.2852 17.7699 14.0147 13.3663 28.391 14.3517 9.72541 29.1739 22.9731 11.4124 21.3115
internal_count=1150 661 603 89 489 238 251 92 141 100 159 514 399 230 169 178 131 107 115 58 78 66 59 130 65 45 135 106 52 97
is_linear=0
shrinkage=0.05


Tree=26
num_leaves=31
num_cat=0
split_feature=0 1 8 32 31 12 18 0 9 24 10 32 33 9 21 13 23 3 17 9 26 2 10 13 3 15 21 33 20 20
split_gain=9.06293 7.43716 5.38011 5.15238 4.42164 4.67848 4.22353 4.95183 4.5627 4.46995 6.64652 4.22068 4.24561 3.86715 4.80553 3.68772 6.33609 5.75541 3.60848 4.99768 3.53913 5.72433 5.56262 5.23451 3.90531 3.7322 5.77875 5.44431 3.09375 2.90937
threshold=0.46650000000000008 0.49350000000000005 0.62000000000000011 0.3634920634920637 0.40317460317460324 0.68509090909090931 0.64810598540131015 0.27050000000000007 0.6795000000000001 0.36148148148148157 0.28065843621399184 0.35343915343915344 0.24104683195592289 0.45850000000000007 0.49518867595377386 0.71165000000000012 0.29128787878787882 0.22830687830687835 0.26150000000000007 0.34850000000000009 0.30495000000000005 0.11402777777777778 0.31798941798941799 0.79147222222222247 0.18439153439153444 0.37345679012345684 0.39857845368682271 0.38099173553719007 0.55088284952788202 0.40204107111347837
decision_type=2 2 10 2 8 2 2 2 8 2 2 2 2 10 10 2 2 8 10 10 2 10 2 2 10 2 10 2 8 8
left_child=6 2 4 20 5 -2 7 -1 9 11 -11 12 -9 -14 -15 16 17 -7 -4 -20 21 24 -23 25 -3 26 -22 -28 -17 -12
right_child=1 3 18 -5 -6 15 -8 8 -10 10 29 -13 13 14 -16 28 -18 -19 19 -21 23 22 -24 -25 -26 -27 27 -29 -30 -31
leaf_value=-0.039222807251993175 0.039004743312072924 -0.02072240528138064 0.055380130754833383 -0.021752142907965691 0.058937228606885585 0.031512862889659245 -0.052913592237831542 -0.035111858765857741 -0.033041906960979119 0.072623056324957663 0.032394177958927066 -0.051661015079373263 0.026759822347869985 -0.04423371495887745 0.020079165137820418 0.037823262706868373 -0.050732909515316886 -0.030714063101233459 0.053797403163429604 -0.016267941727002071 -0.032821396300649897 0.017160686844712742 -0.048632788226859458 0.056814294324109151 0.034473556255153893 0.04168306011887081 -0.011236124616517199 0.05646045281015756 -0.0070553486196340658 -0.019524973489904101
leaf_weight=12.336857214570044 8.3188121020793897 4.930595442652705 13.345360442996027 25.766464158892632 4.1344805210828772 8.4567751884460449 6.2587173879146567 7.2468985617160788 11.603378295898436 4.8393296152353278 4.6660494357347462 4.8051888197660437 13.316004484891893 5.9257019460201246 5.6971727907657623 8.1260466873645747 8.0638623088598234 6.6282946914434442 4.7091195136308652 5.5383183807134628 9.3465441614389473 4.5796436071395865 10.762108057737349 6.3388965576887122 9.1549066901206952 5.8640628308057776 6.511254280805586 5.4607371091842651 7.28084720671177 6.3981453776359567
leaf_count=63 41 22 74 119 21 39 29 32 53 21 21 22 59 28 25 37 35 30 28 28 42 20 51 29 41 26 29 24 33 28
internal_value=0 0.00686618 0.0185016 -0.0029182 0.00936979 0.0049978 -0.0134169 -0.0101997 -0.00464825 0.00158042 0.023748 -0.00795006 -0.00142422 0.00836495 -0.0127095 -0.00233955 -0.0149548 0.0041707 0.0382451 0.01593 0.00479099 -0.00786254 -0.0289929 0.015899 0.0151523 0.00635774 -0.00335915 0.019642 0.0166149 0.00237064
internal_weight=0 163.317 74.6019 88.7152 51.0091 46.8746 83.0934 76.8347 64.4979 52.8945 15.9035 36.991 32.1858 24.9389 11.6229 38.5558 23.1489 15.0851 23.5928 10.2474 62.9487 29.4273 15.3418 33.5215 14.0855 27.1826 21.3185 11.972 15.4069 11.0642
internal_count=1150 769 366 403 236 215 381 352 289 236 70 166 144 112 53 174 104 69 130 56 284 134 71 150 63 121 95 53 70 49
is_linear=0
shrinkage=0.05


Tree=27
num_leaves=31
num_cat=0
split_feature=0 1 2 30 9 13 27 26 29 1 17 20 8 28 13 11 32 21 17 32 9 13 25 14 8 23 13 0 23 21
split_gain=8.75349 7.77662 6.52078 5.87007 4.93781 5.61381 6.62493 4.34393 4.39458 4.04708 5.0497 4.49447 3.97112 3.95509 3.48175 4.06554 4.56084 3.82514 4.76611 6.20095 6.23736 6.19858 5.1622 5.18061 4.67096 3.35637 3.09993 3.97201 2.8844 2.88095
threshold=0.63550000000000006 0.58350000000000002 0.094444444444444456 0.23819444444444446 0.29300000000000004 0.76360606060606073 0.32077500000000003 0.30842727272727283 0.62834535955600412 0.73750000000000016 0.23450000000000001 0.43416414602530834 0.091500000000000012 0.46652798351985419 0.73717777777777782 0.44772727272727281 0.30317460317460315 0.77142616078152104 0.22650000000000003 0.30014430014430021 0.36950000000000005 0.65746250000000006 0.55994005994006013 0.50954545454545463 0.60750000000000004 0.31424242424242427 0.6653583333333335 0.50950000000000017 0.25259259259259265 0.48765292268612198
decision_type=2 2 8 10 8 2 2 2 2 2 8 8 10 2 2 2 2 10 10 2 8 2 2 2 8 2 2 2 2 10
left_child=1 3 25 4 13 12 -7 -4 -9 10 -10 -12 -6 -1 17 28 -17 18 29 20 -20 -21 23 24 -22 -3 -15 -28 -16 -14
right_child=-2 2 7 -5 5 6 -8 8 9 -11 11 -13 14 26 15 16 -18 -19 19 21 22 -23 -24 -25 -26 -27 27 -29 -30 -31
leaf_value=-0.012023484854512288 0.028384353645996563 -0.014941885334080819 -0.052519938541742341 -0.053447243431490613 -0.046795995013351237 0.040985487850806496 -0.014824377155480926 -0.064391299266351315 0.04502052696785129 -0.048913566920789825 0.018729960732622671 -0.049941473222752851 -0.035274464899559974 -0.00031382211918132372 -0.023757805914203844 -0.012219838174406868 -0.072654176272464538 0.039649242683482105 -0.062476569770985785 -0.025025871875814662 -0.045924999468856545 0.040604224418176654 0.038651802862683632 0.022074543380993981 0.013599965853366692 0.039245987894733637 0.014925203190607986 0.062418052836914407 0.029201622333221339 0.0035299950223057278
leaf_weight=6.7911087572574642 24.490288510918617 5.6687622517347318 14.235720947384833 4.6594237834215155 5.4782164245843878 15.319166511297228 8.1443810462951642 4.1107823252677944 5.1764357239007959 4.5020607262849799 4.6681090444326392 4.8667713254690179 13.715037256479265 5.8593048006296184 5.1080085039138812 6.9260674864053708 5.683863177895546 6.1131551116704932 4.4203325212001792 4.5400033593177822 10.532500460743908 17.333870843052864 7.0325419157743445 8.1309577673673612 4.7965959608554849 5.7625098377466202 7.8406849950552013 10.039491221308706 5.176617830991745 7.3445563167333594
