tree
version=v3
num_class=1
num_tree_per_iteration=1
label_index=0
max_feature_idx=35
objective=binary sigmoid:1
feature_names=Column_0 Column_1 Column_2 Column_3 Column_4 Column_5 Column_6 Column_7 Column_8 Column_9 Column_10 Column_11 Column_12 Column_13 Column_14 Column_15 Column_16 Column_17 Column_18 Column_19 Column_20 Column_21 Column_22 Column_23 Column_24 Column_25 Column_26 Column_27 Column_28 Column_29 Column_30 Column_31 Column_32 Column_33 Column_34 Column_35
feature_infos=[0:1] [0:1] [0.30020068436716951:0.75887093038535303] [0.269565543737953:0.78902545361904897] [0:1] [0:1] [0.23200000000000001:1.135] [0:1] [0:0.59999999999999998] [0:1] [0:1] [0:1] [0:1.0000000000000002] [0.14299999999999999:0.52200000000000002] [0:1] [0:1] [0:1] [0:1] [0:2] [0:1] [0.24112906961464689:0.69979931563283049] [0.21097454638095101:0.73043445626204695] [0:1] [0:1] [0.34499999999999997:1.179] [0:1] [0.048000000000000001:0.52600000000000002] [0:1] [0.0056098419720449488:0.99999999999999978] [0:1] [0:1] [0.129:0.5] [0:1] [0:1] [0:1] [0:1]
tree_sizes=3317 3419 3414 3413 3408 3411 3417 3412 3417 3410 3431 3419 3437 3429 3420 3436 3422 3415 3410 3418 3432 3428 3412 3423 3427 3426 3427 3428 3418 3439 3413 3422 3411 3425 3447 3435 3421 3421 3419 3404 3443 3422 3429 3421 3428 3440 3429 3435 3426 3418 3402 3432 3404 3421 3395 3439 3411 3400 3392 3441 3413 3438 3422 3420 3415 3417 3426 3417 3416 3415 3404 3418 3408 3417 3406 3402 3411 3408 3419 3411 3412 3403 3409 3421 3415 3440 3397 3406 3392 3412 3426 3415 3403 3405 3421 3410 3400 3412 3437 3398 3404 3399 3413 3407 3427 3404 3417 3421 3385 3410 3408 3422 3417 3405 3404 3429 3406 3407 3401 3417 3399 3407 3411 3419 3410 3403 3418 3410 3421 3422 3418 3410 3416 3402 3415 3431 3436 3398 3391 3409 3399 3405 3423 3433 3410 3423 3412 3404 3427 3418 3421 3409 3411 3415 3417 3406 3438 3413 3407 3408 3403 3403 3408 3426 3405 3420 3411 3420 3419 3418 3417 3412 3407 3403 3395 3415 3418 3399 3399 3446 3415 3439 3392 3414 3429 3411 3404 3414 3395 3410 3404 3414 3397 3409 3395 3429 3433 3421 3405 3397 3411 3420 3426 3406 3422 3413 3428 3419 3417 3414 3410 3392 3384 3415 3413 3406 3415 3419 3404 3402 3413 3419 3404 3419 3408 3397 3402 3414 3404 3386 3413 3415 3437 3409 3414 3412 3407 3419 3419 3413 3416 3423 3419 3398 3431 3400 3406 3424 3418 3413 3411 3401 3410 3423 3439 3419 3441 3396 3402 3407 3408 3416 3405 3420 3413 3429 3408 3409 3419 3398 3407 3409 3402 3422 3417 3421 3424 3417 3423 3412 3414 3408 3421 3420 3417 3405 3422 3415 3415 3407 3420 3424 3412 3406 3425 3430 3392 3414 3412 3407 3420 3422 3422 3412 3402 3417 3417 3405 3413 3425 3428 3406 3406 3420 3410 3414 3426 3422 3420 3421 3411 3428 3419 3407 3419 3405 3409 3400 3415 3413 3408 3430 3419 3387 3406 3393 3414 3404 3424 3415 3413 3421 3403 3417 3400 3430 3396 3398 3418 3399 3411 3419 3404 3413 3401 3424 3404 3417 3415 3419 3418 3411 3447 3412 3407 3420 3406 3414 3422 3415 3418 3428 3422 3392 3402 3431 3390 3425 3418 3421 3414 3396 3414 3434 3414 3405 3425 3426 3416 3401 3407 3416 3418 3406 3422 3428 3422 3405 3410 3432 3407 3406 3407 3410 3397 3414 3433 3435 3432 3423 3408 3429 3410 3413 3405 3428 3414 3421 3410 3429 3420 3397 3429 3425 3417 3415 3422 3411 3418 3413 3431 3414 3412 3407 3422 3418 3433 3414 3421 3397 3394 3410 3427 3412 3404 3415 3406 3414 3420 3406 3420 3408 3419 3410 3429 3421 3414 3424 3407 3436 3424 3427 3441 3413 3423 3425 3434 3419 3397 3414 3434 3430 3433 3424 3389 3417 3432 3429 3415 3422 3408 3418 3419 3411 3419 3415 3423 3419 3407 3421 3414 3456 3422 3414 3424 3427 3405 3402 3430 3420 3404 3427 3414 3415 3438 3404 3439 3419 3414 3421 3416 3437 3406 3414 3425 3433 3434 3438 3428 3414 3420 3411 3422 3399 3434 3438 3412 3421 3415 3406 3428 3439 3414 3420 3419 3406 3417 3419 3429 3413 3427 3430 3424 3398 3420 3435 3428 3416 3436 3413 3419 3415 3419 3427 3407 3421 3422 3437 3439 3432 3427 3421 3427 3413 3410 3427 3446 3409 3432 3427 3419 3434 3411 3432 3432 3433 3418 3438 3445 3450 3441 3438 3418 3433 3424 3402 3421 3439 3411 3447 3442 3432 3420 3408 3418 3423 3431 3430 3413 3445 3444 3440 3408 3419 3442 3414 3417 3433 3426 3446 3414 3426 3448 3430 3447 3415 3436 3409 3429 3419 3433 3418 3439 3411 3422 3419 3430 3439 3448 3433 3451 3431 3443 3437 3444 3438 3435 3434 3427 3449 3428 3440 3443 3429 3428 3423 3402 3433 3431 3420 3418 3432 3424 3432 3460 3455 3435 3431 3451 3436 3430 3445 3434 3432 3442 3423 3422 3421 3437 3438 3460 3436 3433 3436 3441 3442 3450 3431 3429 3437 3442 3448 3431 3443 3423 3424 3441 3435 3442 3424 3422 3448 3408 3433 3463 3448 3438 3421 3434 3450 3433 3442 3442 3442 3440 3420 3434 3444 3437 3447 3440 3455 3433 3449 3420 3432 3434 3462 3461 3448 3444 3441 3434 3454 3463 3463 3434 3447 3427 3441 3448 3444 3440 3450 3441 3436 3433 3425 3415 3434 3448 3433 3425 3435 3430 3433 3441 3444 3441 3435 3446 3433 3440 3435 3446 3448 3449 3442 3423 3440 3434 3463 3426 3452 3452 3439 3452 3447 3452 3429 3433 3436 3429 3437 3440 3452 3436 3427 3441 3447 3441 3435 3441 3453 3430 3446 3425 3427 3444 3445 3438 3455 3460 3439 3435 3448 3449 3455 3456 3450 3441 3432 3456 3446 3446 3452 3451 3462 3467 3445 3442 3443 3450 3463 3429 3450 3456 3443 3458 3437 3440 3461 3445 3453 3450 3436 3456 3405 3444 3434 3461 3433 3457 3450 3450 3438 3440 3440 3451 3441 3444 3461 3431 3439 3449 3452 3466 3441 3463 3440 3451 3444 3439 3451 3444 3453 3444 3434 3444 3456 3458 3449 3453 3460 3455 3455 3456 3458 3436 3459 3453 3445 3444 3459 3438 3463 3467 3447 3428 3437 3458 3449 3445 3454 3444 3431 3450 3465 3463 3461 3454 3444 3453 3445 3456 3463 3471 3453 3460 3458 3437 3442 3438 3459 3461 3460 3455 3429 3449 3454 3454 3455 3443 3462 3442 3454 3448 3435 3421 3466 3469 3463 3440 3470 3450 3433 3457 3460 3481 3452 3445 3464 3457 3454 3464 3435 3460 3486 3451 3463 3436 3456 3441 3466 3465 3462 3447 3453 3461 3464 3474 3469 3450 3458 3447 3456 3452 3437 3458 3445 3460 3454 3436 3448 3479 3455 3441 3445 3462 3432 3477 3459 3450 3469 3466 3451 3455 3456 3440 3456 3454 3461 3445 3462 3447 3467 3454 3451 3440 3448 3474 3455 3470 3461 3468 3458 3452 3458 3467 3479

Tree=0
num_leaves=31
num_cat=0
split_feature=22 0 4 0 22 1 22 4 15 0 4 9 18 4 9 10 33 12 0 33 28 35 26 25 9 4 0 6 11 25
split_gain=205.874 107.456 95.4825 49.7411 47.6843 24.9775 23.7574 21.9812 20.1777 19.1709 16.69 16.1317 17.3349 12.8207 14.9335 11.2125 10.8874 10.8751 10.6526 10.577 10.487 11.8046 10.2857 11.2718 10.137 10.0617 10.7897 9.88769 12.3139 10.9258
threshold=0.53100000000000014 0.42550000000000004 0.41450000000000004 0.61150000000000004 0.31050000000000005 0.10291666666666667 0.68300000000000016 0.69800000000000006 0.1915277777777778 0.41950000000000004 0.45650000000000007 0.27931815959206091 0.42950000000000005 0.31450000000000006 0.43208939785510619 0.58834889113687094 0.36349206349206359 0.28550404709345112 0.57150000000000001 0.18280423280423283 0.24059164597183771 0.37372549019607842 0.31950000000000006 0.46882086167800457 0.34483351808689339 0.75750000000000017 0.51750000000000018 0.68761818181818202 0.33910256410256417 0.3487103174603175
decision_type=10 8 8 8 8 10 10 10 10 10 8 2 10 8 2 8 8 2 10 10 10 10 10 2 2 10 10 2 2 2
left_child=1 8 -2 6 10 25 9 18 11 24 22 12 27 14 -7 -11 -13 -17 -8 -9 21 -15 23 -3 -4 -6 -27 28 -1 -29
right_child=2 4 3 -5 5 13 7 19 -10 15 -12 16 -14 20 -16 17 -18 -19 -20 -21 -22 -23 -24 -25 -26 26 -28 29 -30 -31
leaf_value=0.1073989251523231 0.095813859743001273 0.15596861154498115 0.12300962816022033 0.17803710941449688 0.17398771048618528 0.15834491355691946 0.094968743248099535 0.1283471111739499 0.075477879786034666 0.15924568555584942 0.20663064728311584 0.10707664536737499 0.099706476514873271 0.10320928794799775 0.094180914817550143 0.10350158821806696 0.17711448823229706 0.15694593904695342 0.1449380745030783 0.21273837486107494 0.16533802860108382 0.16342750627285327 0.22806047663689344 0.23232628906311559 0.053771568936958516 0.15131788067352686 0.22094664366954914 0.1038708096118386 0.18001930336062932 0.17443312042152884
leaf_weight=6.7129919528961173 188.4610333442688 41.521098375320435 18.149941205978397 69.367583513259888 149.67485761642456 18.647199869155884 75.086058139801025 7.956138610839842 15.663647890090941 95.473663330078125 126.30370044708252 51.714900970458984 15.16638922691345 15.912277221679686 17.652682542800903 21.38212251663208 6.215733289718627 17.155423879623413 12.431466579437254 6.9616212844848633 148.43171095848083 16.658165216445923 7.4588799476623526 5.4698452949523917 7.4588799476623526 7.2102506160736111 24.365674495697021 14.171871900558473 44.753279685974121 8.9506559371948224
leaf_count=27 758 167 73 279 602 75 302 32 63 384 508 208 61 64 71 86 25 69 50 28 597 67 30 22 30 29 98 57 180 36
internal_value=0.148361 0.165254 0.12423 0.140388 0.175354 0.165693 0.130422 0.111629 0.129438 0.142482 0.196655 0.135161 0.148436 0.154262 0.127142 0.150057 0.114591 0.127293 0.102067 0.16773 0.1597 0.134008 0.173515 0.164857 0.102843 0.179399 0.205047 0.158345 0.170547 0.131185
internal_weight=0 742.656 519.884 331.423 579.306 398.553 262.055 102.435 163.349 159.62 180.754 147.686 89.7552 217.302 36.2999 134.011 57.9306 38.5375 87.5175 14.9178 181.002 32.5704 54.4498 46.9909 25.6088 181.251 31.5759 74.5888 51.4663 23.1225
internal_count=5078 2987 2091 1333 2330 1603 1054 412 657 642 727 594 361 874 146 539 233 155 352 60 728 131 219 189 103 729 127 300 207 93
is_linear=0
shrinkage=1


Tree=1
num_leaves=31
num_cat=0
split_feature=22 0 4 0 22 1 22 4 15 0 0 9 0 6 0 21 11 25 26 10 15 10 10 4 18 29 19 31 9 12
split_gain=185.782 97.1949 85.7061 44.9159 43.4043 22.6461 21.3602 19.7576 18.0989 17.2493 15.5813 16.0314 15.2555 13.2886 11.8095 13.5504 11.4672 11.1149 12.6848 11.2775 10.6245 12.3403 10.1137 9.93917 9.8844 10.362 9.81488 15.8787 9.80724 9.77792
threshold=0.53100000000000014 0.42550000000000004 0.41450000000000004 0.61150000000000004 0.31050000000000005 0.10291666666666667 0.68300000000000016 0.69800000000000006 0.1915277777777778 0.41950000000000004 0.28700000000000003 0.27931815959206091 0.53450000000000009 0.68761818181818202 0.60950000000000004 0.43557907094348908 0.33910256410256417 0.34027777777777779 0.23150000000000004 0.40633659671957983 0.19847222222222224 0.26419901653852479 0.58834889113687094 0.31700000000000006 0.62450000000000017 0.37373271889400927 0.20661375661375667 0.30790000000000012 0.444389135449824 0.28550404709345112
decision_type=10 8 8 8 8 10 10 10 10 10 10 2 10 2 8 2 2 2 10 10 8 8 8 10 10 2 10 2 2 2
left_child=1 8 -2 6 12 -6 9 -8 10 -4 -1 13 -3 16 15 17 -12 -7 -19 -20 21 -17 24 -23 25 -11 27 -5 -27 -24
right_child=2 4 3 26 5 14 7 -9 -10 22 11 -13 -14 -15 -16 20 -18 18 19 -21 -22 23 29 -25 -26 28 -28 -29 -30 -31
leaf_value=-0.060500869206246859 -0.049755929452094061 0.030121979132729234 -0.043124963335753594 0.037796329586934733 0.029564986051188475 -0.035608889533739467 -0.043852144110683632 0.018440537359391534 -0.068949575981927261 0.022160730751194603 -0.038765359704117958 -0.028070533476874389 0.059359155695176649 -0.021194658412322577 0.032310954017911807 0.059838748759516641 0.031192017943873714 -0.069050159566666255 -0.020526689092582422 0.039745382042933569 -0.051723574217149383 -0.029567760677651628 -0.042493368081496521 0.016097353171919012 -0.058313640807855421 0.028232733859986911 0.061757651256633864 -0.019845666471643562 -0.051125403709197416 0.0081608504049768948
leaf_weight=15.187906250357626 189.06574934720993 81.733340322971344 25.675718188285828 34.228048413991928 180.77881360054016 36.53599725663662 87.764602720737457 14.88853746652603 15.727589607238768 73.781253397464752 6.7308706641197196 53.814631894230843 98.247530445456505 26.885643348097801 34.778322204947472 13.664896398782728 45.157054454088211 5.2242422252893439 13.178090900182722 18.880488052964211 6.2143384069204322 14.183929219841955 21.442522168159485 74.514102041721344 4.9684345722198477 6.2105432152748135 16.617965534329414 18.354170888662338 10.43371260166168 17.144208490848541
leaf_count=61 758 330 103 138 729 147 352 60 63 297 27 216 397 108 140 55 182 21 53 76 25 57 86 300 20 25 67 74 42 69
internal_value=0 0.0160778 -0.0228916 -0.00757042 0.0257068 0.0164918 -0.0170234 -0.0348174 -0.0179575 -0.00558253 -0.0125305 -0.00703549 0.0460819 0.00733473 0.00560952 0.000518234 0.0221172 -0.0160099 0.00319651 0.0149698 0.0117553 0.015609 0.00161201 0.00879493 0.010349 0.0141217 0.0282619 0.017676 -0.0215142 -0.0199875
internal_weight=0 741.438 520.575 331.51 577.934 397.953 262.31 102.653 163.504 159.656 147.776 132.588 179.981 78.7736 217.174 182.396 51.8879 73.8188 37.2828 32.0586 108.577 102.363 133.981 88.698 95.3939 90.4255 69.2002 52.5822 16.6443 38.5867
internal_count=5078 2987 2091 1333 2330 1603 1054 412 657 642 594 533 727 317 874 734 209 297 150 129 437 412 539 357 384 364 279 212 67 155
is_linear=0
shrinkage=0.05


Tree=2
num_leaves=31
num_cat=0
split_feature=22 0 4 0 22 4 22 15 0 4 0 14 22 15 0 14 0 0 28 13 16 26 12 30 19 8 6 27 9 25
split_gain=167.776 87.9582 77.0974 41.8326 39.8278 24.1696 21.7267 16.2997 15.2653 14.6552 14.006 14.4509 14.0907 12.4767 12.0553 14.127 11.7436 13.1655 13.2063 11.9008 11.6427 10.1512 10.1257 12.6653 9.75118 9.671 11.3691 9.87528 9.65678 9.54217
threshold=0.53100000000000014 0.42550000000000004 0.41450000000000004 0.53250000000000008 0.35850000000000004 0.70700000000000007 0.67450000000000021 0.1915277777777778 0.53450000000000009 0.71800000000000008 0.28700000000000003 0.194607669034951 0.43650000000000005 0.095972222222222237 0.41950000000000004 0.46742672719026684 0.43850000000000006 0.5445000000000001 0.72195882759387675 0.31819090909090914 0.45505050505050515 0.26850000000000007 0.37420563248377831 0.43901098901098906 0.1240740740740741 0.21750000000000003 0.68556944444444456 0.59005287218139657 0.34483351808689339 0.27889610389610392
decision_type=10 8 8 8 8 10 10 10 10 10 10 2 8 10 10 2 10 10 8 2 2 10 2 2 10 8 2 2 2 2
left_child=1 7 -2 6 8 13 14 10 -3 24 -1 21 20 -6 28 -16 -15 19 -19 29 -13 -12 -8 -24 -5 27 -27 -26 -4 -18
right_child=2 4 3 9 5 -7 22 -9 -10 -11 11 12 -14 16 15 -17 17 18 -20 -21 -22 -23 23 -25 25 26 -28 -29 -30 -31
leaf_value=-0.057309830071901435 -0.047182385432619267 0.026478705924668212 -0.019516167887571351 -0.050703458677982371 0.028017932579785056 0.043758529061147529 -0.055090665066750345 -0.065406480752176185 0.051683188541782644 0.039232283960011716 0.038200496074815245 0.012254439531479748 -0.041455287180680367 0.044904785789250362 0.024888443877191149 -0.019156919185985128 -0.054099225807903821 0.016999794836844103 -0.066674176627493337 0.0066215540798583317 -0.036599938072414011 -0.017541469612510806 0.051234257805481902 -0.053907248427518741 -0.042168714463097216 0.0690854489086591 0.0088885844549491371 0.015375664638545708 -0.087201464217633209 -0.013268520641603955
leaf_weight=15.230648770928381 189.39954155683517 112.23334677517414 17.721711665391926 7.95670461654663 58.14562201499939 54.615447878837585 56.914335578680038 15.749831959605215 129.26657828688622 35.414287567138672 24.81492206454277 42.056210324168205 36.355477467179298 14.880416810512541 32.74718114733696 40.99483434855938 21.107361942529678 90.01757887005806 4.9763391762971869 46.654667213559151 17.175527006387711 12.174772083759306 5.4909040331840497 5.9875166565179825 17.651474207639698 8.6795498430728895 81.44320322573185 12.90746635198593 7.4997876584529868 44.427438020706177
leaf_count=61 758 454 71 32 235 221 228 63 525 143 100 169 146 60 132 165 85 363 20 188 69 49 22 24 71 35 328 52 30 179
internal_value=0 0.0153091 -0.021735 -0.00719184 0.024493 0.0133301 -0.0247798 -0.0170521 0.0399698 0.0107503 -0.0118997 -0.00668288 -0.0169518 0.00739931 -0.00980322 0.000402642 0.00200049 -0.001081 0.0126165 -0.012679 -0.00191195 0.0198536 -0.0464508 -0.00361096 0.00290919 0.00644395 0.014686 -0.0178632 -0.0396429 -0.0264192
internal_weight=0 739.882 520.808 331.409 576.325 334.825 167.356 163.557 241.5 164.053 147.808 132.577 95.5872 280.209 98.9635 73.742 222.064 207.183 94.9939 112.189 59.2317 36.9897 68.3928 11.4784 128.638 120.682 90.1228 30.5589 25.2215 65.5348
internal_count=5078 2987 2091 1333 2330 1351 672 657 979 661 594 533 384 1130 398 297 895 835 383 452 238 149 274 46 518 486 363 123 101 264
is_linear=0
shrinkage=0.05


Tree=3
num_leaves=31
num_cat=0
split_feature=22 0 4 0 22 1 22 4 4 4 0 0 9 6 22 16 19 4 9 33 33 26 25 1 0 26 17 10 28 35
split_gain=151.597 79.6256 69.4924 37.823 36.8324 18.9934 17.4274 16.9999 15.474 14.8301 13.9714 13.1075 13.8114 12.1088 11.6683 15.1101 11.641 10.757 12.8449 9.54881 9.52141 9.38554 10.3769 9.3687 9.19001 10.5946 9.05086 9.00208 8.9172 10.5609
threshold=0.53100000000000014 0.42550000000000004 0.41450000000000004 0.61150000000000004 0.31050000000000005 0.10291666666666667 0.68300000000000016 0.69800000000000006 0.091500000000000012 0.45650000000000007 0.41950000000000004 0.26750000000000007 0.24621093647626327 0.68687301587301597 0.43650000000000005 0.44805194805194809 0.23835978835978841 0.31450000000000006 0.43208939785510619 0.18280423280423283 0.23703703703703707 0.31950000000000006 0.46882086167800457 0.061666666666666682 0.5525000000000001 0.27750000000000008 0.30226960110041273 0.59328824889654685 0.24059164597183771 0.44117647058823534
decision_type=10 8 8 8 8 10 10 10 8 8 10 10 2 2 10 2 8 8 2 10 8 10 2 8 10 8 10 8 10 10
left_child=1 8 -2 6 9 24 10 -8 -1 21 -4 -10 13 -13 15 16 -14 18 20 -9 -7 22 -3 -11 25 -6 -5 -12 29 -19
right_child=2 4 3 26 5 17 7 19 11 23 27 12 14 -15 -16 -17 -18 28 -20 -21 -22 -23 -24 -25 -26 -27 -28 -29 -30 -31
leaf_value=-0.071551540565663624 -0.044798671199571163 0.0035288339070015592 -0.038894956528614549 0.032905250818568481 0.0069585800422952929 0.05969534175207334 -0.039902839269107815 -0.01942481682727374 -0.062081922445369225 -0.0074052198059259521 0.009371450013938085 0.022476457059112269 -0.029950372409438944 -0.022466439049982648 -0.050038016198721925 -0.046827935435568124 0.036806268079674492 -0.026909778701769412 -0.050407786222809094 0.060922969441291823 -0.016194465520981433 0.072958599236964711 0.077424890752680539 0.054923005225770129 0.038533352194948529 0.04788652438137278 -0.022472614253345208 -0.019596767577716698 0.015107512641535707 0.048023024046640335
leaf_weight=11.720930323004721 189.49994352459908 41.192273616790771 25.722783595323563 60.454628393054008 72.314906895160675 6.1968478113412884 87.944752588868141 7.9581160843372327 11.996585324406622 6.3541027903556815 96.731766134500504 47.318500474095345 9.9704207479953784 21.934498876333237 25.718165993690491 15.969803020358084 18.927813440561295 26.864965498447418 17.712961599230766 6.9072908014059067 12.410405039787291 7.3192758858203879 5.3701488077640525 117.86003062129021 87.131410390138626 20.236853942275047 8.4040026515722257 37.106539830565453 147.89029483497143 5.6998094618320456
leaf_count=47 758 167 103 245 293 25 352 32 48 26 390 191 40 88 103 64 76 108 71 28 50 30 22 482 354 82 34 149 597 23
internal_value=0 0.0145816 -0.02065 -0.00683435 0.0233436 0.0148587 -0.0154901 -0.0315437 -0.0161983 0.0422319 -0.00514623 -0.0119253 -0.00762241 0.0082417 -0.0231869 -0.00779594 0.013774 0.00489501 -0.0199318 0.0179092 0.00907942 0.020325 0.0120514 0.0517346 0.0268792 0.0159077 0.0261465 0.00134004 0.00989192 -0.0137943
internal_weight=0 738.111 520.73 331.23 574.554 396.458 262.371 102.81 163.557 178.096 159.561 151.836 139.839 69.253 70.5862 44.868 28.8982 216.775 36.3202 14.8654 18.6073 53.8817 46.5624 124.214 179.683 92.5518 68.8586 133.838 180.455 32.5648
internal_count=5078 2987 2091 1333 2330 1603 1054 412 657 727 642 610 562 279 283 180 116 874 146 60 75 219 189 508 729 375 279 539 728 131
is_linear=0
shrinkage=0.05


Tree=4
num_leaves=31
num_cat=0
split_feature=22 0 4 0 22 4 22 4 0 5 18 4 18 15 3 26 9 13 17 0 4 0 14 14 7 0 21 4 9 30
split_gain=137.067 72.1221 62.7379 35.2332 33.8725 21.2755 18.1239 13.9708 13.7375 12.6888 13.5487 12.4989 10.9774 10.3967 11.2809 10.7281 10.3874 10.192 15.2725 12.1161 9.93025 9.70481 12.6751 9.46965 9.35276 9.31886 9.20022 9.11981 8.78046 8.67353
threshold=0.53100000000000014 0.42550000000000004 0.41450000000000004 0.53250000000000008 0.35850000000000004 0.70700000000000007 0.67450000000000021 0.091500000000000012 0.51950000000000018 0.36011904761904762 0.42650000000000005 0.71800000000000008 0.6905 0.095972222222222237 0.57995989079307309 0.21750000000000003 0.2764057151878197 0.29434848484848491 0.30089408528198086 0.5445000000000001 0.46000000000000008 0.41950000000000004 0.46742672719026684 0.43260863037196901 0.42916174734356566 0.27900000000000008 0.5675587969916972 0.64850000000000019 0.34483351808689339 0.45483682983682994
decision_type=10 8 8 8 8 10 10 8 10 2 10 10 10 10 2 10 2 2 10 10 10 10 2 2 2 10 2 10 2 2
left_child=1 7 -2 6 8 12 21 -1 20 10 16 -5 13 -6 -15 -16 -9 19 -19 -17 -3 28 23 26 -12 -26 -23 -8 -4 -27
right_child=2 4 3 11 5 -7 27 9 -10 -11 24 -13 -14 14 15 17 -18 18 -20 -21 -22 22 -24 -25 25 29 -28 -29 -30 -31
leaf_value=-0.068004660866211472 -0.042581570764685342 0.003968159132327463 -0.016568502311409685 0.0027712176558467101 0.02384718502345529 0.04065439467493423 -0.050705204718770415 0.013308319335850975 0.046080529398579186 -0.052460309961126529 -0.079278075892127098 0.036416872452506924 0.064538757711997172 0.0087166978252705141 -0.080938481398060258 -0.070175680520522851 -0.019295812217565461 0.024953675932665967 -0.042779401456965432 -0.0081364035410596801 0.036954844772908363 -0.011569610631256826 -0.018278848481606453 0.065039510884157201 -0.075979821579320997 0.047560462051779426 0.062854695121031964 -0.0022095225540304502 -0.081170450512344353 -0.031740555331870077
leaf_weight=11.715647757053373 189.40012890100479 43.122399732470512 17.747953861951832 128.44901666045189 56.309534773230553 54.140425115823746 56.719769582152367 69.421995535492897 147.36370369791985 16.692993521690369 8.9856219440698641 35.158069223165512 7.8921985030174246 133.00028938055038 5.7125042527914038 12.179910808801649 37.692277416586876 30.694476917386055 11.41835881769657 22.239784583449364 48.44779135286808 17.563801318407062 41.036333382129669 9.6496172696351987 4.990471929311755 6.22436375916004 5.4382056891918173 11.692885562777517 7.4750643968582144 7.7305578291416168
leaf_count=47 758 175 71 518 229 221 227 280 606 67 36 143 32 537 23 49 151 124 46 90 198 71 165 39 20 25 22 47 30 31
internal_value=0 0.0138963 -0.0196321 -0.00649746 0.0222595 0.0119668 -0.0226299 -0.0153972 0.0366298 -0.0113354 -0.0062519 0.0100014 0.00640881 0.00471938 -0.000284578 -0.0148407 0.0018353 -0.00990711 0.00658872 -0.0300899 0.0214207 -0.00894432 0.000218759 0.0234664 -0.037266 -0.01734 0.00602601 -0.0424165 -0.0357139 0.00363036
internal_weight=0 735.975 520.331 330.931 572.521 333.587 167.324 163.454 238.934 151.738 135.045 163.607 279.447 271.555 215.245 82.245 107.114 76.5325 42.1128 34.4197 91.5702 98.911 73.688 32.6516 27.931 18.9454 23.002 68.4127 25.223 13.9549
internal_count=5078 2987 2091 1333 2330 1351 672 657 979 610 543 661 1130 1098 869 332 431 309 170 139 373 398 297 132 112 76 93 274 101 56
is_linear=0
shrinkage=0.05


Tree=5
num_leaves=31
num_cat=0
split_feature=22 0 4 0 22 0 34 22 4 15 4 4 0 5 0 13 14 30 6 31 0 22 13 14 12 35 28 4 6 22
split_gain=123.974 65.3383 56.8187 32.5808 31.4918 17.0382 17.0311 17.3606 14.2061 13.4028 12.9094 11.9263 15.5014 11.6793 12.967 10.9332 10.8284 10.6118 10.4921 10.4621 11.8346 10.671 10.5353 9.8828 9.79402 9.72 12.7596 9.53034 9.31217 8.767
threshold=0.53100000000000014 0.42550000000000004 0.40450000000000003 0.57050000000000012 0.31050000000000005 0.58950000000000002 0.24120370370370373 0.67450000000000021 0.71100000000000008 0.1915277777777778 0.45650000000000007 0.31450000000000006 0.43850000000000006 0.36396103896103899 0.30150000000000005 0.33376388888888892 0.194607669034951 0.49825174825174834 0.75780909090909099 0.30790000000000012 0.70550000000000013 0.57700000000000007 0.30504166666666671 0.55759210308525342 0.36341059602649017 0.3894117647058824 0.33741022496831602 0.78200000000000014 0.66505000000000014 0.29700000000000004
decision_type=10 8 8 8 8 8 2 10 10 10 8 8 10 2 8 2 2 2 2 2 10 10 2 2 2 10 8 8 2 10
left_child=1 9 -2 6 10 11 -4 28 24 13 -3 12 -6 14 15 -1 -16 29 -13 -5 21 -21 -23 25 -9 26 -14 -7 -8 -18
right_child=2 4 3 19 5 27 7 8 -10 -11 -12 18 23 -15 16 -17 17 -19 -20 20 -22 22 -24 -25 -26 -27 -28 -29 -30 -31
leaf_value=-0.09733356932877045 -0.04103834587323478 0.01835680588050163 -0.089483198770033134 0.027544780635275462 0.054299903053083388 0.023415155852207443 -0.035189541576726512 -0.047485386279829983 0.024696809444157405 -0.058618856666113189 0.047803537551709664 0.014190522987703326 0.063300870669579193 -0.051462748899034273 0.024960354419403846 -0.013890542510546965 0.017267669688042532 0.014503669157862012 -0.019262157569137957 0.030582664570481061 0.068403771673025277 -0.046551630292406325 0.017013410215821673 -0.093350181386181064 0.0017704322388448854 -0.078353749106666148 -0.031843252196169014 0.062054287703519312 0.0024230580124770936 -0.033023959807921222
leaf_weight=6.4775000512599972 183.64015340805054 53.518892839550972 7.9640929102897635 68.505060255527496 5.6653726547956458 85.702285036444664 19.415635243058205 63.882707238197327 9.6526384055614454 15.661632418632506 122.21025876700878 229.99931359291077 5.1942672729492285 15.214883983135222 32.900648757815361 9.964365214109419 10.944697871804236 30.552653431892395 26.09875862300396 10.862581774592398 5.1424398720264426 21.283890709280971 9.3962554484605771 5.9864307492971411 11.985708847641943 5.4715030193328849 10.957372903823851 19.610142275691032 107.9536185413599 41.614448249340057
leaf_count=26 736 219 32 278 23 349 78 256 39 63 508 933 21 61 133 40 44 123 106 44 21 86 38 24 48 22 44 81 435 167
internal_value=0 0.0132448 -0.0186738 -0.00645212 0.0212288 0.0133896 -0.0176958 -0.0150102 -0.0324351 -0.0146384 0.0388354 0.00712249 -0.0210379 -0.00997388 -0.0052081 -0.0467641 0.000681418 -0.00892964 0.0107814 0.0151053 -0.00314808 -0.0120052 -0.0270839 -0.0364969 -0.0397039 -0.0207569 -0.00124549 0.0306101 -0.00331045 -0.0225514
internal_weight=0 733.745 519.685 336.045 570.415 394.685 220.854 212.89 85.5211 163.331 175.729 289.373 33.2749 147.669 132.454 16.4419 116.012 83.1118 256.098 115.19 46.6852 41.5427 30.6801 27.6096 75.8684 21.6231 16.1516 105.312 127.369 52.5591
internal_count=5078 2987 2091 1355 2330 1603 888 856 343 657 727 1173 134 594 533 66 467 334 1039 467 189 168 124 111 304 87 65 430 513 211
is_linear=0
shrinkage=0.05


Tree=6
num_leaves=31
num_cat=0
split_feature=22 0 0 4 22 4 34 0 4 0 22 12 22 5 18 0 1 9 4 28 0 22 9 2 0 29 10 6 7 4
split_gain=112.171 59.2071 51.4677 31.445 28.8657 16.041 13.3201 14.0729 12.2448 11.9646 11.7511 10.8792 12.6223 10.4229 11.8305 10.0549 10.8767 11.1038 13.6686 11.2224 10.9684 9.86306 10.087 9.77051 9.5031 8.84263 8.96517 8.69745 9.02962 8.29649
threshold=0.53100000000000014 0.42550000000000004 0.60550000000000004 0.34300000000000003 0.31050000000000005 0.75750000000000017 0.2303240740740741 0.37450000000000006 0.091500000000000012 0.53450000000000009 0.81300000000000006 0.39698307579102299 0.67450000000000021 0.36011904761904762 0.42650000000000005 0.63850000000000018 0.07930555555555556 0.42853025711510911 0.31450000000000006 0.72195882759387675 0.54550000000000021 0.43650000000000005 0.41577864818387372 0.7031855727527293 0.51750000000000018 0.43396746622553062 0.30889957183146594 0.699348484848485 0.43308080808080812 0.68600000000000005
decision_type=10 8 8 8 8 10 2 10 8 10 10 2 10 2 10 8 8 2 8 8 10 8 2 2 10 2 10 2 2 10
left_child=1 8 3 -2 9 15 -5 -8 -1 -3 29 12 25 14 21 16 -6 -18 -19 20 -20 22 -10 -11 -7 26 -9 -22 -29 -4
right_child=2 4 10 6 5 24 7 11 13 23 -12 -13 -14 -15 -16 -17 17 18 19 -21 27 -23 -24 -25 -26 -27 -28 28 -30 -31
leaf_value=-0.063348523545940477 -0.045143906380887833 0.022952717282670395 0.010007951008630467 -0.078680351101542728 0.032061198365980592 -0.0023838009076483733 -0.046331717993917665 -0.032950134715139287 0.020805888480514054 0.053317468975465299 -0.0515589370767007 0.018868678752063758 -0.028391338073276914 -0.047391532730376454 -0.03454508421020025 0.03433731139559798 0.017755282885496455 -0.044408238660460911 -0.0094033460850193994 -0.052918594199819341 0.04904184128119022 -0.016395454687725266 -0.048690609583556893 -0.014145883453808551 0.05848610550724867 -0.063013504963206998 0.0031563550017411146 -0.001737499204463797 0.040549939120147788 0.043332639996970054
leaf_weight=11.638150840997694 131.19880411028862 79.961282923817635 47.559147387742996 8.207822307944296 37.371019035577774 8.3294365108013135 30.393614307045937 20.113333523273468 57.9950001090765 88.718345150351524 5.6516918241977683 28.333628460764885 92.042099758982658 16.697230830788612 27.8398727029562 36.687343239784241 91.016955107450485 18.411074489355087 79.974922686815262 9.178081274032591 16.451168492436409 43.207787707448006 5.7378749996423712 5.7124416530132285 27.855863153934479 6.2231490164995185 118.37002782523632 51.85129289329052 16.68609793484211 30.754142940044403
leaf_count=47 527 330 193 33 153 34 122 81 234 373 23 114 370 67 112 150 369 74 324 37 67 174 23 24 116 25 477 211 68 126
internal_value=0 0.0126272 -0.017769 -0.0246886 0.0202498 0.0127504 -0.0158514 -0.0141062 -0.0139254 0.0371849 0.0180698 -0.0104113 -0.0139154 -0.0101282 -0.00551181 0.00954046 0.00670588 0.00336436 -0.00343803 0.000893533 0.00388748 0.00204642 0.0145491 0.0492364 0.0444746 -0.00470789 -0.00208775 0.0163943 0.00855779 0.0230948
internal_weight=0 731.321 518.847 434.882 568.205 393.813 303.684 295.476 163.116 174.392 83.965 265.082 236.749 151.478 134.781 357.628 320.941 283.57 192.553 174.142 164.963 106.941 63.7329 94.4308 36.1853 144.707 138.483 84.9886 68.5374 78.3133
internal_count=5078 2987 2091 1749 2330 1603 1222 1189 657 727 342 1067 953 610 543 1453 1303 1150 781 707 670 431 257 397 150 583 558 346 279 319
is_linear=0
shrinkage=0.05


Tree=7
num_leaves=31
num_cat=0
split_feature=22 0 4 0 22 4 22 4 15 7 22 6 14 7 25 7 30 0 0 6 35 13 28 15 29 0 18 13 7 9
split_gain=101.515 53.6722 47.3582 27.8721 27.0934 16.6441 14.2648 12.4798 11.7443 11.374 11.7066 11.7214 11.2416 11.5425 11.0589 10.9428 10.4571 11.4976 9.90888 9.44469 9.37817 9.33612 9.25723 9.18923 9.14812 8.88602 8.79074 8.74081 9.80671 8.1242
threshold=0.53100000000000014 0.42550000000000004 0.40450000000000003 0.53250000000000008 0.38000000000000006 0.70700000000000007 0.67450000000000021 0.45650000000000007 0.1915277777777778 0.43535353535353544 0.46450000000000008 0.68385353535353532 0.32305097872412253 0.37323232323232325 0.46882086167800457 0.46322314049586782 0.62350427350427362 0.63150000000000006 0.70850000000000002 0.73380909090909097 0.27647058823529419 0.33319090909090915 0.5887416739137683 0.095972222222222237 0.23196480938416422 0.43850000000000006 0.5335000000000002 0.31819090909090914 0.48116883116883119 0.22785801329958447
decision_type=10 8 8 8 8 10 10 8 10 2 8 2 2 2 2 2 2 8 10 2 10 2 8 10 2 10 8 2 2 2
left_child=1 8 -2 6 7 18 -4 14 9 12 15 29 13 -1 19 -11 17 20 23 21 -5 -3 24 -6 -22 -25 -21 -27 -29 -12
right_child=2 4 3 16 5 -7 -8 -9 -10 10 11 -13 -14 -15 -16 -17 -18 -19 -20 26 22 -23 -24 25 -26 27 -28 28 -30 -31
leaf_value=0.01555471135645869 -0.03738816234364855 0.007985323120684059 -0.0078259210395083025 -0.016255606508502822 0.021216230131150884 0.035847026175491417 -0.037099677913199507 0.038598033588504985 -0.054617291206186504 0.05930211776825646 0.02954419292803406 -0.065047350741604976 -0.054766864916524875 -0.037794281561473457 0.071123187004436192 0.0047828608483023623 -0.060732142668794786 0.031340003056565556 0.06370669990112908 -0.058584233889865049 -0.049457425167417551 0.058018002836663918 0.048752070484482386 0.036469568962381287 0.012247450175439073 -0.012577829016474758 0.016323287165637378 0.027291148944035001 -0.015114371329045449 -0.044980394809272024
leaf_weight=21.299163401126862 182.72911344468594 45.15964749455452 102.01397000253201 41.94202071428299 52.15322370827198 49.396034300327301 70.287790164351463 178.53534440696239 15.518882334232329 11.409288212656973 10.134616792201998 10.713409915566443 21.178444892168045 19.349472001194954 7.8910245597362509 47.613276064395905 5.1933359503746024 49.492634698748589 6.8012985885143271 8.8174961060285533 6.9433445483446112 11.749872922897337 14.835555776953695 13.707478776574133 44.525493428111076 127.03625653684139 7.0467526465654382 35.305650353431702 22.210986465215683 5.7215189933776847
leaf_count=86 736 185 411 169 214 205 283 749 63 46 41 43 85 78 33 192 21 203 28 36 28 48 60 56 180 514 29 143 90 23
internal_value=0 0.0120419 -0.0169101 -0.00574797 0.0193236 0.00926378 -0.0197677 0.0312235 -0.0132441 -0.00888872 0.00291507 -0.0246454 -0.0252296 -0.00984036 0.0149013 0.0153216 0.00907795 0.0113763 0.00415868 0.00880507 0.00224853 0.0183154 0.0139536 0.00254134 0.00392322 -0.00237116 -0.025311 -0.00525602 0.0109156 0.00265278
internal_weight=0 728.749 517.963 335.234 565.811 306.611 172.302 259.2 162.938 147.419 85.5921 26.5695 61.8271 40.6486 80.6648 59.0226 162.932 157.739 257.215 72.7738 108.246 56.9095 66.3044 250.414 51.4688 198.26 15.8642 184.553 57.5166 15.8561
internal_count=5078 2987 2091 1355 2330 1250 694 1080 657 594 345 107 249 164 331 238 661 640 1045 298 437 233 268 1017 208 803 65 747 233 64
is_linear=0
shrinkage=0.05


Tree=8
num_leaves=31
num_cat=0
split_feature=0 22 22 4 4 14 4 4 22 6 0 35 25 18 16 10 0 9 9 23 31 13 35 17 19 2 22 5 25 30
split_gain=92.9812 62.8601 42.3675 30.694 19.5644 17.9036 17.9998 17.1943 16.9043 15.9919 13.5217 13.0345 12.2196 10.7777 10.1438 10.8914 10.6436 10.1346 12.6594 9.61175 9.93354 12.9911 8.94466 8.83878 8.31184 8.13832 8.12131 8.6629 7.87084 7.85439
threshold=0.52750000000000019 0.42500000000000004 0.30400000000000005 0.72450000000000003 0.30400000000000005 0.64282333924830681 0.11250000000000002 0.31700000000000006 0.68300000000000016 0.69163333333333343 0.60050000000000014 0.24392156862745101 0.24066558441558444 0.35150000000000003 0.40703703703703709 0.22981066202812453 0.42350000000000004 0.50410979425587998 0.5287373833257295 0.6103305785123968 0.34621666666666678 0.28445804195804208 0.27803921568627454 0.31808803301237976 0.22460317460317467 0.7031855727527293 0.54750000000000021 0.36011904761904762 0.27817460317460319 0.50705128205128214
decision_type=8 10 8 8 8 2 8 10 10 2 10 8 2 10 2 8 10 2 2 2 2 2 10 10 8 2 10 2 2 2
left_child=1 5 25 7 -3 6 -1 10 29 26 -4 -5 13 -8 24 -16 28 23 -19 20 -20 -22 -10 -11 -14 -2 27 -9 -17 -6
right_child=2 4 3 11 8 -7 12 9 22 17 -12 -13 14 -15 15 16 -18 18 19 -21 21 -23 -24 -25 -26 -27 -28 -29 -30 -31
leaf_value=-0.047349362223755222 0.049638807099766535 -0.039976715178944446 -0.050134492578228732 -0.039423716793208823 -0.015928151009062832 -0.084073634689958654 -0.079426050645004714 0.060596472132639759 -0.018402350167012797 0.011526434479479007 0.018983726901749012 0.043188679656708785 0.0036545461100397887 -0.0018295708874195322 0.073080443437685952 0.031651487856993725 0.014285057981532959 -0.039148207155966661 -0.0045529854954007428 0.06118172148200636 -0.027584015489877697 0.069845737072475378 -0.050561372278632277 0.064030165423878252 0.039775814365302274 -0.014657478964513372 0.005262307980706437 0.0036320662250843637 -0.035445072923093755 0.0030496766883449542
leaf_weight=12.7723151743412 89.834888845682144 120.61255747079849 24.763900116086006 5.1109757274389258 177.78667776286602 5.1166296303272238 5.2260740399360648 25.840500712394714 40.379454642534256 43.181833431124687 9.906683221459387 72.567216768860817 20.897971674799919 31.132985860109329 6.1079057455062857 5.448419705033305 73.234843567013741 21.911737382411957 172.10581423342228 6.4040516018867484 5.1322428584098807 10.263627678155897 46.546569108963013 9.8430752754211408 66.942507937550545 5.2068152874708167 19.022910252213478 8.9982459247112256 22.098547101020813 78.63481242954731
leaf_count=52 385 488 100 21 718 21 21 106 163 176 40 303 85 127 25 22 302 89 700 26 21 42 188 40 274 22 77 37 89 318
internal_value=0 -0.0117772 0.0158735 0.00926659 -0.0226533 0.00848983 0.010432 0.00307484 -0.0165679 0.00666967 -0.0303848 0.037753 0.0136255 -0.0129829 0.0185937 0.00824867 0.00431953 0.0016876 -0.00312434 0.000946431 -0.00111088 0.0373673 -0.0356226 0.0212728 0.0311823 0.0461164 0.0315369 0.0458836 -0.0221743 -0.0101084
internal_weight=0 712.938 530.095 435.053 463.96 248.978 243.862 357.375 343.348 322.704 34.6706 77.6782 231.089 36.3591 194.73 106.89 100.782 268.842 215.817 193.906 187.502 15.3959 86.926 53.0249 87.8405 95.0417 53.8617 34.8387 27.547 256.421
internal_count=5078 2893 2185 1778 1875 1018 997 1454 1387 1314 140 324 945 148 797 438 413 1094 878 789 763 63 351 216 359 407 220 143 111 1036
is_linear=0
shrinkage=0.05


Tree=9
num_leaves=31
num_cat=0
split_feature=22 0 4 0 22 0 15 15 22 3 0 28 9 29 7 6 12 13 21 10 10 22 4 19 31 6 17 6 23 0
split_gain=84.6966 46.559 40.0807 23.4632 19.6766 15.9883 13.1485 12.8209 12.3132 11.596 11.1177 10.8066 10.6983 11.369 9.98014 11.0781 9.83939 9.41163 9.34342 10.8519 9.07285 8.6911 11.0912 8.68394 13.4919 8.28532 7.71723 11.2984 7.71223 7.528
threshold=0.53100000000000014 0.48650000000000004 0.40450000000000003 0.61150000000000004 0.35850000000000004 0.30150000000000005 0.12013888888888889 0.19847222222222224 0.29000000000000004 0.57995989079307309 0.41950000000000004 0.24275615952757459 0.32429962451396493 0.37983870967741939 0.31240981240981247 0.68556944444444456 0.14606328182487127 0.33376388888888892 0.45920020083938801 0.43748452391412768 0.3489313234985853 0.68300000000000016 0.69800000000000006 0.20661375661375667 0.30790000000000012 0.77729166666666683 0.31740027510316382 0.66863333333333352 0.52169421487603318 0.68950000000000011
decision_type=10 8 8 8 8 10 8 10 8 2 10 8 2 2 2 2 2 2 2 8 8 10 10 10 2 2 10 2 2 10
left_child=1 5 -2 10 29 17 -6 8 -7 18 12 -10 13 26 20 28 -12 -1 -8 -20 -13 -18 -23 24 -5 -11 27 -4 -16 -3
right_child=2 4 3 23 6 7 9 -9 11 25 16 14 -14 -15 15 -17 21 -19 19 -21 -22 22 -24 -25 -26 -27 -28 -29 -30 -31
leaf_value=-0.090152266276529669 -0.034379061122843807 0.031880696269026149 -0.052141052773288538 0.029947208514480197 0.022186440095110588 0.021836517085029664 0.039645612928056857 -0.048077731354705527 -0.033762397820727839 -0.02997200779641215 -0.073501213122532175 0.022051562531423471 -0.073189966299813489 0.048394196582932883 0.013638989025175767 -0.0070397911872442601 0.0024515988285785952 -0.021373973367526642 0.013753531505864034 -0.046187141439984349 -0.058126943255910085 -0.026151513789022581 0.022892305789789895 0.05314231176014686 -0.023592196851519455 0.035257694138317967 -0.065896351873149281 0.029650369427845571 0.066999801643063836 0.078284734705389852
leaf_weight=7.6204622685909298 181.52181188762188 169.2247007638216 8.4403368681669289 33.403370469808578 145.95942272245884 58.21802531182766 21.172099128365517 13.684283241629599 26.907821670174599 36.569063812494278 5.465403899550437 4.907276168465617 12.78065964579582 5.2218975126743308 58.666767731308937 91.501675948500633 131.68568094074726 14.322232186794279 29.768691018223763 10.117220893502234 12.55619342625141 70.383576616644859 13.785877689719198 16.109002366662025 18.166580960154533 5.615642473101615 10.448177739977835 8.4485413879156095 7.6548798978328696 9.2159052938222867
leaf_count=31 736 720 34 138 603 240 86 56 109 148 22 20 52 21 238 371 531 58 121 41 51 284 56 67 74 23 42 34 31 40
internal_value=0 0.0110508 -0.0154643 -0.005195 0.0216027 -0.00419197 0.0125271 -0.000904296 0.00157459 -0.00112874 -0.0118679 -0.00425943 -0.0344244 -0.0192074 0.00026949 0.00423815 -0.00724704 -0.0452599 0.0127996 -0.00145066 -0.0355966 -0.0055695 -0.0181188 0.0210969 0.0110868 -0.0212886 -0.0321206 -0.0112255 0.0197979 0.0342773
internal_weight=0 723.682 515.861 334.339 427.643 296.04 249.202 274.097 260.413 103.243 266.66 202.195 45.3396 32.559 175.287 157.823 221.321 21.9427 61.058 39.8859 17.4635 215.855 84.1695 67.679 51.57 42.1847 27.3371 16.8889 66.3216 178.441
internal_count=5078 2987 2091 1355 1782 1205 1022 1116 1060 419 1076 820 183 131 711 640 893 89 248 162 71 871 340 279 212 171 110 68 269 760
is_linear=0
shrinkage=0.05


Tree=10
num_leaves=31
num_cat=0
split_feature=0 22 22 4 4 14 4 22 4 6 0 35 0 25 8 15 16 10 0 18 35 31 14 0 14 25 4 6 14 23
split_gain=77.759 52.7522 36.547 27.0387 16.9142 16.2457 15.5797 14.4908 14.3988 14.832 12.1736 11.4478 11.4158 10.83 10.5423 10.3162 9.31747 9.87565 9.20577 8.24288 8.19486 8.15619 7.9902 13.4366 9.79381 9.87282 9.21538 9.20381 8.94609 8.53089
threshold=0.52750000000000019 0.42500000000000004 0.30400000000000005 0.71800000000000008 0.30400000000000005 0.64282333924830681 0.11250000000000002 0.68300000000000016 0.31700000000000006 0.69163333333333343 0.60050000000000014 0.24392156862745101 0.70850000000000002 0.24066558441558444 0.28650000000000003 0.17333333333333334 0.40703703703703709 0.22981066202812453 0.42350000000000004 0.37350000000000005 0.27803921568627454 0.35595833333333343 0.32451085345371494 0.46350000000000008 0.47058859070422537 0.31689342403628123 0.44100000000000006 0.70195454545454561 0.42747356063579028 0.3444444444444445
decision_type=8 10 8 8 8 2 8 10 10 2 10 8 10 2 10 8 2 8 10 10 10 2 2 10 2 2 8 2 2 2
left_child=1 5 -2 8 -3 6 -1 22 10 -10 -4 -5 14 15 -11 19 -15 -18 -19 -8 -9 -13 -6 26 28 27 -24 -26 -25 -28
right_child=2 4 3 11 7 -7 13 20 9 12 -12 21 -14 16 -16 -17 17 18 -20 -21 -22 -23 23 24 25 -27 29 -29 -30 -31
leaf_value=-0.044201827127125962 0.04304257771231982 -0.036929137563727371 -0.047052396108597856 -0.037867116055213146 0.0024966004051401006 -0.080139733709480229 -0.059237857699407474 -0.016308025776038723 0.02982316076039367 -0.0036405666870622079 0.018656524405859683 0.043873918963349051 0.055960391243761343 0.029481652612100031 0.038641483798256854 -0.079714809195430947 0.069614568860877107 -0.020932650913886158 0.013014359710976323 0.0096179460869733405 -0.04719204395492288 -0.019774806704596696 -0.065551331843891031 -0.0074965725606171586 -0.0009352053602382555 0.0070825855155284851 -0.05758506379195584 -0.050944647837647544 0.041624202702256988 -0.007808478675820088
leaf_weight=12.703599780797957 92.932520776987076 119.76446506381035 24.589036077260971 5.1237249821424475 93.733775615692139 5.1384916454553595 5.2135383486747768 40.187050983309746 53.462860211730003 238.69562882184982 9.8813030868768674 70.72205413877964 9.1016487032175046 87.288753122091293 15.71264800429344 4.9191991090774527 6.0251449197530738 27.513613194227219 72.847541198134422 26.13498093187809 46.139294043183327 5.4189037531614295 17.276985764503479 19.739833652973175 14.631467014551161 26.50479944050312 12.095222190022467 24.785693764686584 17.474852204322815 29.852028965950012
leaf_count=52 407 488 100 21 379 21 21 163 220 973 40 299 38 359 64 20 25 111 302 107 188 23 70 80 59 107 49 100 71 121
internal_value=0 -0.0107764 0.0145937 0.00848376 -0.0207556 0.00783768 0.00970077 -0.0150988 0.00247355 0.00581102 -0.0282162 0.0344759 0.000939261 0.0126787 -0.00102916 -0.0123969 0.0173744 0.00744052 0.00370792 -0.00183339 -0.0328148 0.0393441 -0.00912702 -0.0158375 -0.00493776 -0.0165144 -0.0348191 -0.0323814 0.015569 -0.0221612
internal_weight=0 709.97 525.64 432.708 462.185 247.785 242.646 342.421 351.443 316.973 34.4703 81.2647 263.51 229.943 254.408 36.2677 193.675 106.386 100.361 31.3485 86.3263 76.141 256.095 162.361 103.137 65.922 59.2242 39.4172 37.2147 41.9473
internal_count=5078 2893 2185 1778 1875 1018 997 1387 1435 1295 140 343 1075 945 1037 148 797 438 413 128 351 322 1036 657 417 266 240 159 151 170
is_linear=0
shrinkage=0.05


Tree=11
num_leaves=31
num_cat=0
split_feature=22 0 4 4 0 22 34 4 0 15 5 0 22 4 24 8 27 18 6 19 31 0 23 22 34 12 9 6 2 26
split_gain=71.2406 40.3551 33.637 21.2638 19.6937 19.4423 10.8478 10.8184 10.6629 11.1293 9.78717 9.67996 9.30794 11.641 8.9802 8.88167 8.63945 7.983 7.96825 7.90264 12.2925 7.77495 8.13159 10.6367 9.16184 7.76613 8.93828 8.66038 7.73997 7.54988
threshold=0.53100000000000014 0.40350000000000008 0.40450000000000003 0.45250000000000007 0.61150000000000004 0.32550000000000007 0.2303240740740741 0.091500000000000012 0.58950000000000002 0.23069444444444448 0.36396103896103899 0.65250000000000019 0.68300000000000016 0.69800000000000006 0.61508888888888902 0.22250000000000003 0.62445658817497007 0.62550000000000006 0.71209545454545464 0.20661375661375667 0.30790000000000012 0.28700000000000003 0.42575757575757583 0.47250000000000003 0.28745791245791247 0.36341059602649017 0.49312399024583492 0.70065151515151525 0.69495497829627673 0.25250000000000006
decision_type=10 8 8 8 8 8 2 8 10 8 2 10 10 10 2 10 2 8 2 10 2 10 2 8 2 2 2 2 2 10
left_child=1 7 -2 8 6 28 -4 -1 9 16 14 -7 17 25 -9 -15 -3 -8 21 20 -6 29 23 24 -23 26 -14 -28 -5 -16
right_child=2 3 4 5 19 11 12 10 -10 -11 -12 -13 13 15 18 -17 -18 -19 -20 -21 -22 22 -24 -25 -26 -27 27 -29 -30 -31
leaf_value=-0.068855344866161294 -0.031627313711934342 0.0030842479118618521 -0.071772316925601903 0.040746884546990061 0.027993586675168769 0.011740416847515124 0.0005450605734199491 -0.063563168467641123 0.033437130914176626 -0.07714665867690168 -0.058986967849037931 0.046416818835829647 -0.050135671916417518 -0.026088126323904722 -0.073084834097983123 0.054115949596164781 -0.036795581711377166 -0.059715066830958508 -0.047558979425031095 0.050253262339272756 -0.023189570787254102 -0.037537779133136828 0.03157107415996957 -0.042839051812351071 0.024805493477198542 0.0091355903843198579 0.026326516556069358 -0.030313672227994883 -0.012826928798561616 0.004655663453361168
leaf_weight=9.1216993480920774 180.03342670202255 146.02147230505943 7.1253558099269858 122.78041073679924 33.109200373291969 259.96369391679764 151.85318449139595 6.6326111257076255 23.010733306407928 4.8960799723863593 10.125036507844923 21.814232155680656 39.860559359192848 5.8962308168411246 6.3400872200727445 8.3259342610836011 14.973195329308508 5.7023760974407187 9.1686661094427091 15.851074129343031 18.167576625943184 7.6303052008151999 24.09225070476532 12.88655376434326 25.88415165245533 12.155758187174795 9.1414357274770719 25.785097911953926 7.133470579981803 6.1550366878509521
leaf_count=38 736 598 29 537 138 1071 613 27 96 20 41 93 163 24 26 34 61 23 37 67 74 31 98 52 105 49 37 104 31 25
internal_value=0 0.0101773 -0.0142155 0.01543 -0.00480115 0.0218028 -0.0109115 -0.0165496 0.0015411 -0.00288321 -0.012169 0.0144249 -0.00923533 -0.0210707 -0.00737057 0.0208649 -0.000624747 -0.00163592 -0.00332634 0.0193975 0.00985918 0.00156054 0.00800381 -0.00423274 0.0106117 -0.0279306 -0.0339553 -0.0154891 0.0378052 -0.0347902
internal_weight=0 718.63 513.007 600.593 332.974 411.692 265.846 118.036 188.901 165.891 108.915 281.778 258.721 101.165 98.7897 14.2222 160.995 157.556 92.1571 67.1279 51.2768 82.9884 70.4933 46.401 33.5145 86.9429 74.7871 34.9265 129.914 12.4951
internal_count=5078 2987 2091 2507 1355 1732 1076 480 775 679 442 1164 1047 411 401 58 659 636 374 279 212 337 286 188 136 353 304 141 568 51
is_linear=0
shrinkage=0.05


Tree=12
num_leaves=31
num_cat=0
split_feature=0 22 22 4 4 4 0 13 31 0 14 4 35 13 12 22 29 33 29 29 28 7 28 3 27 23 25 19 4 6
split_gain=65.6791 45.36 30.4923 18.9996 14.1052 13.8784 11.6263 11.4677 11.7943 10.8955 11.5965 10.2859 9.73578 9.31418 8.62184 12.5032 9.40467 8.42236 8.35076 11.0425 8.0162 8.1423 8.125 7.90573 8.00915 8.06936 7.62977 7.58781 7.53624 9.21244
threshold=0.53250000000000008 0.47250000000000003 0.38700000000000007 0.71800000000000008 0.34300000000000003 0.11250000000000002 0.70850000000000002 0.31130384615384621 0.25225000000000003 0.28700000000000003 0.54726775157669183 0.45250000000000007 0.24392156862745101 0.30713888888888891 0.24448123620309056 0.69400000000000006 0.44318181818181807 0.27645502645502656 0.34868035190615837 0.33440860215053764 0.44453045459342239 0.53585858585858592 0.43250554976437033 0.39802645260897407 0.53835050323216171 0.3529040404040405 0.30438311688311687 0.17857142857142863 0.36950000000000005 0.69209545454545474
decision_type=8 10 8 8 8 8 8 2 2 10 2 10 8 2 2 10 2 8 2 2 10 2 8 2 2 2 2 10 10 2
left_child=1 5 -2 6 -3 -1 7 8 -4 -7 11 18 -5 28 23 16 20 26 19 -11 21 22 -16 -6 25 -25 -13 -8 -10 -30
right_child=2 4 3 12 14 9 27 -9 13 10 -12 17 -14 -15 15 -17 -18 -19 -20 -21 -22 -23 -24 24 -26 -27 -28 -29 29 -31
leaf_value=-0.039749046696444676 0.034042842791102763 -0.033622215260469365 -0.062564605480161198 -0.036257434921536567 0.025333662414890424 -0.042781277362110501 0.0046678382835532153 0.014154226028484025 -0.028936539032918603 0.0013856861946232892 -0.014525660952117389 -0.0090290810871475075 0.035317878876538998 -0.050082853339836711 0.0040417034827042895 -0.029052665769678934 -0.059142421213404107 0.037308374015457932 0.027589877730478957 -0.059362804650657991 0.013535303945360601 -0.047270186317961121 -0.057809338793334109 -0.05308547899622397 -0.058625222301340124 -0.0034845388344095351 0.025889725271816377 0.067955351633606567 0.029751405458920695 -0.0041150466494652973
leaf_weight=16.930898651480675 137.99707570672035 138.68032577633858 9.5977307260036451 5.134070396423339 5.9051330089569083 10.724972426891325 8.8593562543392199 78.496532991528511 23.725640878081322 97.468633025884628 46.223425850272179 27.51491092145443 63.673079714179039 11.092077970504759 50.60147088766098 55.429821521043777 6.6709895282983771 56.714909359812737 27.651772812008858 8.1024766713380796 70.105863556265831 12.344849005341528 5.9321605265140525 12.571847319602965 22.705976709723473 23.577908515930176 36.257425338029861 10.17610129714012 24.021095618605614 122.40835082530975
leaf_count=70 606 570 39 21 24 44 37 320 97 398 191 113 272 45 205 227 27 238 113 33 284 50 24 51 92 96 150 43 99 499
internal_value=0 -0.00949557 0.0140813 0.00636923 -0.0206953 0.00433453 0.000736323 -0.00193263 -0.00854932 0.00673708 0.00850775 0.0127042 0.0299773 -0.005689 -0.0139519 -0.00884192 -0.00115063 0.0232904 0.00312997 -0.0032767 0.00163287 -0.0104817 -0.00244842 -0.0298187 -0.0353523 -0.0207343 0.0108238 0.0385005 -0.00279505 0.00144059
internal_weight=0 732.116 495.181 357.184 404.526 327.589 288.377 269.341 190.845 310.659 299.934 253.71 68.8072 181.247 265.846 201.085 145.655 120.487 133.223 105.571 138.984 68.8785 56.5336 64.7609 58.8557 36.1498 63.7723 19.0355 170.155 146.429
internal_count=5078 3000 2078 1472 1650 1350 1179 1099 779 1280 1236 1045 293 740 1080 817 590 501 544 431 563 279 229 263 239 147 263 80 695 598
is_linear=0
shrinkage=0.05


Tree=13
num_leaves=31
num_cat=0
split_feature=22 0 0 4 4 22 22 27 9 1 19 33 14 0 6 5 4 31 25 0 7 33 17 15 0 9 24 16 23 4
split_gain=59.7953 36.0576 28.4834 20.6269 16.9007 16.7744 10.4424 9.92875 9.58573 10.1015 9.55837 9.85665 9.37082 9.01722 10.1709 9.76498 9.45143 11.6883 8.90436 8.90109 9.02059 12.286 9.21019 10.279 11.7308 16.0469 13.0151 10.0044 8.88055 8.7211
threshold=0.5415000000000002 0.40350000000000008 0.60550000000000004 0.45250000000000007 0.34300000000000003 0.32550000000000007 0.81300000000000006 0.62445658817497007 0.30026498216617675 0.17541666666666669 0.33359788359788367 0.31825396825396829 0.47777456057753703 0.65250000000000019 0.69720000000000015 0.36011904761904762 0.72450000000000003 0.32186607142857154 0.30833333333333335 0.37450000000000006 0.45075757575757586 0.14417989417989421 0.36588720770288868 0.10847222222222223 0.43550000000000005 0.35749364258785526 0.73878888888888905 0.45211640211640225 0.50833333333333341 0.6585000000000002
decision_type=10 8 8 8 8 8 10 2 2 10 8 10 2 10 2 2 10 2 2 10 2 10 10 8 10 2 2 2 2 10
left_child=1 8 4 7 -2 -5 -4 10 9 -1 11 -3 -13 14 15 -7 17 29 -19 -6 22 -22 23 28 -25 -26 -27 -28 -21 -16
right_child=2 3 6 5 19 13 -8 -9 -10 -11 -12 12 -14 -15 16 -17 -18 18 -20 20 21 -23 -24 24 25 26 27 -29 -30 -31
leaf_value=-0.0010153357363886929 -0.03480707370053545 0.0037569063425568327 0.01876849048930565 0.035223319807084923 -0.038249406498373342 0.03476256607069355 -0.052017509107635279 -0.035368428125074736 -0.039993695795814278 -0.048391194585688829 0.033338843244735322 -0.06722528842125719 0.010625745239241592 0.044418817309945811 -0.0031655323560871858 -0.0094815129701360853 0.029457025559436967 -0.040198589191636991 0.023318127531588895 -0.018162929636447826 -0.053938856170872788 0.012125700502366546 -0.072327664601152045 -0.041766549253141293 0.093741189131638994 0.02128578293887198 0.0024537876469754496 -0.051978631790744668 -0.060494595072916525 -0.039816497442927062
leaf_weight=79.098828807473183 120.15216498076916 138.79005007445812 73.35984893143177 127.32694555819035 29.812158048152924 63.856023743748665 5.6084020882844916 17.611295312643051 30.743049755692482 13.117374047636984 24.002343446016312 10.057169213891031 6.278360739350318 21.852395594120026 79.342776164412498 15.497673481702803 32.5413788408041 6.12547743320465 55.620810300111771 64.791077360510826 7.8628937005996695 67.034923285245895 6.8555870056152335 15.165794447064398 4.9192874133586875 36.046779632568359 18.960250243544579 15.215841755270956 15.318601742386816 20.404976010322571
leaf_count=322 498 569 306 568 122 264 23 72 126 55 101 41 26 95 324 64 140 25 229 263 32 272 28 62 20 146 77 62 62 84
internal_value=0 0.00891707 -0.0137129 0.0138275 -0.0191041 0.0200538 0.0137412 0.000454225 -0.015815 -0.00775436 0.0039762 -0.000567041 -0.0373042 0.0135117 0.0110412 0.0261218 0.00487382 -7.97503e-05 0.017017 -0.0124131 -0.00935865 0.00519014 -0.0155055 -0.0132197 -0.00165404 0.00644178 0.000326243 -0.0217806 -0.0262576 -0.0106631
internal_weight=0 742.267 481.104 619.308 402.135 422.568 78.9683 196.739 122.959 92.2162 179.128 155.126 16.3355 295.242 273.389 79.3537 194.035 161.494 61.7463 281.983 252.171 74.8978 177.273 170.418 90.308 75.1422 70.2229 34.1761 80.1097 99.7478
internal_count=5078 3105 1973 2602 1644 1793 329 809 503 377 737 636 67 1225 1130 328 802 662 254 1146 1024 304 720 692 367 305 285 139 325 408
is_linear=0
shrinkage=0.05


Tree=14
num_leaves=31
num_cat=0
split_feature=0 22 22 4 4 1 22 14 0 4 35 16 7 6 17 3 14 0 14 14 9 7 29 6 34 29 12 12 1 16
split_gain=55.6106 36.3255 26.6437 15.8517 15.3103 12.169 12.0937 10.2855 10.103 9.01168 8.65734 8.59971 9.57071 8.24103 8.17429 8.01184 7.9396 11.1774 9.40419 9.01982 8.62177 8.38717 11.3622 8.23751 8.09666 9.9576 9.91588 9.68516 9.46735 8.3528
threshold=0.5355000000000002 0.42500000000000004 0.38700000000000007 0.71800000000000008 0.30400000000000005 0.21347222222222223 0.68300000000000016 0.64282333924830681 0.70850000000000002 0.11250000000000002 0.24392156862745101 0.53636363636363649 0.54924242424242431 0.75575000000000025 0.22111416781292992 0.73496334258459561 0.32451085345371494 0.47450000000000003 0.47058859070422537 0.45057313907475077 0.35399545461852805 0.55618686868686884 0.40412186379928322 0.64840404040404054 0.26289682539682546 0.38118279569892471 0.22469252601702941 0.19747976453274477 0.12319444444444445 0.45064102564102576
decision_type=8 10 8 8 8 10 10 2 8 8 8 2 2 2 10 2 2 10 2 2 2 2 2 2 2 2 2 2 10 2
left_child=1 5 15 8 -3 7 14 9 11 -1 -5 12 -4 -13 -6 -2 21 -18 19 20 -19 22 23 -16 -20 26 27 -26 -28 -30
right_child=2 4 3 10 6 -7 -8 -9 -10 -11 -12 13 -14 -15 16 -17 17 18 24 -21 -22 -23 -24 -25 25 -27 28 -29 29 -31
leaf_value=-0.035901217545304766 0.035572433799917362 -0.032078842600073786 0.00042652948358418478 -0.034292721158088478 0.027480578881668157 -0.061798292936323822 -0.027280425178193041 -0.046010834775222838 0.036291082878979003 0.012142506833393088 0.033226351905577316 -0.010260224395533445 0.069500093287577822 -0.064644935633985934 -0.027797021397642063 -0.023415269660501468 -0.030342905357200679 0.061348872077641683 -0.070344326835748386 0.068549564940959914 -0.012110245328890351 -0.031285157661483973 0.06997574431381666 0.01298803612430474 -0.0022420251519698394 -0.054907708258579671 0.031266121944300562 -0.085667260267524553 0.016410967893132879 -0.070545618662110995
leaf_weight=10.182236284017561 122.99486717581749 119.69097419083118 216.1403034478426 5.1436844617128363 16.85449093580246 6.3476194739341727 91.02592334151268 8.4314705878496152 18.784122794866562 235.6556403785944 61.648963898420334 27.374007195234299 5.1339978277683249 9.3433045297861081 16.002076491713524 6.0390120297670355 69.215744510293007 5.1188787519931855 5.9263916313648215 7.0570217221975318 18.182144090533257 14.759840711951254 7.1314491480588904 54.701415836811066 8.9141042828559858 9.9153069704771024 24.743452325463295 5.7058445215225211 5.8947584480047208 5.1958511769771576
leaf_count=42 551 497 884 21 69 27 376 35 80 981 267 112 21 38 65 27 282 21 24 29 74 60 29 222 36 40 100 23 24 21
internal_value=0 -0.00847768 0.0134397 0.00616418 -0.0165534 0.00658317 -0.011481 0.00829025 0.000888224 0.0101526 0.0280267 -0.00168942 0.00202917 -0.0240993 -0.00625745 0.0328117 -0.00845751 -0.0150051 -0.00402132 0.0190264 0.0040276 0.00327144 0.00982441 0.0037573 -0.0145753 -0.00910049 -9.83819e-05 -0.0348011 0.01406 -0.0243274
internal_weight=0 746.653 472.602 343.568 486.036 260.617 366.345 254.269 276.776 245.838 66.7926 257.992 221.274 36.7173 275.319 129.034 258.464 165.869 96.6538 30.358 23.301 92.5948 77.8349 70.7035 66.2957 60.3693 50.454 14.6199 35.8341 11.0906
internal_count=5078 3077 2001 1423 1992 1085 1495 1058 1135 1023 288 1055 905 150 1119 578 1050 674 392 124 95 376 316 287 268 244 204 59 145 45
is_linear=0
shrinkage=0.05


Tree=15
num_leaves=31
num_cat=0
split_feature=0 22 22 4 14 4 6 1 0 0 25 35 8 31 4 14 17 17 0 22 2 2 13 18 10 6 29 28 0 34
split_gain=50.6869 34.1331 26.5827 19.906 13.7032 11.2677 12.0796 11.2183 11.1899 10.2396 9.40587 8.75478 8.55211 8.5102 8.79435 13.5901 9.22725 8.13505 7.97351 7.93065 8.52332 10.5137 9.92819 9.36065 9.65176 11.0365 7.8427 7.76801 7.68917 8.1701
threshold=0.52750000000000019 0.42500000000000004 0.30400000000000005 0.72450000000000003 0.64282333924830681 0.31700000000000006 0.69209545454545474 0.13347222222222224 0.32150000000000006 0.60550000000000004 0.20746753246753249 0.24392156862745101 0.28650000000000003 0.34705000000000003 0.30400000000000005 0.32451085345371494 0.35935350756533707 0.24381017881705647 0.40750000000000003 0.86350000000000005 0.53026180753499086 0.53890944146418429 0.31175000000000008 0.40750000000000003 0.31196294246925821 0.72104545454545466 0.23812316715542525 0.20238493392818283 0.63150000000000006 0.42650462962962965
decision_type=8 10 8 8 2 10 2 10 10 10 2 8 10 2 8 2 10 10 10 8 2 2 2 8 10 2 2 8 8 2
left_child=1 4 -2 5 7 9 -7 -1 17 -4 -9 -5 19 14 -10 -16 18 -3 -17 20 22 -22 26 -23 25 -25 -8 -12 29 -28
right_child=2 8 3 11 -6 6 12 10 13 -11 27 -13 -14 -15 15 16 -18 -19 -20 -21 21 23 -24 24 -26 -27 28 -29 -30 -31
leaf_value=0.015649871927241887 0.036970648815845324 0.017563221945544494 -0.042390733621498117 -0.032476553449557653 -0.074472648017704757 0.026352649206747004 -0.053286215093637727 -0.064671713361697677 -0.029873451832371157 0.019069729895064891 -0.047108119017083006 0.035050907353074395 0.03633237564809165 0.013587720112391245 0.0029317623981948374 -0.051938257346597162 -0.065812420585766501 -0.052012831932202422 -0.01416667971499258 -0.045914940594383585 -0.049182590246436439 0.065172287102511162 0.044309414587464471 0.017489429100896556 -0.00028020036797095485 -0.072640362809755624 0.030471296650880338 0.0038182760391396887 0.05961392812357455 -0.026969812726850662
leaf_weight=160.66640520095825 87.89582347869873 4.8240730166435233 24.688611954450607 5.1593392044305793 5.135376200079917 53.782906711101532 5.6166193932294837 6.5691744387149802 91.398627653717995 9.3410053700208646 8.4869694262742978 68.878848299384117 15.555089443922041 25.380553066730499 99.746677488088608 15.170707270503042 10.262648761272429 32.541901871562004 176.83076626062393 9.8222554028034192 12.74985398352146 5.0179715007543555 20.772065609693527 5.1334257274866095 148.72902844846249 10.038427144289015 11.069405779242521 63.613920345902443 6.4331636428832999 14.044902741909025
leaf_count=672 407 20 102 21 21 225 23 27 381 38 35 303 64 104 407 63 42 136 722 40 52 21 85 21 613 41 45 263 27 57
internal_value=0 -0.00873389 0.0119312 0.00677492 0.00634107 0.0018284 0.00474797 0.00807507 -0.0168132 -0.0255201 -0.0073948 0.0303453 0.000362912 -0.014474 -0.0162843 -0.0121718 -0.0196202 -0.0430303 -0.0171511 -0.00188026 -7.51229e-05 -0.00540064 0.0166239 -0.00209601 -0.00415549 -0.0421448 0.00114973 -0.00217625 0.0108413 -0.00165202
internal_weight=0 700.628 514.729 426.833 244.472 352.795 318.765 239.336 456.156 34.0296 78.6701 74.0382 264.982 418.79 393.409 302.011 202.264 37.366 192.001 249.427 239.605 181.669 57.9362 168.919 163.901 15.1719 37.1641 72.1009 31.5475 25.1143
internal_count=5078 2893 2185 1778 1018 1454 1314 997 1875 140 325 324 1089 1719 1615 1234 827 156 785 1025 985 748 237 696 675 62 152 298 129 102
is_linear=0
shrinkage=0.05


Tree=16
num_leaves=31
num_cat=0
split_feature=22 0 0 4 4 22 12 27 22 27 0 19 33 14 6 15 7 33 14 28 9 12 4 18 0 8 31 0 6 12
split_gain=47.2895 29.6285 22.1006 16.8866 13.6802 13.2425 9.00903 9.06533 8.7903 9.74612 10.6341 8.71509 10.3466 8.54565 8.23981 8.8758 9.04028 9.10539 8.4493 8.42847 8.51771 7.90004 8.60227 8.97596 8.3353 9.06278 10.7996 8.13807 7.87689 7.87205
threshold=0.5415000000000002 0.40050000000000008 0.61150000000000004 0.45250000000000007 0.34300000000000003 0.32550000000000007 0.12642986152919936 0.62445658817497007 0.81300000000000006 0.54546508567505347 0.69650000000000001 0.33359788359788367 0.31825396825396829 0.47777456057753703 0.71209545454545464 0.18819444444444447 0.43535353535353544 0.18571428571428575 0.18666518785354971 0.30287997478590051 0.29234511628016829 0.14606328182487127 0.69800000000000006 0.58850000000000013 0.37450000000000006 0.21350000000000002 0.34765151515151521 0.46650000000000008 0.68653571428571436 0.18407199864153517
decision_type=10 8 8 8 8 8 2 2 10 2 10 8 10 2 2 10 2 10 2 10 2 2 8 10 10 10 2 10 2 2
left_child=1 14 4 6 -2 -5 -3 11 9 10 -4 12 -8 -14 15 16 18 -18 -1 -19 -21 -6 24 27 -23 -26 -27 -24 -7 -20
right_child=2 3 8 5 21 28 7 -9 -10 -11 -12 -13 13 -15 -16 -17 17 19 29 20 -22 22 23 -25 25 26 -28 -29 -30 -31
leaf_value=0.018679233089633731 -0.031006429321490787 -0.065393436016561321 -0.014450066286814623 0.031793079669768035 -0.067155854176153273 0.029186768423876266 0.0057529648096629245 -0.03240595803557391 -0.050925009465511817 0.037690796042063726 0.060778621552557879 0.03459734356825931 -0.063959475623705131 0.010150527640282288 -0.051156237994714061 -0.049592633772975049 -0.055333911936491134 -0.016996844521228068 0.015315058514641761 0.039467100178105265 -0.024521322990866068 -0.039829947139473278 -0.01675082607317328 -0.035404835937016842 -0.036624595453615225 -0.0082936431076712832 0.057669606556306652 0.038144733107514872 0.0083268999260542789 -0.050874367070936281
leaf_weight=8.812733441591261 118.51292645931244 5.0721070021390906 26.340568587183952 123.94839438796043 6.0932308435440055 55.907901763916016 137.53383050858974 17.324005573987961 4.889252930879592 32.946192175149918 5.7171841859817496 22.454991787672043 10.335139691829683 6.2374122291803351 13.870635226368902 12.54123182594776 5.139061212539672 14.870882794260977 5.6303687691688564 28.793228954076767 6.3471045643091193 26.274102136492729 9.3668546527624112 8.2478366643190366 27.795743867754936 180.00840148329735 6.426527500152587 24.177746117115021 237.51834359765053 22.220171436667442
leaf_count=36 500 21 110 569 25 234 566 71 20 140 25 96 42 26 57 54 21 61 23 118 26 109 38 34 113 734 26 99 993 91
internal_value=0 0.0079777 -0.0122436 0.0123758 -0.016705 0.0180899 0.000388574 0.00210945 0.0137301 0.0185931 -0.00103377 0.00549607 0.00125569 -0.0360667 -0.0149502 -0.0101377 -0.00474842 0.0080439 -0.0239911 0.0145565 0.0279094 -0.0108279 -0.00961213 0.0113259 -0.0132505 -0.00999072 -0.00601985 0.0228159 0.0123014 -0.0374933
internal_weight=0 734.558 476.797 616.332 406.903 417.375 198.957 193.885 69.8932 65.0039 32.0578 176.561 154.106 16.5726 118.225 104.355 91.8136 55.1503 36.6633 50.0112 35.1403 288.39 282.297 41.7924 240.505 214.231 186.435 33.5446 293.426 27.8505
internal_count=5078 3105 1973 2618 1678 1796 822 801 295 275 135 730 634 68 487 430 376 226 150 205 144 1178 1153 171 982 873 760 137 1227 114
is_linear=0
shrinkage=0.05


Tree=17
num_leaves=31
num_cat=0
split_feature=0 22 22 4 4 15 9 0 7 0 24 14 25 34 4 0 6 29 34 12 10 28 28 19 0 8 0 6 28 15
split_gain=43.3736 31.5582 18.3168 13.6997 13.5407 11.6589 9.57414 9.51252 9.1297 8.6115 9.90942 10.4638 9.7744 8.65844 8.55825 8.67627 9.55768 8.51078 8.19472 9.49828 8.17263 7.80074 8.08584 8.083 7.85435 7.76441 7.72539 8.34096 9.66051 9.21165
threshold=0.5505000000000001 0.47250000000000003 0.5355000000000002 0.13400000000000004 0.71100000000000008 0.16763888888888889 0.58460312628651379 0.32450000000000007 0.48811983471074388 0.28700000000000003 0.76055050505050514 0.58621310549912187 0.24546485260770975 0.31742424242424244 0.74450000000000005 0.70850000000000002 0.6903166666666668 0.31987367471238448 0.25297619047619047 0.3221118469462842 0.22641710561826725 0.57978116420717496 0.44752876721790641 0.17857142857142863 0.58050000000000013 0.23450000000000001 0.70550000000000013 0.79363333333333352 0.47463901762350819 0.14875000000000002
decision_type=8 10 8 10 8 10 2 10 2 10 2 2 2 2 10 10 2 2 2 2 8 8 10 10 10 10 10 2 8 10
left_child=1 3 8 -1 6 26 7 -3 14 -5 11 12 25 -13 15 16 -2 -15 19 -9 -14 22 23 -18 -24 -11 27 29 -29 -4
right_child=2 4 5 9 -6 -7 -8 18 -10 10 -12 13 20 17 -16 -17 21 -19 -20 -21 -22 -23 24 -25 -26 -27 -28 28 -30 -31
leaf_value=-0.03192662143053273 0.040515367567449716 -0.041397248720623205 0.0016638086723524831 -0.038219262826358638 0.01454848449006528 -0.051294124238174581 -0.053607187603308716 -0.07166074206716358 0.058388937106764363 0.019294075791307326 0.038494496420404742 0.020789345487603333 0.055062631989604705 -0.055900972961633648 0.0439870304290466 0.059684573896819283 -0.040729744696006889 0.0068491360935520329 -0.012024859409044047 -0.0073002973464450574 0.010872487095605444 -0.026201602811056282 0.00042156717062555933 0.0098009498475040788 0.056465157645255649 -0.028113627539973825 0.049204872551303097 -0.082885493529488596 0.0017626333052060594 0.054081560341754875
leaf_weight=24.446642577648163 26.83831587433815 34.842654228210449 121.80526931583881 10.296774625778196 34.40716427564621 10.092720597982405 18.152858376502991 12.77266748249531 16.551806569099426 12.444011077284811 24.980435684323311 9.2968626022338849 10.980791032314299 16.857038944959644 31.403702273964882 10.592830315232275 8.6216758489608747 7.9528847634792319 333.18208661675453 10.400338053703306 221.83385889232159 14.92014120519161 9.7722433507442492 96.432869017124176 17.35332615673542 28.229180499911308 8.9718254208564741 6.0589320063590977 7.5965497642755517 9.0008252710103971
leaf_count=103 120 148 504 43 141 42 74 53 73 52 104 40 46 71 147 49 36 33 1376 43 931 63 41 421 74 116 40 25 32 37
internal_value=0 -0.00660437 0.0135824 0.00423606 -0.0155775 0.000760686 -0.0181097 -0.0164625 0.0226009 0.00681445 0.00820873 0.00574916 0.00900584 -0.0203648 0.0198577 0.0157513 0.0130758 -0.0357863 -0.0140245 -0.042775 0.0129567 0.00806947 0.0119379 0.00565397 0.0362749 -0.0136092 0.00418481 0.00138882 -0.0357957 0.0052707
internal_weight=0 811.076 396.013 367.318 443.758 163.526 409.351 391.198 232.487 342.872 332.575 307.595 273.488 34.1068 215.935 184.531 173.939 24.8099 356.355 23.173 232.815 147.1 132.18 105.055 27.1256 40.6732 153.433 144.462 13.6555 130.806
internal_count=5078 3374 1704 1539 1835 680 1694 1620 1024 1436 1393 1289 1145 144 951 804 755 104 1472 96 977 635 572 457 115 168 638 598 57 541
is_linear=0
shrinkage=0.05


Tree=18
num_leaves=31
num_cat=0
split_feature=0 22 4 22 9 4 4 7 15 10 0 7 5 22 18 2 28 18 24 4 29 26 13 18 24 32 6 26 26 28
split_gain=40.3578 26.2913 18.8772 17.7752 12.7801 9.81222 9.48138 9.31925 9.04437 8.00451 8.04029 7.83911 8.04218 7.66644 9.8253 7.88681 8.62701 7.9019 7.39414 8.51828 7.15394 9.2876 7.13794 7.03202 7.00972 10.2152 6.95583 6.90812 8.18177 11.3361
threshold=0.48650000000000004 0.35850000000000004 0.70700000000000007 0.42500000000000004 0.51131255829457489 0.34300000000000003 0.11250000000000002 0.29935064935064942 0.18069444444444446 0.22081906296062928 0.38850000000000007 0.29008264462809924 0.25552721088435376 0.5415000000000002 0.6885 0.51875447496518545 0.72195882759387675 0.49450000000000005 0.63729090909090924 0.51100000000000012 0.37373271889400927 0.26250000000000007 0.33171363636363643 0.46350000000000008 0.69852272727272735 0.51561509375888115 0.68173888888888901 0.26450000000000007 0.27950000000000008 0.33567063804627967
decision_type=8 8 8 8 2 10 10 2 10 8 10 2 2 8 10 2 8 10 2 10 2 10 2 8 2 2 2 10 10 10
left_child=3 -2 5 4 6 11 -1 -5 9 10 -9 -3 -13 14 15 -7 17 23 -8 20 27 -22 -14 -17 -21 -26 -15 -20 29 -29
right_child=1 2 -4 7 -6 13 18 8 -10 -11 -12 12 22 26 -16 16 -18 -19 19 24 21 -23 -24 -25 25 -27 -28 28 -30 -31
leaf_value=-0.039975545206140106 0.025276850479983917 -0.057287545303425148 0.022054722689410583 -0.053491849335438824 -0.052413798541074912 0.0313076566462809 -0.026357064017369876 -0.013793357899301639 -0.034450643602291275 -0.013228149441360493 0.076079123317706498 0.033227544204546183 -0.010376504569888222 0.022147679949091659 0.070040281285939351 0.014489216828004473 -0.054851178637809445 -0.00015628672579818322 0.013728115661470345 0.057405359858158728 -0.01051793315494215 0.073479360795064244 -0.058277817677651861 0.086122327023058054 -0.030176389410402904 0.05120164200904026 -0.0092279555180269403 -0.076320681485836706 0.0036563813603409066 0.0098916168788303754
leaf_weight=10.327191948890684 166.13976329565048 11.339218243956564 99.233599454164505 16.622380018234253 9.8370178788900358 26.841021150350571 13.036798536777495 4.8412600308656675 51.245522141456604 271.5757691860199 5.1210650056600571 8.4591091275215131 41.133685618638992 19.805028572678566 6.3340527862310401 10.524204581975933 6.4382955580949774 112.68067209422588 47.082861497998238 17.095242992043495 5.5173384696245185 8.1551038324832898 9.5903445780277234 5.0796708613634118 7.6365010440349561 7.7902261018753052 163.44771014153957 9.6635909676551801 24.618522435426712 6.2979845553636542
leaf_count=44 760 47 432 69 41 111 54 20 218 1123 21 35 171 82 28 44 26 465 194 73 23 34 40 21 32 33 668 40 103 26
internal_value=0 0.00795773 0.00243391 -0.0105412 0.00287376 -0.00218352 0.00633299 -0.0169551 -0.0151301 -0.0116134 0.032405 -0.0192031 -0.0119063 0.00123456 0.00895288 0.00655797 0.00162706 0.00446157 0.00958865 0.0130895 0.00594402 0.0395833 -0.0194332 0.0378086 0.0353542 0.0109181 -0.00583704 0.000697433 -0.0144214 -0.0423038
internal_weight=0 687.046 520.907 516.464 167.058 421.673 157.221 349.406 332.784 281.538 9.96233 70.5224 59.1831 351.151 167.898 161.564 134.723 128.285 146.894 133.857 101.335 13.6724 50.724 15.6039 32.522 15.4267 183.253 87.663 40.5801 15.9616
internal_count=5078 2930 2170 2148 697 1738 656 1451 1382 1164 41 293 246 1445 695 667 556 530 612 558 420 57 211 65 138 65 750 363 169 66
is_linear=0
shrinkage=0.05


Tree=19
num_leaves=31
num_cat=0
split_feature=4 22 4 22 0 22 0 15 12 0 28 9 0 34 6 33 9 5 24 29 12 10 17 10 7 0 23 33 24 7
split_gain=37.2788 24.4623 15.5607 14.0609 12.126 10.3309 15.1053 10.2065 9.27218 10.3499 9.08054 9.36431 10.1699 9.40326 8.75021 8.32718 8.65406 8.25591 8.99791 8.63486 7.8662 7.80354 7.72451 11.14 7.44467 7.28369 13.4717 7.26938 7.26865 7.90374
threshold=0.45650000000000007 0.32550000000000007 0.71100000000000008 0.53100000000000014 0.40350000000000008 0.68300000000000016 0.57450000000000012 0.23222222222222222 0.12642986152919936 0.61050000000000015 0.24059164597183771 0.47395014255117301 0.5445000000000001 0.22361111111111118 0.68918333333333348 0.25158730158730164 0.52026447073625814 0.24837662337662342 0.67989444444444469 0.37866568914956011 0.36341059602649017 0.22641710561826725 0.3015818431911968 0.46041985884045705 0.31240981240981247 0.47450000000000003 0.46672077922077931 0.27857142857142864 0.719275 0.66239669421487612
decision_type=8 8 10 10 8 10 8 10 2 10 10 2 8 2 2 10 2 2 2 2 2 8 10 10 2 10 2 8 2 2
left_child=3 -2 4 7 -3 10 20 8 -1 21 17 13 -13 -12 -14 22 -17 -6 -19 -20 -7 -10 23 -16 -8 26 -4 -15 -5 -30
right_child=1 2 25 28 5 6 24 -9 9 -11 11 12 14 27 15 16 -18 18 19 -21 -22 -23 -24 -25 -26 -27 -28 -29 29 -31
leaf_value=-0.064173338236869826 0.027362651488804398 -0.025782772864663031 -0.032609399268204706 -0.03069083314026998 0.043268880469299768 -0.036383083413284716 -0.019292281265845708 -0.054556043557640314 0.028557953803080949 0.040344525711393721 -0.039997958553286382 -0.015095413060254935 0.046972050338782725 0.01740004862461933 0.038338397601248138 -0.029001542577041774 0.038513728357590732 0.012717306487803262 -0.056007436153139523 0.011861394122709975 0.030001780720987921 -0.0049758880454526394 -0.037660850751484787 -0.0069675229078859846 0.036220704568608611 0.025830737036225522 0.053681299202642599 0.051301870701599653 -0.0092824582995230231 -0.071259796062224962
leaf_weight=5.7544664442539206 125.77030591666698 44.555881321430206 14.968913480639459 93.292337894439697 5.1475425064563742 47.645351603627205 9.4240656197071093 9.3384587913751584 18.763811036944389 14.981741204857824 6.0660221576690665 60.450650781393051 14.007607847452162 79.707693696022034 17.648482427000999 5.7483345419168463 27.228086650371552 11.48349194228649 20.266011521220211 6.0963668823242179 4.9235092252492896 230.02320767939091 13.393328770995138 58.681828185915947 16.816051036119461 91.656070575118065 6.4815983027219763 19.725199908018112 114.27154491841793 5.3865545392036429
leaf_count=24 589 185 62 394 21 199 39 41 78 65 25 246 61 327 73 24 114 48 83 25 20 952 55 243 69 403 27 82 481 23
internal_value=0 0.00736621 0.00304588 -0.0105545 -0.000968583 0.00163618 -0.0147 -0.00316657 -0.00138602 -1.62356e-05 0.00536087 0.00841531 0.00198179 0.0204384 0.00953314 0.00525907 0.0267447 -0.0161413 -0.0242218 -0.0403126 -0.0301656 -0.00244673 -0.00263762 0.00350775 0.0162834 0.0196926 -0.00653535 0.0241254 -0.0202291 -0.0120724
internal_weight=0 707.892 582.122 491.812 469.016 424.46 78.809 278.862 269.523 263.769 345.651 302.657 197.158 105.499 136.708 122.7 32.9764 42.9934 37.8459 26.3624 52.5689 248.787 89.7236 76.3303 26.2401 113.107 21.4505 99.4329 212.95 119.658
internal_count=5078 3020 2431 2058 1939 1754 327 1160 1119 1095 1427 1250 816 434 570 509 138 177 156 108 219 1030 371 316 108 492 89 409 898 504
is_linear=0
shrinkage=0.05


Tree=20
num_leaves=31
num_cat=0
split_feature=0 22 22 4 14 0 4 1 0 7 9 0 5 23 18 2 6 23 29 23 31 8 22 2 23 6 5 26 28 13
split_gain=34.6017 22.6514 19.8306 14.6118 11.852 9.56868 9.73934 9.07387 8.608 8.55538 11.1184 8.74721 8.22003 8.16825 8.54008 7.92043 7.82252 8.99491 7.20134 9.24993 7.18802 8.57951 8.88781 7.88584 7.49085 7.14686 7.75772 7.06467 10.0494 6.78293
threshold=0.52750000000000019 0.42500000000000004 0.30400000000000005 0.75750000000000017 0.64282333924830681 0.70850000000000002 0.19400000000000003 0.21347222222222223 0.28700000000000003 0.31993006993006995 0.48877531308946148 0.40350000000000008 0.36011904761904762 0.6103305785123968 0.37350000000000005 0.7031855727527293 0.78805000000000014 0.39125874125874127 0.43736908253037288 0.57424242424242433 0.34705000000000003 0.25250000000000006 0.63950000000000007 0.5813929582767472 0.38099173553719018 0.69209545454545474 0.32797619047619048 0.28950000000000004 0.28101310408351526 0.34784444444444457
decision_type=8 10 8 8 2 8 10 10 10 2 2 10 2 2 10 2 2 2 2 2 2 10 10 2 2 2 2 8 8 2
left_child=1 4 15 5 7 6 -4 9 -3 10 -1 12 -11 14 -8 -2 -5 -18 19 25 21 22 23 27 -25 26 -16 28 -10 -24
right_child=2 8 3 16 -6 -7 13 -9 20 11 -12 -13 -14 -15 18 -17 17 -19 -20 -21 -22 -23 29 24 -26 -27 -28 -29 -30 -31
leaf_value=6.7747599273437935e-05 0.036065613524844581 -0.042505953629486164 -0.041030632260938171 0.039857557395987966 -0.070348437105522743 0.034067753888964616 0.058873503621450052 -0.054795205519212298 -0.038718428107179133 0.0028258413060728797 -0.068961813563546942 0.019411031779774941 -0.057460898536902186 0.043427826663794682 0.038223337697467545 -0.030037739308679409 0.040778483096818051 -0.042504206498330636 -0.047943405447194803 -0.051812370961972658 0.013331890099014993 -0.020921709492112653 -0.027497615493345354 -0.081586392543824382 0.00089389481544452235 -0.0017370666418041851 -0.0019781582963555862 0.061144146572631376 0.0077296911851335789 0.024677135726300887
leaf_weight=27.976046457886696 78.597131103277206 24.793819099664688 13.947681829333304 42.494909912347794 5.0926450043916693 21.782330736517906 6.0716928243637076 5.8413631319999686 13.17734235525131 52.96380652487278 7.3700126856565467 135.6878841817379 6.3299383819103232 11.286054044961928 25.510237917304039 4.8087449222803107 5.978524297475813 7.0833502858877182 7.9610465168952933 8.3051440566778165 25.89194156229496 206.9294586032629 55.886291325092316 5.3616792261600477 5.6573580950498581 247.63585671782494 22.659432590007782 5.3465435355901709 100.15266309678555 7.0107013881206504
leaf_count=118 385 108 58 193 21 97 26 26 54 219 31 577 26 47 109 22 28 32 33 34 107 865 235 22 23 1025 96 22 410 29
internal_value=0 -0.00724282 0.00998205 0.00556661 0.00511931 0.00193202 -0.000106524 0.00674666 -0.0138676 0.00830743 -0.0143256 0.0124103 -0.0036101 0.00162616 0.000143254 0.0322544 0.0294557 -0.00438505 -0.000999406 0.0002295 -0.0121985 -0.013853 -0.00625811 0.00122186 -0.0392396 0.00169065 0.0193122 0.00497868 0.00232898 -0.021682
internal_weight=0 691.469 504.122 420.716 241.262 365.159 343.377 236.169 450.208 230.328 35.3461 194.982 59.2937 329.429 318.143 83.4059 55.5568 13.0619 312.072 304.111 425.414 399.522 192.593 129.696 11.019 295.806 48.1697 118.677 113.33 62.897
internal_count=5078 2893 2185 1778 1018 1525 1428 997 1875 971 149 822 245 1370 1323 407 253 60 1297 1264 1767 1660 795 531 45 1230 205 486 464 264
is_linear=0
shrinkage=0.05


Tree=21
num_leaves=31
num_cat=0
split_feature=4 22 0 33 1 25 0 7 16 0 9 4 13 5 13 0 22 23 32 17 15 10 16 21 0 9 22 28 19 31
split_gain=31.7747 21.0134 14.0877 12.1568 10.8808 10.3992 8.96094 8.83575 9.98572 9.40926 10.3517 10.8413 10.8382 9.63218 8.75596 9.41421 8.18728 9.81797 8.37671 9.26164 7.87096 7.75466 9.12217 7.74512 8.6912 8.27892 7.66351 7.4031 7.15123 8.50613
threshold=0.45650000000000007 0.42500000000000004 0.63450000000000017 0.23941798941798945 0.21902777777777779 0.46789321789321792 0.40350000000000008 0.66239669421487612 0.48777777777777787 0.49850000000000005 0.34716583650023575 0.30400000000000005 0.35005000000000003 0.3322510822510823 0.32889444444444454 0.60850000000000015 0.70300000000000007 0.51883116883116898 0.58171738847000543 0.29539202200825321 0.13041666666666671 0.24537538867548694 0.31730769230769235 0.2535776475739156 0.5505000000000001 0.62375638714992043 0.68300000000000016 0.3853783757892098 0.20661375661375667 0.30790000000000012
decision_type=8 8 8 10 8 2 10 2 2 10 2 10 2 2 2 10 8 2 2 8 10 10 2 2 10 2 10 10 10 2
left_child=3 23 6 7 5 14 -3 8 9 10 11 -1 16 -11 15 -5 17 18 19 -13 -15 -16 -23 -2 25 -25 -8 -24 29 -4
right_child=1 2 28 4 -6 -7 26 -9 -10 13 -12 12 -14 20 21 -17 -18 -19 -20 -21 -22 22 27 24 -26 -27 -28 -29 -30 -31
leaf_value=-0.02513728881226986 -0.049484494909552861 -0.025923858836073468 0.027945237306486861 -0.013740412313164883 -0.059848913648308202 0.040370443232320516 0.0035282570151775067 -0.062818330069719666 -0.03744586474347672 0.024855246625795864 -0.040164590330705574 0.021815412027123903 0.050087438720779177 0.04114131464989193 0.048170416276685328 0.037901076201501488 -0.046461391474299965 0.067902089374583377 0.03081998211050245 -0.044395871541565095 -0.027089798385440168 -0.047227735027152655 -0.0024556328842877881 0.014099290894560102 0.03113649180844958 -0.052970284517605784 -0.013783753967298383 0.037869637559378035 0.045023014472183619 -0.016419409038969119
leaf_weight=60.03506900370121 4.0717476159334174 38.385088622570038 27.245051071047783 116.69994260370731 7.5780561268329611 15.632916212081907 274.52684086561203 10.061475828289984 41.848361387848854 31.921009823679924 37.500392064452171 8.0213029980659503 10.864441514015196 5.1392879933118847 12.378760710358618 9.5472279489040357 9.6208252608776075 5.3574961870908728 11.168088451027868 15.463302701711653 23.803385555744171 7.4119209051132193 31.139854401350021 128.90037652850151 101.04808677732944 4.7714257985353461 83.328912958502769 17.9376280605793 22.178217932581902 17.904614627361298
leaf_count=259 19 161 119 485 34 67 1133 43 176 133 158 33 45 21 52 42 41 22 46 64 100 31 131 563 480 21 348 75 100 76
internal_value=0 0.00683452 0.0006274 -0.00976378 -0.000984859 0.00113177 -0.00296555 -0.0168415 -0.0150673 -0.010789 -0.0172224 -0.0100844 0.00485395 0.00591507 -0.00201209 -0.00983511 -0.00504786 0.00491042 -0.00482844 -0.021781 -0.0149741 0.0123288 0.00447474 0.0188845 0.0200705 0.0117052 -0.000502951 0.0122831 0.0217728 0.0103519
internal_weight=0 702.36 463.569 489.131 218.326 210.748 396.241 270.804 260.743 218.895 158.031 120.531 60.4955 60.8637 195.115 126.247 49.631 40.0102 34.6527 23.4846 28.9427 68.8682 56.4894 238.792 234.72 133.672 357.856 49.0775 67.3279 45.1497
internal_count=5078 3020 1937 2058 917 883 1642 1141 1098 922 668 510 251 254 816 527 206 165 143 97 121 289 237 1083 1064 584 1481 206 295 195
is_linear=0
shrinkage=0.05


Tree=22
num_leaves=31
num_cat=0
split_feature=0 22 4 33 0 27 7 34 9 28 35 22 34 4 7 1 5 29 11 7 22 22 19 3 17 13 21 1 25 4
split_gain=29.0297 19.9482 14.0626 12.8017 10.7436 9.44067 12.3077 10.8047 9.90349 8.03636 15.2871 11.9625 8.06086 7.8779 7.85828 8.87189 9.2673 8.33928 9.17259 8.34924 7.8192 7.75385 8.43305 8.7314 8.41901 8.39508 13.9293 7.58233 9.39291 7.42099
threshold=0.48650000000000004 0.35850000000000004 0.70700000000000007 0.24206349206349212 0.28700000000000003 0.52674195922691081 0.40527654164017807 0.34449404761904762 0.30407710672324489 0.28884021939392729 0.30784313725490203 0.23300000000000001 0.31574074074074077 0.45250000000000007 0.29935064935064942 0.13013888888888889 0.31843156843156845 0.38210445468509985 0.50147928994082858 0.47038567493112954 0.54750000000000021 0.58550000000000002 0.22883597883597886 0.57334919866006906 0.26513067400275114 0.3441818181818182 0.55944153817351616 0.10958333333333335 0.31060606060606061 0.34300000000000003
decision_type=8 8 8 10 10 2 2 2 2 10 10 10 2 10 2 10 2 2 2 2 8 10 10 2 10 2 2 8 2 10
left_child=3 -2 29 4 -1 6 7 8 -5 11 -11 -8 -13 -10 -6 21 17 18 -17 -19 -12 22 23 27 -25 -23 -27 28 -16 -3
right_child=1 2 -4 5 14 -7 9 -9 13 10 20 12 -14 -15 15 16 -18 19 -20 -21 -22 25 -24 24 -26 26 -28 -29 -30 -31
leaf_value=-0.050658240754619804 0.022169255788929677 -0.016842931393548564 0.019148554647699684 0.049800337947880968 -0.049878029995121448 -0.019315817184588826 0.048149590168090256 -0.030808727611736777 -0.04281581495121517 -0.021237939325045349 0.032502564150120518 -0.048159102895499843 0.0031188896989292956 0.021507890738880125 -0.019965434266794164 -0.027981455219222313 -0.043229988126210761 0.065812351244853309 0.027515191473983916 -0.011638784371592329 0.090738149846009711 -0.022245413485636668 -0.054134286068871162 0.018191589243182066 -0.067867164364157573 -0.022272944823145652 0.070028793854466809 0.04458284593013586 0.036028661011376022 0.001014298247997567
leaf_weight=20.568620324134827 161.08070553839207 69.820411339402199 97.185936704277992 10.389210283756258 13.845581293106077 48.30117866396904 9.9632866978645307 34.131837248802185 9.5906200706958789 12.648356243968008 42.565560266375542 11.528324276208876 22.864374443888664 9.450474873185156 16.060606360435489 52.298456713557243 34.960735037922859 6.23292128741741 8.6815462410449964 7.8771326243877411 6.6668029129505149 62.730306804180145 4.9010995477437964 5.5605226010084134 5.8127296715974808 9.4395425766706484 7.2089660912752143 22.366919651627541 14.034060999751089 348.97073811292648
leaf_count=91 760 293 432 44 58 203 42 142 40 53 178 48 96 41 66 222 149 26 36 34 28 265 20 23 24 39 30 92 58 1445
internal_value=0 0.00680886 0.00201356 -0.00898049 -0.0158154 0.000188558 0.0057368 -0.0116664 0.0105339 0.0161493 0.0277921 -9.36541e-05 -0.0140693 -0.0108907 -0.0131807 -0.0112126 -0.0219657 -0.0120654 -0.0200806 0.0225742 0.0403885 -0.00322302 0.00907089 0.0139236 -0.025792 -0.0138686 0.0176946 0.0225337 0.00614632 -0.00196284
internal_weight=0 677.058 515.977 510.68 292.58 218.1 169.799 63.5621 29.4303 106.237 61.8807 44.356 34.3927 19.0411 272.011 258.166 110.051 75.0901 60.98 14.1101 49.2324 148.115 68.7359 63.8348 11.3733 79.3788 16.6485 52.4616 30.0947 418.791
internal_count=5078 2930 2170 2148 1233 915 712 267 125 445 259 186 144 81 1142 1084 467 318 258 60 206 617 283 263 47 334 69 216 124 1738
is_linear=0
shrinkage=0.05


Tree=23
num_leaves=31
num_cat=0
split_feature=22 0 0 0 6 4 1 22 21 24 25 3 5 12 10 35 22 27 0 4 7 28 33 2 12 4 8 18 0 5
split_gain=27.2437 18.6047 13.6467 10.8352 13.4398 10.4662 8.75785 9.2427 10.2017 12.5829 10.6953 10.2634 10.4782 9.01686 8.69054 8.80934 8.19466 8.65571 8.67927 8.14112 9.25233 8.86667 8.09512 8.11951 7.98431 7.58372 7.53815 7.29738 7.26089 8.99244
threshold=0.5415000000000002 0.40050000000000008 0.61150000000000004 0.63650000000000018 0.79363333333333352 0.21100000000000005 0.10319444444444446 0.29000000000000004 0.43471728740272403 0.74947727272727283 0.33719851576994442 0.62557754404083166 0.39646464646464652 0.22093451066961006 0.29207334459488071 0.30627450980392162 0.81300000000000006 0.54546508567505347 0.69650000000000001 0.70300000000000007 0.30440771349862267 0.31695120601682664 0.16428571428571434 0.44846629449288816 0.14606328182487127 0.49000000000000005 0.25550000000000006 0.59050000000000014 0.46950000000000003 0.26884920634920639
decision_type=10 8 8 10 2 8 8 10 2 2 2 2 2 2 8 10 10 2 10 8 2 10 10 2 2 10 10 10 10 2
left_child=1 -1 5 4 6 22 13 -8 9 10 -9 12 -12 19 -10 25 17 18 -4 20 21 -3 23 -2 -7 -16 -13 -23 29 -15
right_child=2 3 16 -5 -6 24 7 8 14 -11 11 26 -14 28 15 -17 -18 -19 -20 -21 -22 27 -24 -25 -26 -27 -28 -29 -30 -31
leaf_value=-0.012197702324730893 0.050364835922008758 -0.067168821999691361 -0.014483549413325393 0.029694234150579674 -0.045893109290103672 -0.064485707205302459 0.017847344367130227 -0.039081062943071634 0.030770234627971162 0.043281318043616131 -0.0086128020992183776 0.049210109881691194 -0.09199168120456977 0.036298300087401619 -0.030713645267122509 0.012763095634297806 -0.051276519832833815 0.034327327108423088 0.055267876649860874 0.031931858630497738 0.013937601383712382 -0.028908143287491118 -0.048404525488117425 -0.043327560554232689 -0.0091200924454649494 0.011627803430307809 -0.011477888874535186 0.045330957330119513 0.028325146904915596 -0.015862502942940112
leaf_weight=115.93695782124996 4.7356520891189557 9.9739021658897418 26.122680842876438 60.77642510831356 11.565315932035444 6.6350205540657035 79.125578984618187 40.758853167295456 29.384607255458832 8.440859913825987 16.905003562569622 11.409756615757944 4.8487948030233374 12.858116611838339 30.782668396830559 59.957433938980103 4.867086634039878 32.065400943160057 5.3779743760824195 15.300604552030562 21.923061594367027 11.246392056345938 32.414663538336754 4.5189786553382874 350.47669498622417 16.109664604067802 9.2772845625877363 4.6906985789537421 122.58580102026463 23.12030816078186
leaf_count=487 21 44 110 286 52 28 359 169 122 35 70 49 20 54 126 248 20 140 25 72 94 48 144 20 1465 67 39 21 546 97
internal_value=0 0.00614102 -0.00937582 0.00967845 0.0074268 -0.0129157 0.00859317 0.00312456 -0.00198766 -0.0148867 -0.020788 -0.00321993 -0.0271975 0.0161659 0.0066891 6.65843e-05 0.0112523 0.01604 -0.00257518 0.000185602 -0.00996902 -0.0301962 -0.0366289 0.00461542 -0.0101488 -0.0161674 0.021994 -0.00705765 0.0225287 0.00277894
internal_weight=0 716.978 467.214 601.041 540.265 398.781 528.699 307.001 227.875 91.6406 83.1997 42.4408 21.7538 221.699 136.234 106.85 68.4331 63.5661 31.5007 63.1347 47.8341 25.911 41.6693 9.25463 357.112 46.8923 20.687 15.9371 158.564 35.9784
internal_count=5078 3105 1973 2618 2332 1678 2280 1304 945 382 347 178 90 976 563 441 295 275 135 279 207 113 185 41 1493 193 88 69 697 151
is_linear=0
shrinkage=0.05


Tree=24
num_leaves=31
num_cat=0
split_feature=0 22 19 4 4 16 9 16 4 6 29 8 3 22 0 0 34 12 4 19 6 23 11 8 1 13 35 33 22 14
split_gain=25.1397 17.6301 12.644 10.1485 9.59724 9.59276 9.0571 8.33229 7.85202 8.48415 7.62337 7.6086 9.96888 8.35073 7.13959 7.13846 7.40818 8.81522 7.12225 6.98612 8.50416 6.96058 6.9306 8.05079 6.91916 11.1849 9.21723 7.99172 6.89533 6.73223
threshold=0.5505000000000001 0.47250000000000003 0.22883597883597886 0.13400000000000004 0.71100000000000008 0.46388888888888896 0.58460312628651379 0.48619047619047628 0.40450000000000003 0.69963333333333344 0.4653958944281526 0.25150000000000006 0.61622528790358755 0.38700000000000007 0.59650000000000014 0.32450000000000007 0.25297619047619047 0.3221118469462842 0.62200000000000011 0.16640211640211647 0.74830303030303047 0.19917355371900833 0.57303807303807319 0.30750000000000005 0.12069444444444445 0.30859166666666676 0.2419607843137255 0.19814814814814821 0.67450000000000021 0.5254715887077458
decision_type=8 10 10 10 8 2 2 2 8 2 2 8 2 8 8 10 2 2 10 8 2 2 2 10 8 2 10 10 8 2
left_child=1 3 7 -1 6 11 15 24 -9 -10 21 13 14 -4 -13 -3 17 -17 -8 20 -11 -5 23 -18 25 26 -2 -26 -22 -23
right_child=2 4 5 10 -6 -7 18 8 9 19 -12 12 -14 -15 -16 16 22 -19 -20 -21 28 29 -24 -25 27 -27 -28 -29 -30 -31
leaf_value=-0.028384570923018684 -0.049920149799457615 -0.034546063965177023 0.044093252861484036 -0.051560454806660744 0.013657815768236204 0.03271690140904767 -0.070122186517217897 -0.046757694250339668 0.029009954780967184 -0.070512804622623063 0.060593925768760729 -0.014514440448024968 -0.052651621686820263 0.0032317513513688864 0.050132648678029412 -0.066284340997591867 -0.0036441873967590233 -0.0035886238932494249 -0.0023194748825504613 0.0012157451856238944 0.017883347379864686 0.0092142330898164326 -0.028693120243767009 -0.038633980871445261 0.015697841692665981 0.047417509532623858 0.013939514624710879 -0.029560014363767029 -0.054120172915538549 -0.0078262913871322056
leaf_weight=23.870984449982643 6.2651154398918143 33.121990457177162 21.172655522823334 5.4789718836545935 34.068569034337997 84.76334573328495 12.269138276576998 11.868012532591818 16.303767830133438 9.2200856357812899 6.1314064860343924 11.451204627752309 9.9285901486873609 30.537950217723846 6.8111566901206961 12.396107465028765 273.04170942306519 10.236289635300635 5.6598467379808417 40.31892554461956 8.9466882050037349 250.28074875473976 37.124899461865425 17.493010312318802 19.809576973319054 24.492911532521248 57.599054008722305 19.216294765472412 5.291520595550538 75.428479209542274
leaf_count=103 26 148 106 23 141 395 51 50 71 38 26 50 44 133 31 53 1144 43 23 176 38 1062 156 76 83 106 252 83 22 325
internal_value=0 -0.00504592 0.0105287 0.00312101 -0.0118207 0.0209999 -0.0139835 0.00266731 -0.00880322 -0.00317836 0.00535056 0.00857004 -0.0123268 0.0199623 0.00959643 -0.0123592 -0.0102614 -0.037928 -0.0487181 -0.0114069 -0.033102 0.00432782 -0.00835034 -0.00575091 0.0109471 0.0186917 0.00767484 -0.00658708 -0.00887621 0.00526795
internal_weight=0 796.602 383.997 361.191 435.412 164.665 401.343 219.332 91.949 80.081 337.32 79.9016 28.191 51.7106 18.2624 383.414 350.292 22.6324 17.929 63.7772 23.4583 331.188 327.66 290.535 127.383 88.3571 63.8642 39.0259 14.2382 325.709
internal_count=5078 3374 1704 1539 1835 759 1694 945 395 345 1436 364 125 239 81 1620 1472 96 74 274 98 1410 1376 1220 550 384 278 166 60 1387
is_linear=0
shrinkage=0.05


Tree=25
num_leaves=31
num_cat=0
split_feature=4 22 4 25 4 0 19 10 11 11 0 9 12 2 1 22 28 7 0 28 5 3 29 2 24 34 30 13 13 11
split_gain=23.2843 16.9471 10.9398 9.47499 9.55597 8.93856 7.7769 7.47898 11.3627 8.54338 8.11182 8.31145 7.65886 7.19122 7.1378 7.00833 8.04966 9.4612 8.00851 8.40186 7.74039 7.71866 8.02873 6.99765 6.85085 9.3921 7.09881 6.59361 17.47 6.58126
threshold=0.45650000000000007 0.32550000000000007 0.71100000000000008 0.46882086167800457 0.23300000000000001 0.32150000000000006 0.17063492063492067 0.44112429092650468 0.55662393162393176 0.49611499611499621 0.36450000000000005 0.34716583650023575 0.41961000735835174 0.69495497829627673 0.14597222222222225 0.63950000000000007 0.24059164597183771 0.59924242424242435 0.57450000000000012 0.26877896500612058 0.24837662337662342 0.66651047192285207 0.37866568914956011 0.55510527324651204 0.74947727272727283 0.42392676767676774 0.45537475345167661 0.32542222222222233 0.31957272727272734 0.42796092796092805
decision_type=8 8 10 2 10 8 10 8 2 2 10 2 2 2 10 10 10 2 8 8 2 2 2 2 2 2 2 2 2 2
left_child=3 13 5 4 -1 -3 -6 8 9 12 -11 -12 -8 -2 24 16 20 -18 19 -17 -7 22 -22 -5 25 -9 -26 28 29 -4
right_child=1 2 27 23 6 15 7 14 -10 10 11 -13 -14 -15 -16 18 17 -19 -20 -21 21 -23 -24 -25 26 -27 -28 -29 -30 -31
leaf_value=-0.023399500552118466 0.025913193068566279 -0.052117192732953468 -0.0063700261709689378 -0.0057379913467284598 -0.018608793159516399 0.036310586819305671 -0.001330265717355826 -0.0044503504725534803 -0.028464592965013743 -0.032452943905745567 0.063430961699897787 0.013596664615662425 0.046652179742304858 -0.028206710564724253 -0.055236815661905463 0.032107077290107103 0.0050941519642561089 0.067239619879550613 0.0082906180911138643 -0.025624626348488368 -0.049390394893572963 0.017929309951996011 0.01407730055463894 0.052075111158486988 0.052889822525546387 -0.047827931425342717 -0.016599448094061792 0.043695361635472822 -0.069872899968037236 0.025173328510474758
leaf_weight=102.0482330173254 113.44113308191299 8.4121218174695951 22.432073324918747 10.018966004252436 92.072049200534821 6.040937438607215 109.75743602216244 47.245550334453583 23.356476441025734 4.6387648433446875 16.459434404969215 17.017100557684898 8.9982897937297803 6.4891329705715171 9.2542238384485227 6.9427018463611594 292.62204466760159 6.2553724348545066 36.321390435099602 68.303217902779579 24.089799806475643 8.3847611397504789 6.2823785543441764 10.959503486752508 8.2051768153905851 16.957757860422134 6.6571645587682715 18.520808830857277 6.2261514365673056 62.914013937115669
leaf_count=447 558 37 99 43 391 25 461 198 98 20 69 72 38 31 40 29 1222 26 151 288 99 36 26 48 35 70 28 81 27 285
internal_value=0 0.00589127 0.0023182 -0.00840118 -0.00989139 -0.00104612 -0.00606886 -0.00176952 0.00407165 0.00891596 0.0295123 0.0380987 0.00230543 0.0229849 -0.0136891 -0.000102408 0.00343227 0.00639483 -0.0109907 -0.0202979 -0.016333 -0.0245384 -0.0362623 0.0244645 -0.00882619 -0.0159075 0.0217641 0.0164869 0.0109839 0.0168826
internal_weight=0 693.678 573.748 483.646 462.668 463.655 360.619 268.547 180.228 156.871 38.1153 33.4765 118.756 119.93 88.3199 455.243 343.675 298.877 111.567 75.2459 44.7979 38.7569 30.3722 20.9785 79.0656 64.2033 14.8623 110.093 91.5722 85.3461
internal_count=5078 3020 2431 2058 1967 1939 1520 1129 758 660 161 141 499 589 371 1902 1434 1248 468 317 186 161 125 91 331 268 63 492 411 384
is_linear=0
shrinkage=0.05


Tree=26
num_leaves=31
num_cat=0
split_feature=0 22 22 4 14 0 25 4 35 33 6 23 4 23 18 16 10 33 24 19 0 2 8 6 29 23 9 6 5 20
split_gain=22.1872 14.6578 14.3829 11.1835 10.3242 7.62432 7.57798 9.05245 7.76628 7.6727 7.46659 8.0839 7.35866 7.3984 7.44107 7.34527 11.6178 7.77301 8.32846 7.89485 7.1088 6.96199 6.9497 7.41422 6.85244 7.83752 6.51176 6.47842 7.11702 7.00376
threshold=0.52750000000000019 0.30400000000000005 0.42500000000000004 0.75750000000000017 0.64282333924830681 0.70850000000000002 0.24345238095238098 0.29700000000000004 0.34392156862745099 0.26534391534391538 0.78805000000000014 0.39125874125874127 0.19400000000000003 0.6103305785123968 0.37350000000000005 0.40703703703703709 0.22981066202812453 0.35952380952380963 0.62318333333333342 0.31931216931216938 0.18650000000000003 0.7031855727527293 0.28850000000000003 0.71105000000000007 0.43736908253037288 0.57424242424242433 0.65682230797791663 0.69209545454545474 0.32797619047619048 0.46894902966993318
decision_type=8 8 10 8 2 8 2 10 10 8 2 2 10 2 10 2 8 8 2 10 10 2 10 2 2 2 2 2 2 2
left_child=2 21 4 5 6 12 7 -1 9 -9 26 -12 -3 14 -14 17 -17 18 -8 -20 -4 -2 -18 -24 25 27 -5 28 -16 -29
right_child=1 3 20 10 -6 -7 15 8 -10 -11 11 -13 13 -15 24 16 22 -19 19 -21 -22 -23 23 -25 -26 -27 -28 29 -30 -31
leaf_value=-0.06636980509614826 0.031648125175606209 -0.036606996651344835 -0.072517640306970707 0.061217129987384905 -0.066759308682883267 0.03039988438926396 -0.048190870624980855 0.0092866812216607017 0.037754540940137721 -0.049122838105481167 0.036571201012547815 -0.043795451442586009 0.055150090659270012 0.041002546537640731 0.036203309178179315 0.070545958849316678 0.0014948562595563548 0.060287905535367607 0.02413213909888132 -0.033758295008509839 -0.010500960284160851 -0.030578967242296418 -0.079982775873145645 0.0011458277488262771 -0.047592432319810307 -0.048436323205132747 0.020203945140463149 -0.0071565032247734618 -0.0025823071385496143 0.012412617661845997
leaf_weight=6.9585877805948249 73.996214672923088 13.643780544400213 4.6700600683689109 15.804420158267019 5.0338846594095221 21.018275633454323 4.9227601289749137 11.796066388487821 8.4082501977682096 10.742720052599905 5.6598722487688047 6.9976168721914291 5.885997846722602 11.09484915435314 25.023088082671165 5.6458993703126898 89.64007705450058 10.655647069215773 66.473537430167198 6.4618944972753516 438.30110573768616 4.7855313420295706 5.7381332963705045 5.5303374975919724 7.8921798616647711 8.2570954263210279 24.967317685484886 184.66096453368664 22.429131433367729 60.768826082348824
leaf_count=30 385 58 22 74 21 97 21 49 36 45 28 32 26 47 109 25 384 47 284 28 1853 22 24 24 33 34 119 772 96 253
internal_value=0 0.00809969 -0.00582837 0.0043388 0.00408493 0.00117626 0.00561566 -0.014841 -0.00325449 -0.0185532 0.0256875 -0.00785902 -0.000632127 0.00087344 -0.000540348 0.0095908 0.000747781 0.0202362 0.0147547 0.0190032 -0.0111548 0.0278682 -0.00315747 -0.0401665 -0.00160106 -0.000395732 0.036102 0.000958656 0.0178706 -0.00231116
internal_weight=0 492.885 680.979 414.103 238.008 360.674 232.974 37.9056 30.947 22.5388 53.4292 12.6575 339.656 326.012 314.917 195.068 106.554 88.5138 77.8582 72.9354 442.971 78.7817 100.909 11.2685 309.031 301.139 40.7717 292.882 47.4522 245.43
internal_count=5078 2185 2893 1778 1018 1525 997 160 130 94 253 60 1428 1370 1323 837 457 380 333 312 1875 407 432 48 1297 1264 193 1230 205 1025
is_linear=0
shrinkage=0.05


Tree=27
num_leaves=31
num_cat=0
split_feature=22 0 0 0 6 18 22 27 0 6 4 33 1 12 22 21 24 25 3 5 10 3 10 12 28 7 4 7 22 24
split_gain=20.5334 15.0904 10.4655 9.04645 11.9023 8.9077 7.3866 7.81512 7.648 7.24302 7.21555 8.60386 7.07663 8.27041 7.11139 9.13631 11.1784 9.3219 9.09754 9.30029 7.87138 7.53619 7.06342 7.06055 7.02101 8.38643 6.92114 8.40885 8.77997 6.8569
threshold=0.5415000000000002 0.40050000000000008 0.61150000000000004 0.63650000000000018 0.79363333333333352 0.62550000000000006 0.81300000000000006 0.54546508567505347 0.69650000000000001 0.71209545454545464 0.21100000000000005 0.16428571428571434 0.10319444444444446 0.22093451066961006 0.29000000000000004 0.43471728740272403 0.74947727272727283 0.33719851576994442 0.62557754404083166 0.39646464646464652 0.29207334459488071 0.53482725662209762 0.38480666350112086 0.14606328182487127 0.30287997478590051 0.31993006993006995 0.70300000000000007 0.30440771349862267 0.29000000000000004 0.61508888888888902
decision_type=10 8 8 10 2 10 8 2 10 2 8 10 8 2 10 2 2 2 2 2 8 2 10 2 8 2 8 2 10 2
left_child=1 9 5 4 12 10 7 8 -4 29 11 -2 13 26 -14 16 17 -16 19 -19 -17 24 -20 -12 -22 -26 27 28 -3 -1
right_child=2 3 6 -5 -6 -7 -8 -9 -10 -11 23 -13 14 -15 15 20 -18 18 22 -21 21 -23 -24 -25 25 -27 -28 -29 -30 -31
